~o
<STREAMINFO> 1 25
<VECSIZE> 25<NULLD><MFCC_D_N_Z_0><DIAGC>
~s "silst"
<MEAN> 25
 -2.966538e+00 -3.905959e-01 -7.688155e-01 6.001804e+00 8.791519e+00 4.775239e+00 9.449411e+00 7.272250e+00 5.845719e+00 3.325607e+00 4.344059e+00 5.698639e+00 -1.013617e-01 -8.286059e-03 2.124949e-02 5.898510e-02 1.079195e-01 1.303108e-01 8.506695e-02 3.042934e-02 1.963729e-02 4.437143e-02 6.654668e-02 2.680143e-02 -7.882904e-02
<VARIANCE> 25
 6.377059e+00 2.190839e+01 1.483198e+01 1.696622e+01 1.964820e+01 2.567498e+01 2.391837e+01 2.440066e+01 2.351653e+01 2.275469e+01 2.929345e+01 1.934257e+01 2.650764e-01 7.170258e-01 5.949942e-01 7.621226e-01 1.124566e+00 1.367211e+00 1.404924e+00 1.482948e+00 1.523389e+00 1.575918e+00 1.449444e+00 1.271700e+00 4.037095e-01
<GCONST> 8.092264e+01
~h "A"
<BEGINHMM>
<NUMSTATES> 5
<STATE> 2
<MEAN> 25
 6.294134e+00 -7.612643e+00 -7.736143e+00 -9.954975e+00 -1.706678e+00 1.672496e-02 -7.388938e+00 -5.779892e-01 3.278787e+00 -4.623204e-01 -5.451035e+00 -7.412344e+00 -1.033860e-01 -1.445074e+00 -6.470338e-01 -4.466753e-02 1.065111e-02 7.480940e-01 6.663953e-01 1.165320e+00 4.394796e-01 -6.709819e-01 -7.750543e-01 -3.879029e-01 7.123584e-01
<VARIANCE> 25
 8.546567e+00 2.766938e+01 3.525098e+01 3.846475e+01 5.335802e+01 7.003300e+01 5.257001e+01 4.917623e+01 4.397523e+01 5.449240e+01 4.700318e+01 4.359811e+01 4.034187e-01 1.821628e+00 2.278763e+00 2.387623e+00 3.327684e+00 4.012055e+00 3.109141e+00 4.931265e+00 3.680509e+00 2.829833e+00 2.846151e+00 2.541991e+00 8.142900e-01
<GCONST> 1.009396e+02
<STATE> 3
<MEAN> 25
 6.006413e+00 -1.012088e+01 -7.159675e+00 -7.147140e+00 -1.971428e+00 5.722976e-02 -6.324488e+00 7.581640e-01 1.440069e+00 -2.616009e+00 -6.519304e+00 -5.398386e+00 1.003278e-01 1.719356e-01 7.969642e-01 7.787194e-01 -9.523147e-01 -5.525962e-01 2.700058e-02 2.324135e-01 -4.398358e-01 -1.397442e-01 1.746267e-01 7.192621e-01 -4.898379e-01
<VARIANCE> 25
 9.425402e+00 3.807333e+01 3.270897e+01 3.558815e+01 5.497651e+01 6.665846e+01 5.251759e+01 4.773723e+01 5.318308e+01 5.307718e+01 4.418018e+01 4.989497e+01 4.335005e-01 1.264767e+00 1.448434e+00 1.798454e+00 2.911274e+00 2.664041e+00 2.712904e+00 2.980718e+00 2.279322e+00 2.313208e+00 2.070490e+00 1.871969e+00 5.136152e-01
<GCONST> 9.741261e+01
<STATE> 4
<MEAN> 25
 6.233470e+00 -5.540630e+00 -2.555143e+00 -4.110819e+00 -5.770704e+00 -4.154247e+00 -6.970434e+00 -3.182603e-01 7.542624e-01 -1.394117e+00 -4.221787e+00 -2.455752e+00 -4.921803e-01 1.869906e+00 1.615017e+00 1.656718e+00 3.752386e-02 -2.204499e-01 6.222168e-01 -7.673968e-01 -4.574390e-01 -2.821298e-02 7.685387e-01 7.277967e-01 -1.900996e+00
<VARIANCE> 25
 1.229250e+01 3.593422e+01 3.892395e+01 4.403993e+01 5.722179e+01 5.902886e+01 6.086853e+01 5.411734e+01 5.184621e+01 5.496825e+01 4.856219e+01 5.236508e+01 2.583068e+00 3.429886e+00 2.780685e+00 3.318511e+00 5.147422e+00 4.297141e+00 5.048349e+00 5.314519e+00 5.085867e+00 3.976042e+00 3.821049e+00 3.842175e+00 1.818476e+00
<GCONST> 1.085862e+02
<TRANSP> 5
 0.000000e+00 1.000000e+00 0.000000e+00 0.000000e+00 0.000000e+00
 0.000000e+00 6.039656e-01 3.960344e-01 0.000000e+00 0.000000e+00
 0.000000e+00 0.000000e+00 6.276194e-01 3.723805e-01 0.000000e+00
 0.000000e+00 0.000000e+00 0.000000e+00 4.767470e-01 5.232530e-01
 0.000000e+00 0.000000e+00 0.000000e+00 0.000000e+00 0.000000e+00
<ENDHMM>
~h "B"
<BEGINHMM>
<NUMSTATES> 5
<STATE> 2
<MEAN> 25
 6.358076e+00 6.415860e+00 1.331866e+00 3.400667e+00 2.094523e+00 -1.027387e+00 -6.186599e-01 -3.563849e+00 -1.692266e+00 -1.359537e+00 -2.276877e+00 -2.286066e+00 -2.300572e-02 1.340139e+00 4.421805e-01 7.550666e-01 6.967767e-01 -6.091438e-03 5.746897e-01 -1.810564e-01 -1.922576e-01 -4.288017e-01 -4.048028e-01 -1.572325e-01 -9.828736e-01
<VARIANCE> 25
 3.741307e+01 2.608218e+01 1.942171e+01 2.613213e+01 3.950831e+01 4.984341e+01 5.721522e+01 4.651225e+01 3.895015e+01 3.219823e+01 3.437652e+01 3.638376e+01 1.741346e+00 3.793314e+00 1.662704e+00 2.204132e+00 3.694979e+00 3.475794e+00 4.392924e+00 3.417103e+00 3.261552e+00 2.984303e+00 2.813893e+00 2.518355e+00 4.600639e+00
<GCONST> 1.030056e+02
<STATE> 3
<MEAN> 25
 5.239510e+00 7.948906e+00 2.486596e+00 4.997445e+00 3.296709e+00 -6.879835e-01 6.385802e-01 -3.622020e+00 -2.342218e+00 -2.372510e+00 -2.996279e+00 -2.388441e+00 -7.963844e-02 -1.186668e+00 4.705839e-01 -5.607055e-01 -1.772340e+00 -1.344970e+00 -1.429212e+00 -6.962785e-01 -9.193594e-01 -8.310112e-01 4.815146e-02 -1.605589e-01 2.624363e+00
<VARIANCE> 25
 3.231187e+01 3.053288e+01 1.763221e+01 2.605565e+01 3.573697e+01 4.179236e+01 4.639268e+01 4.296234e+01 3.749383e+01 3.049124e+01 3.259651e+01 3.117348e+01 4.032389e+00 3.606014e+00 3.647695e+00 3.599851e+00 4.413037e+00 4.927719e+00 4.657194e+00 4.771352e+00 4.268551e+00 3.506714e+00 3.256374e+00 3.306000e+00 3.146176e+00
<GCONST> 1.055038e+02
<STATE> 4
<MEAN> 25
 3.926215e+00 2.285773e+00 3.189249e+00 3.660635e+00 -2.085454e+00 -4.463164e+00 -3.198427e+00 -4.585041e+00 -4.010820e+00 -4.063681e+00 -1.568584e+00 -1.911185e+00 1.634758e-01 -2.676946e+00 6.857858e-01 -2.802512e+00 -3.657047e+00 -1.096115e+00 -2.497045e+00 -8.792570e-01 -1.662854e+00 -4.844567e-01 6.027418e-01 -2.258143e-02 4.441347e+00
<VARIANCE> 25
 2.610931e+01 3.006577e+01 4.273919e+01 4.316500e+01 4.332378e+01 4.261921e+01 3.752418e+01 3.334945e+01 3.338121e+01 3.062220e+01 2.857473e+01 2.450777e+01 4.123768e+00 3.873800e+00 9.514565e+00 7.865029e+00 6.600978e+00 7.231842e+00 6.235662e+00 6.765003e+00 7.118285e+00 6.759905e+00 5.098361e+00 4.067618e+00 2.967530e+00
<GCONST> 1.109544e+02
<TRANSP> 5
 0.000000e+00 1.000000e+00 0.000000e+00 0.000000e+00 0.000000e+00
 0.000000e+00 5.424682e-01 4.575317e-01 0.000000e+00 0.000000e+00
 0.000000e+00 0.000000e+00 3.026313e-01 6.973687e-01 0.000000e+00
 0.000000e+00 0.000000e+00 0.000000e+00 3.190190e-01 6.809810e-01
 0.000000e+00 0.000000e+00 0.000000e+00 0.000000e+00 0.000000e+00
<ENDHMM>
~h "C"
<BEGINHMM>
<NUMSTATES> 5
<STATE> 2
<MEAN> 25
 -9.808045e-01 8.297996e+00 7.424623e+00 1.222904e+00 -2.669118e+00 -4.628191e+00 -2.963605e+00 -3.370798e+00 -3.486753e+00 -4.722999e+00 -2.844398e+00 -2.310869e+00 -3.051450e+00 1.735951e+00 3.361068e-01 1.493060e-01 2.045905e+00 1.269490e+00 1.123146e+00 7.168402e-01 8.089051e-01 2.511715e-01 5.696624e-01 7.762663e-02 -4.136434e-01
<VARIANCE> 25
 4.228389e+01 3.886376e+01 2.715568e+01 3.128090e+01 5.004985e+01 4.026041e+01 4.265074e+01 3.684002e+01 3.682277e+01 3.064039e+01 2.711759e+01 3.034451e+01 5.636448e+00 5.050164e+00 3.181449e+00 3.118035e+00 4.327926e+00 3.867763e+00 4.077748e+00 4.228217e+00 3.905834e+00 3.633514e+00 3.684747e+00 2.949591e+00 4.384480e+00
<GCONST> 1.066301e+02
<STATE> 3
<MEAN> 25
 -1.531183e+01 8.847542e+00 7.344199e+00 -3.206277e-01 3.363894e+00 1.443420e+00 9.898824e-01 -4.113051e-01 -4.290095e-01 -1.787773e+00 1.608036e+00 -3.691689e-01 -9.103207e-01 -7.069699e-01 2.440394e-01 -4.598818e-01 -1.344495e+00 -1.020281e+00 -5.279128e-01 -4.776303e-01 -5.157699e-01 -2.963974e-01 4.446101e-01 3.347539e-01 1.864146e+00
<VARIANCE> 25
 3.267919e+01 3.521750e+01 4.175121e+01 3.034093e+01 4.042999e+01 4.069247e+01 4.220035e+01 3.903439e+01 3.699443e+01 3.607926e+01 3.443604e+01 2.394346e+01 1.114723e+01 2.738985e+00 2.491666e+00 2.432639e+00 5.512044e+00 5.685507e+00 3.741312e+00 3.473891e+00 3.347221e+00 2.988877e+00 2.846350e+00 2.141787e+00 2.204701e+00
<GCONST> 1.049948e+02
<STATE> 4
<MEAN> 25
 -5.124551e+00 4.409593e+00 8.237348e+00 -1.049402e+00 -8.057925e+00 -9.059610e+00 -6.046886e+00 -4.594813e+00 -4.573860e+00 -5.846095e+00 -5.227368e-02 -3.030110e-01 4.227810e+00 -3.481679e+00 -5.028610e-01 -6.568850e-01 -3.023088e+00 -2.106100e+00 -1.927047e+00 3.473695e-02 -2.800794e-01 -3.321562e-01 -4.011979e-01 -1.618227e-01 9.649520e-01
<VARIANCE> 25
 3.448264e+01 3.937571e+01 2.553216e+01 3.141620e+01 3.943169e+01 2.697472e+01 3.113202e+01 2.941671e+01 3.245897e+01 2.862865e+01 2.393285e+01 2.407526e+01 3.249262e+00 3.595761e+00 3.864700e+00 3.308621e+00 5.652822e+00 4.870910e+00 4.956090e+00 5.076285e+00 4.875527e+00 3.905363e+00 4.724814e+00 3.094721e+00 9.070697e-01
<GCONST> 1.039067e+02
<TRANSP> 5
 0.000000e+00 1.000000e+00 0.000000e+00 0.000000e+00 0.000000e+00
 0.000000e+00 7.052330e-01 2.947670e-01 0.000000e+00 0.000000e+00
 0.000000e+00 0.000000e+00 6.507663e-01 3.492337e-01 0.000000e+00
 0.000000e+00 0.000000e+00 0.000000e+00 5.742076e-01 4.257924e-01
 0.000000e+00 0.000000e+00 0.000000e+00 0.000000e+00 0.000000e+00
<ENDHMM>
~h "D"
<BEGINHMM>
<NUMSTATES> 5
<STATE> 2
<MEAN> 25
 6.563812e+00 7.091473e+00 3.350015e+00 2.842525e+00 -1.989303e+00 -4.869203e+00 -3.610935e+00 -4.761614e+00 -1.099910e+00 -1.852286e+00 -4.544829e+00 -3.412430e+00 -2.114561e-01 1.881978e+00 1.694180e-01 9.566936e-01 1.647875e+00 6.065667e-01 1.406430e+00 5.717388e-01 2.410029e-01 -1.841670e-01 -3.546866e-01 -3.155207e-01 -2.201903e+00
<VARIANCE> 25
 1.678500e+01 2.430334e+01 2.575956e+01 2.734015e+01 4.842358e+01 4.254183e+01 4.771345e+01 4.673008e+01 3.888107e+01 3.906580e+01 3.390975e+01 3.096116e+01 1.984819e+00 3.118175e+00 2.574599e+00 3.046689e+00 3.858459e+00 3.577892e+00 4.260014e+00 4.103105e+00 3.624638e+00 3.312052e+00 3.316154e+00 2.869069e+00 3.533243e+00
<GCONST> 1.035064e+02
<STATE> 3
<MEAN> 25
 4.733648e+00 9.767828e+00 3.550251e+00 4.427078e+00 1.432214e+00 -2.773844e+00 -4.393094e-01 -3.859170e+00 -1.459118e+00 -1.996665e+00 -4.158706e+00 -3.303314e+00 -2.066504e+00 -1.298900e+00 -6.354179e-01 -2.906419e-01 7.392730e-01 3.140490e-01 2.597356e-01 5.380822e-01 2.316036e-01 -6.875651e-02 8.703466e-01 5.965845e-01 1.620757e+00
<VARIANCE> 25
 1.967566e+01 1.985622e+01 1.951482e+01 2.269103e+01 3.675911e+01 3.347847e+01 3.364689e+01 3.670163e+01 3.161556e+01 2.943066e+01 2.853505e+01 2.634628e+01 2.162457e+00 2.776033e+00 2.900044e+00 2.720100e+00 3.860856e+00 4.377394e+00 4.201987e+00 4.590114e+00 3.479300e+00 3.238355e+00 3.216103e+00 2.571073e+00 3.357101e+00
<GCONST> 1.010901e+02
<STATE> 4
<MEAN> 25
 -2.627481e+00 3.357474e+00 7.680274e-01 2.488305e+00 2.585811e+00 -1.178707e+00 6.325364e-01 -1.816775e+00 2.813345e-02 -1.147862e+00 -4.699004e-01 -4.525682e-01 -8.094433e-01 -2.007862e+00 -5.819506e-01 -1.503494e+00 -1.648381e+00 -1.363033e+00 -1.730737e+00 -4.782737e-02 9.821906e-02 -1.526619e-01 4.548660e-01 3.343625e-01 3.458241e+00
<VARIANCE> 25
 2.648192e+01 3.047696e+01 3.370645e+01 3.236409e+01 3.991761e+01 5.098246e+01 4.873219e+01 4.242583e+01 3.532525e+01 3.367551e+01 3.604410e+01 2.747290e+01 3.203702e+00 3.575460e+00 3.911850e+00 3.512655e+00 5.181098e+00 4.973462e+00 5.459632e+00 5.765050e+00 4.807035e+00 3.753784e+00 3.697389e+00 3.240407e+00 3.557278e+00
<GCONST> 1.072691e+02
<TRANSP> 5
 0.000000e+00 1.000000e+00 0.000000e+00 0.000000e+00 0.000000e+00
 0.000000e+00 5.231200e-01 4.768800e-01 0.000000e+00 0.000000e+00
 0.000000e+00 0.000000e+00 3.767714e-01 6.232286e-01 0.000000e+00
 0.000000e+00 0.000000e+00 0.000000e+00 4.250198e-01 5.749803e-01
 0.000000e+00 0.000000e+00 0.000000e+00 0.000000e+00 0.000000e+00
<ENDHMM>
~h "E"
<BEGINHMM>
<NUMSTATES> 5
<STATE> 2
<MEAN> 25
 2.462171e+00 -2.849108e+00 4.425023e+00 -3.484303e+00 -1.087528e+01 -7.040667e+00 -3.970304e+00 -1.329627e+00 -3.421192e+00 -2.415674e+00 -1.077737e+00 -1.241585e+00 9.528624e-01 -1.997403e+00 5.471124e-01 -1.764772e+00 -2.579223e+00 -8.934413e-01 -9.464052e-01 6.899906e-01 -5.935409e-01 -2.528514e-01 -2.231424e-01 -5.524668e-01 2.403468e+00
<VARIANCE> 25
 1.668302e+01 3.537043e+01 4.349207e+01 4.880577e+01 6.068180e+01 4.517512e+01 5.392904e+01 5.220881e+01 4.904718e+01 4.730716e+01 3.952567e+01 3.072219e+01 3.840988e+00 3.134333e+00 4.139630e+00 4.849928e+00 7.053617e+00 5.259830e+00 7.073196e+00 6.287652e+00 5.912769e+00 5.320864e+00 5.788013e+00 3.588810e+00 3.417827e+00
<GCONST> 1.113057e+02
<STATE> 3
<MEAN> 25
 2.539849e+00 -6.121989e+00 5.606528e+00 -7.114799e+00 -1.422931e+01 -6.700079e+00 -4.140275e+00 1.601509e-01 -4.146304e+00 -1.669971e+00 -1.422407e+00 -2.659318e+00 4.460444e-02 -1.267444e-01 1.712102e-02 -3.544401e-02 -3.875306e-02 1.341107e-01 9.277080e-03 5.041852e-02 -1.133690e-01 1.190602e-02 -1.008505e-01 -1.236150e-01 1.285547e-01
<VARIANCE> 25
 1.114191e+01 2.484208e+01 4.488274e+01 4.551350e+01 3.844153e+01 3.551725e+01 4.723407e+01 5.187601e+01 5.021843e+01 5.325877e+01 4.854800e+01 2.915047e+01 5.241808e-01 1.456568e+00 1.643995e+00 1.645442e+00 1.901064e+00 1.733432e+00 2.119733e+00 2.219484e+00 2.201421e+00 2.110144e+00 1.990877e+00 1.611179e+00 7.132441e-01
<GCONST> 9.519180e+01
<STATE> 4
<MEAN> 25
 3.403304e+00 -2.998923e+00 6.014820e+00 -3.496896e+00 -1.224306e+01 -7.317054e+00 -4.899556e+00 -1.850680e+00 -5.253623e+00 -2.669506e+00 -1.766783e+00 -2.150210e+00 2.038664e-01 1.760167e+00 -4.692779e-01 1.638743e+00 1.801768e+00 2.677466e-01 4.646575e-01 -5.124900e-01 3.445954e-01 -1.116999e-01 -1.759105e-01 7.447728e-02 -2.005549e+00
<VARIANCE> 25
 1.194653e+01 3.986873e+01 5.239219e+01 4.623062e+01 4.470505e+01 3.950574e+01 4.605468e+01 5.714985e+01 5.424877e+01 4.993261e+01 4.669629e+01 3.195425e+01 1.652543e+00 2.909314e+00 2.218858e+00 2.813693e+00 3.489068e+00 3.039832e+00 4.214663e+00 3.824686e+00 4.206642e+00 3.939884e+00 3.428650e+00 2.629616e+00 2.351783e+00
<GCONST> 1.048748e+02
<TRANSP> 5
 0.000000e+00 1.000000e+00 0.000000e+00 0.000000e+00 0.000000e+00
 0.000000e+00 4.925872e-01 5.074127e-01 0.000000e+00 0.000000e+00
 0.000000e+00 0.000000e+00 6.981549e-01 3.018451e-01 0.000000e+00
 0.000000e+00 0.000000e+00 0.000000e+00 5.379368e-01 4.620632e-01
 0.000000e+00 0.000000e+00 0.000000e+00 0.000000e+00 0.000000e+00
<ENDHMM>
~h "F"
<BEGINHMM>
<NUMSTATES> 5
<STATE> 2
<MEAN> 25
 -6.473387e+00 2.020623e+00 -1.454092e+00 4.703814e+00 1.370421e+00 7.141630e-01 2.255756e+00 1.644110e+00 2.070903e+00 1.442358e+00 1.373527e+00 8.759422e-01 -2.778167e+00 -3.410020e-01 -1.861775e-01 1.184121e+00 8.809501e-01 9.833533e-01 1.555473e+00 1.628340e+00 1.608740e+00 1.170495e+00 1.100391e+00 1.143202e+00 -7.344913e-01
<VARIANCE> 25
 2.980430e+01 1.798014e+01 2.344709e+01 2.459138e+01 2.905755e+01 3.036903e+01 3.069408e+01 3.081670e+01 3.215742e+01 2.914785e+01 3.064649e+01 2.321757e+01 3.259118e+00 2.630622e+00 2.346202e+00 3.576036e+00 2.680018e+00 3.410832e+00 3.215391e+00 3.169134e+00 2.992452e+00 3.056412e+00 3.504684e+00 2.495621e+00 1.729350e+00
<GCONST> 9.937290e+01
<STATE> 3
<MEAN> 25
 -1.159472e+01 -1.376697e+00 -2.570379e+00 5.744551e+00 3.523438e+00 3.229849e+00 5.627351e+00 5.018607e+00 4.761527e+00 3.915377e+00 3.782746e+00 3.785622e+00 8.164997e-02 -4.229605e-01 -1.013906e-01 -2.396443e-01 3.640499e-02 -2.893068e-03 -3.672749e-03 -1.910839e-01 -1.540866e-01 -1.085217e-01 -7.923195e-02 -6.757978e-02 2.760248e-01
<VARIANCE> 25
 1.387281e+01 2.057703e+01 2.456757e+01 2.409121e+01 2.599661e+01 2.807098e+01 2.703741e+01 2.606799e+01 2.468229e+01 2.002612e+01 2.681659e+01 1.723429e+01 2.004437e+00 1.427239e+00 1.524709e+00 1.535663e+00 1.875155e+00 2.113730e+00 1.992815e+00 1.945970e+00 1.905440e+00 1.780776e+00 1.775384e+00 1.662240e+00 2.003834e+00
<GCONST> 9.110732e+01
<STATE> 4
<MEAN> 25
 -6.701694e+00 -1.117821e+00 -2.288737e+00 3.502426e+00 2.254048e+00 1.509563e+00 3.299523e+00 1.651192e+00 2.297899e+00 1.566130e+00 1.577015e+00 1.347585e+00 4.161136e+00 2.872993e-01 1.531235e-02 -2.735669e+00 -1.982360e+00 -1.310032e+00 -2.496244e+00 -2.649321e+00 -2.356474e+00 -1.490616e+00 -1.396470e+00 -1.589080e+00 1.365682e+00
<VARIANCE> 25
 3.569291e+01 2.193861e+01 3.683055e+01 2.977263e+01 3.355890e+01 3.400824e+01 3.580178e+01 3.657425e+01 3.349548e+01 2.730808e+01 3.173137e+01 2.124937e+01 3.653448e+00 3.163037e+00 5.577349e+00 6.751523e+00 4.406703e+00 6.122337e+00 5.170904e+00 4.097520e+00 4.289367e+00 3.523957e+00 4.298277e+00 3.286065e+00 3.121579e+00
<GCONST> 1.060857e+02
<TRANSP> 5
 0.000000e+00 1.000000e+00 0.000000e+00 0.000000e+00 0.000000e+00
 0.000000e+00 6.620058e-01 3.379942e-01 0.000000e+00 0.000000e+00
 0.000000e+00 0.000000e+00 7.215247e-01 2.784754e-01 0.000000e+00
 0.000000e+00 0.000000e+00 0.000000e+00 5.023735e-01 4.976265e-01
 0.000000e+00 0.000000e+00 0.000000e+00 0.000000e+00 0.000000e+00
<ENDHMM>
~h "G"
<BEGINHMM>
<NUMSTATES> 5
<STATE> 2
<MEAN> 25
 -5.877166e-01 3.542240e+00 4.446256e+00 1.540912e+00 -9.701040e-01 -1.226901e+00 1.044819e+00 -1.742776e+00 -3.262521e+00 -1.709749e-01 -1.114746e+00 -1.264947e+00 -5.998894e-01 7.269442e-02 1.230369e+00 -4.646736e-01 -7.199645e-01 -6.517150e-01 -9.312507e-01 -8.773801e-01 -9.230180e-01 -3.347641e-01 -3.733570e-01 -3.348604e-01 1.360577e+00
<VARIANCE> 25
 5.426695e+01 5.651122e+01 3.865733e+01 4.718637e+01 8.791251e+01 6.241979e+01 5.557848e+01 6.246045e+01 6.660403e+01 4.339666e+01 4.969141e+01 4.170890e+01 5.405686e+00 5.514216e+00 4.257560e+00 5.354490e+00 9.199383e+00 7.614071e+00 7.598989e+00 6.862926e+00 7.750069e+00 5.276381e+00 4.615323e+00 4.065322e+00 9.000526e+00
<GCONST> 1.174172e+02
<STATE> 3
<MEAN> 25
 2.326902e+00 7.179220e+00 8.620041e+00 1.137993e+00 -4.594986e+00 -3.842683e+00 -1.329030e+00 -5.667244e+00 -6.079934e+00 -1.979326e+00 -4.347098e+00 -4.484694e+00 -5.195113e-01 -1.219753e-01 7.806373e-01 -1.595329e-01 1.727501e-02 -2.664814e-01 -7.936361e-01 -1.922305e-01 -1.387286e-01 -3.602641e-01 1.250293e-01 2.036706e-01 7.818732e-01
<VARIANCE> 25
 3.375824e+01 3.338139e+01 2.816291e+01 3.673036e+01 5.419032e+01 3.334948e+01 3.555712e+01 4.515537e+01 4.477427e+01 3.374364e+01 4.245241e+01 2.859402e+01 6.101009e+00 5.917915e+00 4.194504e+00 4.905276e+00 1.053610e+01 5.903259e+00 5.706069e+00 4.994996e+00 6.935229e+00 5.314931e+00 4.739261e+00 3.554537e+00 7.339597e+00
<GCONST> 1.117339e+02
<STATE> 4
<MEAN> 25
 -5.423649e-01 2.641618e+00 1.072036e+01 5.841951e-02 -6.785989e+00 -5.780801e+00 -4.513638e+00 -5.173313e+00 -8.516556e+00 -2.127969e+00 -1.468327e+00 -2.223209e+00 1.447860e-01 -1.916884e+00 5.365592e-01 -7.557006e-01 -2.414454e+00 -1.337210e+00 -1.633387e+00 4.485902e-01 -6.224691e-01 -3.960774e-01 9.791741e-01 5.189033e-01 2.460262e+00
<VARIANCE> 25
 1.793720e+01 3.452933e+01 3.412321e+01 5.266559e+01 6.802554e+01 4.198647e+01 4.027887e+01 4.781762e+01 5.068279e+01 4.847615e+01 3.402769e+01 2.737720e+01 4.257164e+00 3.166621e+00 3.586318e+00 4.222129e+00 7.066935e+00 4.009879e+00 4.616728e+00 5.135350e+00 5.620730e+00 6.574053e+00 4.630863e+00 3.015218e+00 2.056106e+00
<GCONST> 1.088291e+02
<TRANSP> 5
 0.000000e+00 1.000000e+00 0.000000e+00 0.000000e+00 0.000000e+00
 0.000000e+00 4.586166e-01 5.413834e-01 0.000000e+00 0.000000e+00
 0.000000e+00 0.000000e+00 4.784042e-01 5.215958e-01 0.000000e+00
 0.000000e+00 0.000000e+00 0.000000e+00 4.106827e-01 5.893173e-01
 0.000000e+00 0.000000e+00 0.000000e+00 0.000000e+00 0.000000e+00
<ENDHMM>
~h "H"
<BEGINHMM>
<NUMSTATES> 5
<STATE> 2
<MEAN> 25
 -1.714966e+00 -2.692847e+00 -2.888160e+00 -2.261969e-01 5.206791e+00 3.442169e+00 3.094781e+00 1.356887e+00 1.605092e+00 -7.133433e-01 -6.671597e-01 8.846425e-01 -5.354711e-01 -5.024611e-01 -1.154693e-01 -8.393365e-02 7.171649e-01 5.554023e-01 3.476259e-01 1.383471e-01 3.278408e-01 1.023353e-01 2.112775e-01 1.225773e-01 8.445735e-02
<VARIANCE> 25
 3.064453e+01 3.724014e+01 4.838693e+01 4.724008e+01 7.792180e+01 5.685199e+01 6.765580e+01 5.551324e+01 5.324748e+01 5.277255e+01 5.776296e+01 4.234894e+01 1.729322e+00 2.902990e+00 2.563744e+00 2.905838e+00 4.160750e+00 3.218208e+00 3.475982e+00 3.491240e+00 3.190860e+00 3.141634e+00 3.069576e+00 2.341347e+00 2.904682e+00
<GCONST> 1.071476e+02
<STATE> 3
<MEAN> 25
 -1.470052e+00 -3.568012e+00 -3.405375e+00 -2.410650e+00 4.845428e+00 4.106779e+00 1.753136e+00 -7.066295e-01 4.844945e-01 -1.464201e+00 -1.706375e+00 -2.612225e-01 1.488982e-01 2.564360e-02 7.269988e-02 -3.155749e-01 -2.823195e-01 -4.616453e-02 -3.535670e-01 -6.208983e-01 -4.415079e-01 -2.239693e-01 -2.192753e-01 -2.686867e-01 3.800707e-01
<VARIANCE> 25
 3.775444e+01 4.117563e+01 5.781884e+01 5.090685e+01 8.823206e+01 6.458031e+01 7.655954e+01 5.865813e+01 5.733642e+01 5.931450e+01 5.400965e+01 4.224401e+01 1.370440e+00 1.935627e+00 2.232242e+00 2.241554e+00 2.848354e+00 2.566590e+00 2.731433e+00 2.684392e+00 2.375416e+00 2.512727e+00 2.531601e+00 2.046382e+00 2.206654e+00
<GCONST> 1.049956e+02
<STATE> 4
<MEAN> 25
 -2.549762e-01 -4.070904e+00 -4.148232e+00 -2.342043e+00 4.428529e+00 3.650322e+00 7.920861e-01 -1.724371e+00 -6.947011e-01 -2.620417e+00 -3.183440e+00 -1.173745e+00 1.453194e+00 2.754593e-01 -1.028580e-01 -9.589894e-01 -1.662638e+00 -8.720824e-01 -1.507188e+00 -1.158457e+00 -1.124428e+00 -7.314720e-01 -7.086006e-01 -9.027220e-01 1.228112e+00
<VARIANCE> 25
 3.437833e+01 4.604421e+01 6.243359e+01 5.159995e+01 7.947640e+01 6.241740e+01 7.259616e+01 5.447851e+01 5.299722e+01 5.648332e+01 5.379842e+01 4.101035e+01 3.201006e+00 2.420029e+00 3.080839e+00 3.604968e+00 4.271279e+00 3.868117e+00 5.075438e+00 4.291888e+00 4.146456e+00 3.710746e+00 3.842742e+00 3.297956e+00 3.358419e+00
<GCONST> 1.107119e+02
<TRANSP> 5
 0.000000e+00 1.000000e+00 0.000000e+00 0.000000e+00 0.000000e+00
 0.000000e+00 5.525191e-01 4.474809e-01 0.000000e+00 0.000000e+00
 0.000000e+00 0.000000e+00 2.274215e-01 7.725785e-01 0.000000e+00
 0.000000e+00 0.000000e+00 0.000000e+00 3.844417e-01 6.155583e-01
 0.000000e+00 0.000000e+00 0.000000e+00 0.000000e+00 0.000000e+00
<ENDHMM>
~h "I"
<BEGINHMM>
<NUMSTATES> 5
<STATE> 2
<MEAN> 25
 3.471941e+00 8.343462e-01 1.559426e-01 -8.337245e-01 -4.667938e+00 -8.481903e+00 -9.100548e+00 -4.852284e+00 -1.122038e+00 -2.363253e+00 -2.918513e+00 -1.919542e+00 1.819000e+00 -8.414281e-01 2.853569e-01 -1.143373e+00 -1.105339e+00 -8.819361e-01 -1.840225e+00 -7.973747e-02 -3.559747e-01 -1.621240e-01 -6.720983e-01 -3.125789e-01 6.732004e-01
<VARIANCE> 25
 2.490033e+01 3.219789e+01 4.212090e+01 3.912337e+01 5.236240e+01 4.806783e+01 5.171834e+01 5.026078e+01 4.889766e+01 4.318106e+01 4.070078e+01 4.031069e+01 5.698128e+00 4.240294e+00 3.839655e+00 4.886550e+00 6.407749e+00 5.498573e+00 7.781847e+00 9.003932e+00 5.872177e+00 4.862076e+00 5.966104e+00 4.381104e+00 2.351670e+00
<GCONST> 1.121911e+02
<STATE> 3
<MEAN> 25
 5.261876e+00 -2.171710e+00 -1.454644e-01 -3.372075e+00 -5.554553e+00 -8.142658e+00 -1.016721e+01 -2.032453e+00 -8.996594e-01 -2.114116e+00 -4.385180e+00 -1.749403e+00 3.038834e-01 2.181687e-01 9.343731e-02 -3.677446e-02 1.304382e-01 4.033624e-01 2.938621e-01 9.864262e-02 -2.220777e-01 3.404530e-03 -7.734875e-02 -2.239450e-02 -5.487463e-01
<VARIANCE> 25
 1.655654e+01 3.224651e+01 4.182203e+01 4.177986e+01 4.860009e+01 4.653925e+01 5.666015e+01 6.746060e+01 5.732129e+01 5.047109e+01 5.190610e+01 5.169913e+01 2.206585e+00 2.980898e+00 2.658489e+00 3.034915e+00 4.189691e+00 3.161170e+00 3.860826e+00 4.814878e+00 3.745518e+00 3.410225e+00 3.640741e+00 2.959139e+00 2.020786e+00
<GCONST> 1.066361e+02
<STATE> 4
<MEAN> 25
 3.661924e+00 1.005156e+00 -2.075327e-01 7.867959e-02 -1.107225e+00 -4.290634e+00 -4.301643e+00 -1.074568e+00 2.480646e-01 -1.126287e+00 -2.567839e+00 -4.293481e-01 -6.117979e-01 6.765509e-01 2.415590e-01 6.764804e-01 8.106609e-01 1.041627e+00 1.352154e+00 9.894405e-02 7.005766e-02 3.728149e-01 6.203120e-01 2.923924e-01 -1.364565e+00
<VARIANCE> 25
 2.374726e+01 3.007191e+01 4.132411e+01 4.499931e+01 6.924690e+01 5.578786e+01 7.319936e+01 7.505048e+01 6.370835e+01 5.416424e+01 5.557820e+01 5.447874e+01 2.530303e+00 3.002794e+00 2.726559e+00 3.125699e+00 4.094847e+00 3.416838e+00 4.134049e+00 4.517350e+00 4.355396e+00 4.086058e+00 4.085104e+00 3.401311e+00 2.485037e+00
<GCONST> 1.092356e+02
<TRANSP> 5
 0.000000e+00 1.000000e+00 0.000000e+00 0.000000e+00 0.000000e+00
 0.000000e+00 2.944124e-01 7.055876e-01 0.000000e+00 0.000000e+00
 0.000000e+00 0.000000e+00 4.438795e-01 5.561205e-01 0.000000e+00
 0.000000e+00 0.000000e+00 0.000000e+00 4.630412e-01 5.369588e-01
 0.000000e+00 0.000000e+00 0.000000e+00 0.000000e+00 0.000000e+00
<ENDHMM>
~h "J"
<BEGINHMM>
<NUMSTATES> 5
<STATE> 2
<MEAN> 25
 3.400270e+00 -3.914318e+00 6.690217e+00 -2.497734e+00 -1.020087e+01 -8.508553e+00 -9.434775e+00 -1.612759e+00 -4.879917e+00 -4.923539e+00 -3.160516e+00 -3.432978e-01 -1.802815e+00 2.132630e+00 1.729826e+00 4.285601e-01 1.087880e-01 -2.298121e-01 1.003332e+00 -8.984852e-01 -5.024718e-01 -1.027251e+00 3.150374e-01 2.926784e-01 -3.431343e-01
<VARIANCE> 25
 1.483228e+01 1.669441e+01 3.488770e+01 4.816056e+01 4.042912e+01 3.754043e+01 5.507840e+01 4.033775e+01 5.642220e+01 4.440299e+01 3.891851e+01 3.265921e+01 1.779135e+00 2.943365e+00 2.918250e+00 2.313553e+00 3.563132e+00 3.786003e+00 4.198848e+00 3.972449e+00 3.731401e+00 3.069052e+00 3.323887e+00 3.334378e+00 7.388305e-01
<GCONST> 1.024127e+02
<STATE> 3
<MEAN> 25
 -7.820100e+00 8.205197e+00 9.167543e+00 -1.236778e+00 -6.006646e+00 -5.268457e+00 -3.313708e+00 -4.872723e+00 -4.078838e+00 -7.656682e+00 -1.541669e+00 -2.282224e+00 -3.254493e+00 2.336192e+00 7.473389e-01 1.686828e-01 1.717806e+00 1.241271e+00 1.305970e+00 1.830446e-01 8.822110e-01 2.149489e-01 6.239928e-01 -2.611828e-01 -2.856243e-01
<VARIANCE> 25
 2.690434e+01 2.579313e+01 2.838821e+01 3.349899e+01 4.239204e+01 3.406816e+01 3.633280e+01 3.389011e+01 4.407172e+01 3.248056e+01 2.700893e+01 2.910637e+01 2.185767e+00 3.380902e+00 2.623108e+00 2.201652e+00 3.099545e+00 3.082253e+00 3.421809e+00 3.358783e+00 3.249550e+00 3.042424e+00 2.485307e+00 2.242787e+00 6.542081e-01
<GCONST> 9.970886e+01
<STATE> 4
<MEAN> 25
 -1.382049e+01 7.323143e+00 1.053234e+01 7.287747e-01 -1.801985e+00 -1.978200e+00 -1.598337e-02 -3.202204e+00 -8.395275e-01 -4.728639e+00 1.465250e+00 -6.415041e-01 1.602632e+00 -1.189980e+00 -6.049055e-01 -8.198091e-02 -1.003769e+00 -9.280421e-01 -8.005182e-01 -1.854530e-01 -2.804720e-01 2.421606e-02 3.294657e-02 1.673238e-01 1.911358e-01
<VARIANCE> 25
 4.111973e+01 3.433093e+01 3.141861e+01 3.266851e+01 4.846875e+01 5.284817e+01 5.333554e+01 4.630768e+01 4.175914e+01 3.981563e+01 4.306289e+01 2.492748e+01 7.175319e+00 3.335409e+00 2.257799e+00 1.880062e+00 5.227723e+00 4.530817e+00 4.103251e+00 3.334484e+00 3.246653e+00 2.669800e+00 2.672700e+00 2.076222e+00 1.680275e+00
<GCONST> 1.049825e+02
<TRANSP> 5
 0.000000e+00 1.000000e+00 0.000000e+00 0.000000e+00 0.000000e+00
 0.000000e+00 6.344964e-01 3.655036e-01 0.000000e+00 0.000000e+00
 0.000000e+00 0.000000e+00 7.145784e-01 2.854216e-01 0.000000e+00
 0.000000e+00 0.000000e+00 0.000000e+00 7.935461e-01 2.064539e-01
 0.000000e+00 0.000000e+00 0.000000e+00 0.000000e+00 0.000000e+00
<ENDHMM>
~h "K"
<BEGINHMM>
<NUMSTATES> 5
<STATE> 2
<MEAN> 25
 -1.360773e-02 5.875623e+00 6.421618e+00 1.991110e+00 -3.566467e+00 -2.939512e+00 1.062916e+00 -2.599152e+00 -2.177297e+00 2.315430e+00 5.682803e-01 5.207235e-01 -7.220829e-01 4.250491e-01 -1.623237e+00 1.006030e+00 2.844673e+00 1.583356e+00 1.810893e+00 1.568850e+00 2.467912e+00 1.139000e+00 1.071143e+00 1.284856e+00 -2.934160e+00
<VARIANCE> 25
 1.730861e+01 1.928917e+01 3.565532e+01 3.109130e+01 5.054559e+01 3.910069e+01 3.878113e+01 5.059836e+01 6.433800e+01 3.916246e+01 3.736816e+01 3.136685e+01 2.160516e+00 3.527057e+00 2.856066e+00 3.813665e+00 3.355390e+00 3.292477e+00 3.554650e+00 4.981074e+00 4.513031e+00 3.566457e+00 4.832901e+00 2.962755e+00 3.451189e+00
<GCONST> 1.052116e+02
<STATE> 3
<MEAN> 25
 -6.186800e+00 2.355267e+00 9.947336e-01 1.594849e+00 4.743207e+00 2.767349e+00 4.909502e+00 2.705072e+00 4.468966e+00 4.204728e+00 3.797908e+00 4.178439e+00 -1.477946e+00 -7.904230e-01 -3.312643e-01 -6.547485e-01 4.075318e-01 3.977820e-01 1.705544e-02 1.942743e-01 3.873326e-01 -4.512483e-02 1.508658e-01 1.695623e-01 1.488503e+00
<VARIANCE> 25
 4.153772e+01 3.276879e+01 2.545644e+01 4.450096e+01 3.592500e+01 3.537120e+01 3.535725e+01 3.008699e+01 3.870285e+01 2.612392e+01 3.001969e+01 2.189041e+01 3.826104e+00 3.482010e+00 2.645433e+00 3.879943e+00 3.949013e+00 3.263356e+00 3.330638e+00 3.053229e+00 2.991050e+00 2.659994e+00 2.434423e+00 2.190013e+00 6.361363e+00
<GCONST> 1.031106e+02
<STATE> 4
<MEAN> 25
 -9.045365e+00 1.355961e+00 2.556921e+00 -1.823996e-01 1.160670e+00 6.283517e-01 2.404444e+00 -4.135281e-01 1.810304e+00 1.694310e+00 1.845037e+00 2.650784e+00 1.663100e+00 4.454001e-01 1.232886e+00 -1.522899e-01 -2.535697e+00 -1.917505e+00 -1.761480e+00 -1.835724e+00 -2.151717e+00 -1.718361e+00 -1.141798e+00 -1.056275e+00 1.597929e+00
<VARIANCE> 25
 3.782806e+01 4.030489e+01 3.454844e+01 4.906658e+01 4.629194e+01 4.241535e+01 4.468509e+01 4.545403e+01 4.691386e+01 3.306826e+01 3.751387e+01 2.349977e+01 6.828286e+00 3.945300e+00 4.096692e+00 5.249127e+00 6.976583e+00 5.337688e+00 5.757397e+00 5.680610e+00 5.700928e+00 4.139446e+00 4.004098e+00 3.313607e+00 4.587544e+00
<GCONST> 1.107760e+02
<TRANSP> 5
 0.000000e+00 1.000000e+00 0.000000e+00 0.000000e+00 0.000000e+00
 0.000000e+00 6.817933e-01 3.182068e-01 0.000000e+00 0.000000e+00
 0.000000e+00 0.000000e+00 7.542593e-01 2.457407e-01 0.000000e+00
 0.000000e+00 0.000000e+00 0.000000e+00 5.597630e-01 4.402371e-01
 0.000000e+00 0.000000e+00 0.000000e+00 0.000000e+00 0.000000e+00
<ENDHMM>
~h "L"
<BEGINHMM>
<NUMSTATES> 5
<STATE> 2
<MEAN> 25
 3.613732e+00 1.371356e+00 6.436760e+00 1.362890e+00 -6.329122e+00 -7.849933e+00 -6.423708e+00 -4.796184e+00 -4.220577e+00 -4.753868e+00 -3.041788e+00 -2.086320e+00 2.716512e-01 7.769994e-01 5.914946e-01 5.457749e-01 4.513486e-01 -6.983823e-01 -4.638212e-01 -3.545771e-01 -1.892960e-01 -6.788110e-01 -3.640780e-01 -1.650432e-02 -5.254841e-01
<VARIANCE> 25
 1.728930e+01 4.126262e+01 3.896317e+01 4.237657e+01 4.357997e+01 3.717093e+01 4.956009e+01 4.373421e+01 4.212719e+01 3.642732e+01 3.242405e+01 3.015811e+01 2.642319e+00 4.270196e+00 4.059018e+00 4.895450e+00 7.153516e+00 4.597917e+00 7.050837e+00 5.345422e+00 4.824757e+00 4.056861e+00 4.104354e+00 3.111386e+00 3.540529e+00
<GCONST> 1.085397e+02
<STATE> 3
<MEAN> 25
 3.527555e+00 2.422114e+00 7.326565e+00 1.970430e+00 -5.385648e+00 -8.170041e+00 -6.990382e+00 -4.873474e+00 -4.315025e+00 -5.500051e+00 -3.289387e+00 -2.001786e+00 3.561177e-02 7.490883e-02 1.174320e-01 -2.334425e-01 1.272373e-01 -2.102026e-01 -2.577069e-01 1.605864e-01 -7.994603e-04 -8.698674e-02 -8.265252e-02 5.010152e-02 1.378616e-02
<VARIANCE> 25
 1.574693e+01 3.521575e+01 3.647357e+01 4.070492e+01 4.447232e+01 3.863258e+01 5.149358e+01 4.373641e+01 4.222943e+01 3.954294e+01 3.388343e+01 3.197524e+01 1.629787e+00 3.633551e+00 2.308262e+00 3.545274e+00 4.410183e+00 3.067682e+00 4.131435e+00 4.057287e+00 3.328350e+00 2.872312e+00 2.944705e+00 2.326394e+00 2.411067e+00
<GCONST> 1.035117e+02
<STATE> 4
<MEAN> 25
 3.322155e+00 1.990926e+00 7.122990e+00 1.034505e+00 -5.482652e+00 -8.145242e+00 -6.937912e+00 -4.228314e+00 -4.253891e+00 -4.900490e+00 -3.065031e+00 -1.673781e+00 -7.679853e-02 -8.152482e-01 -4.642863e-01 -9.086143e-01 -6.439821e-01 7.226986e-02 2.029299e-01 5.404252e-01 1.493477e-01 5.518030e-01 2.968483e-01 9.942318e-02 7.609934e-01
<VARIANCE> 25
 1.526291e+01 3.498385e+01 3.487616e+01 3.836460e+01 4.722086e+01 3.576070e+01 4.947620e+01 4.303212e+01 3.927123e+01 3.877726e+01 3.335078e+01 2.997958e+01 1.069732e+00 3.117183e+00 2.062750e+00 2.973026e+00 3.758112e+00 2.770346e+00 3.457446e+00 3.846159e+00 3.037051e+00 2.820451e+00 2.683594e+00 2.155160e+00 2.074989e+00
<GCONST> 1.013384e+02
<TRANSP> 5
 0.000000e+00 1.000000e+00 0.000000e+00 0.000000e+00 0.000000e+00
 0.000000e+00 1.627637e-01 8.372363e-01 0.000000e+00 0.000000e+00
 0.000000e+00 0.000000e+00 1.876684e-01 8.123316e-01 0.000000e+00
 0.000000e+00 0.000000e+00 0.000000e+00 3.487579e-01 6.512421e-01
 0.000000e+00 0.000000e+00 0.000000e+00 0.000000e+00 0.000000e+00
<ENDHMM>
~h "M"
<BEGINHMM>
<NUMSTATES> 5
<STATE> 2
<MEAN> 25
 8.777860e+00 -5.278286e-02 -7.517654e-01 1.005119e-01 -3.470671e+00 -2.971576e+00 -5.557837e+00 -9.007457e+00 -7.458047e+00 -2.915710e+00 -1.546461e+00 -5.167769e+00 7.013251e-01 1.099070e+00 8.145615e-01 1.181174e+00 1.521278e-02 -6.293494e-01 2.386282e-02 -2.310025e+00 -1.857314e+00 1.289880e-01 1.001945e-01 -8.339270e-01 -7.211518e-01
<VARIANCE> 25
 1.194526e+01 3.315258e+01 3.179237e+01 4.345941e+01 4.219308e+01 5.760034e+01 5.662432e+01 5.621366e+01 5.392585e+01 4.476147e+01 5.059245e+01 4.160466e+01 2.042337e+00 2.599350e+00 4.052410e+00 4.493505e+00 5.201929e+00 5.089688e+00 6.066588e+00 5.294867e+00 5.613108e+00 5.180955e+00 5.143770e+00 4.436262e+00 2.678799e+00
<GCONST> 1.092619e+02
<STATE> 3
<MEAN> 25
 9.255883e+00 1.785459e+00 1.378088e+00 1.523314e+00 -4.557880e+00 -3.359392e+00 -4.785090e+00 -1.202127e+01 -9.790337e+00 -2.638280e+00 -1.759453e+00 -6.026428e+00 1.771634e-02 8.302973e-02 4.744929e-02 6.586508e-02 -7.552598e-02 4.218839e-02 1.117830e-01 -3.411300e-02 -1.793441e-01 -1.078990e-01 -7.000369e-02 -1.438093e-01 -1.755572e-03
<VARIANCE> 25
 7.068255e+00 2.038254e+01 2.330086e+01 3.427086e+01 3.907811e+01 5.964644e+01 5.334405e+01 5.290747e+01 5.025706e+01 5.067557e+01 6.167852e+01 4.809523e+01 3.859533e-01 1.271485e+00 1.195866e+00 1.448343e+00 1.648880e+00 1.748396e+00 1.885919e+00 2.238319e+00 2.236069e+00 2.279062e+00 2.283066e+00 2.125942e+00 7.628464e-01
<GCONST> 9.441090e+01
<STATE> 4
<MEAN> 25
 8.991928e+00 9.474994e-02 -7.707303e-01 6.065218e-02 -3.945814e+00 -2.320338e+00 -4.880509e+00 -9.348926e+00 -8.485090e+00 -3.703674e+00 -1.594518e+00 -5.979114e+00 -3.433600e-01 -1.119358e+00 -9.707484e-01 -1.650144e+00 -3.725009e-01 6.450092e-01 -1.420526e-01 2.297691e+00 1.581645e+00 -5.341510e-01 -7.142928e-02 5.510530e-01 1.063255e+00
<VARIANCE> 25
 9.412354e+00 2.779635e+01 3.125854e+01 4.302692e+01 3.897865e+01 5.909775e+01 5.207195e+01 5.764820e+01 5.621532e+01 4.868745e+01 5.485358e+01 4.126387e+01 9.615927e-01 2.233645e+00 4.323850e+00 3.831753e+00 3.968743e+00 3.831577e+00 4.239201e+00 4.215645e+00 4.755320e+00 4.314693e+00 4.484484e+00 4.101297e+00 1.385774e+00
<GCONST> 1.055428e+02
<TRANSP> 5
 0.000000e+00 1.000000e+00 0.000000e+00 0.000000e+00 0.000000e+00
 0.000000e+00 4.559743e-01 5.440257e-01 0.000000e+00 0.000000e+00
 0.000000e+00 0.000000e+00 6.536886e-01 3.463114e-01 0.000000e+00
 0.000000e+00 0.000000e+00 0.000000e+00 4.642763e-01 5.357237e-01
 0.000000e+00 0.000000e+00 0.000000e+00 0.000000e+00 0.000000e+00
<ENDHMM>
~h "N"
<BEGINHMM>
<NUMSTATES> 5
<STATE> 2
<MEAN> 25
 3.919172e+00 -6.235908e+00 8.920736e-01 -5.458014e+00 -8.911156e+00 -2.275831e+00 -4.435228e+00 -3.418872e-01 -6.889030e+00 -5.739975e+00 -2.623325e+00 -2.538453e+00 1.072434e-02 1.660056e+00 1.304916e+00 -3.220783e-01 -1.242190e+00 2.799175e-01 8.987213e-01 -1.376836e+00 -1.404880e+00 7.444493e-01 5.326324e-01 -8.636454e-02 -9.360858e-01
<VARIANCE> 25
 1.577358e+01 5.334567e+01 6.524962e+01 5.319133e+01 9.284380e+01 4.242606e+01 5.107008e+01 5.023164e+01 5.958449e+01 7.330742e+01 7.410649e+01 6.983134e+01 6.103070e-01 1.773163e+00 3.381640e+00 2.791475e+00 4.409027e+00 4.167129e+00 4.266087e+00 3.213706e+00 4.020511e+00 3.366187e+00 3.935168e+00 2.924815e+00 5.755534e-01
<GCONST> 1.062452e+02
<STATE> 3
<MEAN> 25
 4.002394e+00 -6.478300e-01 5.225975e+00 -7.332201e+00 -1.296149e+01 6.904734e-02 -3.272797e+00 -5.787829e+00 -1.074121e+01 -2.447741e+00 -1.797459e+00 -5.404606e+00 6.271814e-01 1.936377e+00 4.899892e-01 1.102153e-01 3.768430e-01 6.609136e-01 -1.234848e-01 -2.553121e+00 -5.548840e-01 1.291103e+00 -1.196306e-01 -5.499615e-01 -1.539891e+00
<VARIANCE> 25
 1.492752e+01 2.217450e+01 5.678289e+01 6.153708e+01 5.866845e+01 5.042777e+01 4.201326e+01 4.943821e+01 5.206934e+01 5.730056e+01 7.684665e+01 5.561455e+01 7.859253e-01 1.990608e+00 2.869636e+00 2.915790e+00 4.728950e+00 4.026735e+00 4.658871e+00 3.632293e+00 4.852427e+00 3.730568e+00 3.738369e+00 2.714985e+00 8.725818e-01
<GCONST> 1.053246e+02
<STATE> 4
<MEAN> 25
 8.457220e+00 4.191175e+00 2.094055e+00 -2.511893e+00 -9.649239e+00 -2.800882e+00 -2.802181e+00 -1.177282e+01 -1.017815e+01 -1.285224e+00 -3.834939e+00 -6.778027e+00 4.232227e-01 1.028739e+00 -4.907072e-01 1.395017e+00 9.367316e-01 -7.013805e-01 5.474419e-01 -3.151990e-01 3.199260e-01 -7.131656e-02 -1.034189e-01 3.300172e-02 -1.312756e+00
<VARIANCE> 25
 1.191821e+01 1.872799e+01 3.292445e+01 5.436140e+01 3.591286e+01 4.843609e+01 5.203123e+01 4.861377e+01 4.769135e+01 5.347591e+01 8.423152e+01 4.906670e+01 1.865775e+00 1.280735e+00 3.032703e+00 3.413546e+00 3.911241e+00 4.026616e+00 3.179878e+00 3.677927e+00 3.411641e+00 2.890626e+00 2.930202e+00 2.526792e+00 9.060602e-01
<GCONST> 1.029291e+02
<TRANSP> 5
 0.000000e+00 1.000000e+00 0.000000e+00 0.000000e+00 0.000000e+00
 0.000000e+00 3.934730e-01 6.065270e-01 0.000000e+00 0.000000e+00
 0.000000e+00 0.000000e+00 4.402672e-01 5.597328e-01 0.000000e+00
 0.000000e+00 0.000000e+00 0.000000e+00 7.285690e-01 2.714311e-01
 0.000000e+00 0.000000e+00 0.000000e+00 0.000000e+00 0.000000e+00
<ENDHMM>
~h "O"
<BEGINHMM>
<NUMSTATES> 5
<STATE> 2
<MEAN> 25
 6.557372e+00 -8.225334e-02 -6.186152e+00 -9.055820e+00 -2.693965e+00 1.106034e+00 -6.680260e+00 -4.294764e+00 -1.442112e+00 4.140216e-01 3.086553e-01 -1.983496e+00 2.099255e+00 -1.229910e-01 -1.289699e+00 -3.635821e+00 -1.366809e+00 1.345117e+00 -1.171898e+00 -1.178930e+00 -1.095898e+00 -3.528146e-01 3.953517e-01 -6.112487e-01 1.471346e+00
<VARIANCE> 25
 2.313591e+01 3.425172e+01 3.117418e+01 8.253778e+01 5.996410e+01 6.141467e+01 9.147696e+01 5.944736e+01 5.369647e+01 5.356170e+01 5.191076e+01 4.317868e+01 3.776483e+00 2.957905e+00 3.538125e+00 7.074311e+00 8.600269e+00 6.072652e+00 7.788329e+00 6.158680e+00 5.994682e+00 6.734537e+00 6.119629e+00 4.469903e+00 4.162298e+00
<GCONST> 1.148590e+02
<STATE> 3
<MEAN> 25
 9.550902e+00 -7.918463e-01 -8.123573e+00 -1.688590e+01 -5.529332e+00 6.245956e+00 -6.259327e+00 -4.673100e+00 -4.089662e+00 -1.856103e+00 1.590263e+00 -2.646803e+00 1.707594e-01 9.117711e-02 -6.437066e-02 -5.431575e-01 -5.059474e-02 5.611706e-01 2.391568e-01 5.328485e-02 -3.415146e-01 -3.691606e-01 1.982722e-01 1.192935e-01 2.300191e-02
<VARIANCE> 25
 8.723373e+00 2.733529e+01 2.867056e+01 6.099245e+01 6.212186e+01 4.412909e+01 4.762518e+01 4.802595e+01 4.702961e+01 6.341952e+01 5.186435e+01 4.301394e+01 3.658896e-01 1.332014e+00 1.063373e+00 2.588502e+00 1.930697e+00 2.129072e+00 2.763508e+00 2.323725e+00 2.503329e+00 2.571060e+00 2.419113e+00 2.127828e+00 8.589533e-01
<GCONST> 9.716519e+01
<STATE> 4
<MEAN> 25
 9.182904e+00 3.150372e-01 -6.613488e+00 -1.395680e+01 -3.136693e+00 4.138998e+00 -7.582146e+00 -5.868413e+00 -5.252985e+00 -1.769442e+00 1.263482e+00 -2.300796e+00 -3.994020e-01 4.326248e-01 9.942807e-01 2.211358e+00 8.622375e-01 -1.164917e+00 4.460485e-02 -3.204362e-01 4.577119e-02 4.001611e-01 -4.565769e-01 5.883021e-03 -1.021788e+00
<VARIANCE> 25
 1.045257e+01 3.307885e+01 3.572272e+01 7.944315e+01 6.244067e+01 5.221104e+01 5.970335e+01 5.308652e+01 6.033088e+01 6.265962e+01 5.304959e+01 4.515202e+01 8.653648e-01 2.268933e+00 1.963933e+00 3.431870e+00 3.549492e+00 3.367992e+00 4.685373e+00 4.285384e+00 4.374680e+00 3.995056e+00 3.686056e+00 3.149499e+00 2.208441e+00
<GCONST> 1.060817e+02
<TRANSP> 5
 0.000000e+00 1.000000e+00 0.000000e+00 0.000000e+00 0.000000e+00
 0.000000e+00 5.829833e-01 4.170167e-01 0.000000e+00 0.000000e+00
 0.000000e+00 0.000000e+00 7.565319e-01 2.434681e-01 0.000000e+00
 0.000000e+00 0.000000e+00 0.000000e+00 6.614410e-01 3.385590e-01
 0.000000e+00 0.000000e+00 0.000000e+00 0.000000e+00 0.000000e+00
<ENDHMM>
~h "P"
<BEGINHMM>
<NUMSTATES> 5
<STATE> 2
<MEAN> 25
 5.124222e+00 4.663207e+00 -1.698082e+00 -5.139485e-02 9.875442e-01 -2.545225e-01 5.414810e-01 -1.324785e+00 1.338589e+00 2.411656e+00 1.007609e+00 1.677076e-01 -1.633886e+00 1.088163e+00 1.501342e-01 1.308121e+00 1.347538e+00 5.579299e-01 2.304911e+00 1.825131e+00 1.870600e+00 1.264603e+00 9.292126e-01 1.346798e+00 -2.811690e+00
<VARIANCE> 25
 2.023092e+01 1.775728e+01 2.711464e+01 3.464085e+01 2.781323e+01 3.853130e+01 4.086097e+01 3.607415e+01 4.234254e+01 3.316210e+01 3.107578e+01 2.979373e+01 1.520918e+00 2.902347e+00 1.856410e+00 2.915459e+00 2.459171e+00 3.672437e+00 3.488822e+00 3.421203e+00 3.588537e+00 2.766430e+00 3.621020e+00 2.468435e+00 3.590731e+00
<GCONST> 1.006445e+02
<STATE> 3
<MEAN> 25
 -1.732645e+00 3.072458e+00 -1.289768e+00 3.314116e+00 4.980026e+00 2.826425e+00 6.547788e+00 3.997149e+00 5.444220e+00 4.884198e+00 3.541245e+00 4.057011e+00 -1.032830e+00 -1.003331e+00 3.166455e-02 3.693888e-01 3.912098e-01 3.214178e-01 2.349133e-01 2.408440e-01 8.364139e-02 -8.930612e-02 1.294203e-01 6.387220e-02 1.069873e+00
<VARIANCE> 25
 1.719276e+01 2.151034e+01 1.876417e+01 2.130190e+01 2.532306e+01 2.915285e+01 2.925709e+01 2.592567e+01 3.002323e+01 2.261000e+01 2.405242e+01 2.012344e+01 1.804591e+00 2.545563e+00 1.932556e+00 1.658684e+00 2.190531e+00 2.488286e+00 2.670512e+00 2.470267e+00 2.410890e+00 2.161513e+00 2.023024e+00 1.859315e+00 4.247836e+00
<GCONST> 9.448270e+01
<STATE> 4
<MEAN> 25
 -3.045150e+00 -9.648207e-01 -1.113806e+00 2.875678e+00 3.844739e+00 1.674916e+00 3.239312e+00 1.039069e+00 2.667797e+00 2.295336e+00 2.280902e+00 1.742342e+00 1.493119e+00 -3.958023e-01 -2.631865e-01 -1.631292e+00 -1.535354e+00 -8.070033e-01 -2.300596e+00 -2.232950e+00 -2.078840e+00 -1.471371e+00 -1.090717e+00 -1.288200e+00 2.970534e+00
<VARIANCE> 25
 2.718196e+01 2.654785e+01 3.831883e+01 3.417749e+01 3.747556e+01 3.975199e+01 4.399174e+01 4.203009e+01 3.879144e+01 2.848413e+01 3.092987e+01 2.242956e+01 5.563543e+00 4.011384e+00 4.879269e+00 6.051085e+00 5.380200e+00 6.111936e+00 5.925297e+00 5.217422e+00 4.871973e+00 3.706332e+00 4.287569e+00 3.099654e+00 4.506366e+00
<GCONST> 1.084852e+02
<TRANSP> 5
 0.000000e+00 1.000000e+00 0.000000e+00 0.000000e+00 0.000000e+00
 0.000000e+00 6.652584e-01 3.347416e-01 0.000000e+00 0.000000e+00
 0.000000e+00 0.000000e+00 7.223825e-01 2.776176e-01 0.000000e+00
 0.000000e+00 0.000000e+00 0.000000e+00 5.669090e-01 4.330910e-01
 0.000000e+00 0.000000e+00 0.000000e+00 0.000000e+00 0.000000e+00
<ENDHMM>
~h "R"
<BEGINHMM>
<NUMSTATES> 5
<STATE> 2
<MEAN> 25
 1.105617e+00 -1.074551e+00 2.331491e-01 3.701781e+00 -4.906750e-02 -2.734002e+00 -2.444811e+00 -2.048424e+00 2.074559e+00 -1.607762e+00 -1.549713e+00 9.114712e-01 -1.126384e-01 -3.065937e-01 5.644054e-01 8.479949e-01 -1.534531e-01 -3.472053e-01 -1.265919e-01 -6.926423e-01 4.004296e-01 1.124619e-01 -3.198365e-02 -2.348486e-01 2.208523e-01
<VARIANCE> 25
 3.447304e+01 4.412533e+01 4.123061e+01 4.617530e+01 7.619071e+01 6.109462e+01 9.260507e+01 7.415628e+01 4.823950e+01 5.476756e+01 3.552944e+01 4.739602e+01 3.160144e+00 3.570581e+00 3.273353e+00 3.091906e+00 4.864323e+00 3.986931e+00 4.495712e+00 5.177438e+00 4.060093e+00 3.250223e+00 3.622541e+00 3.028304e+00 1.889316e+00
<GCONST> 1.098758e+02
<STATE> 3
<MEAN> 25
 1.445476e+00 -2.111226e+00 1.226699e+00 5.507542e+00 -1.406182e+00 -3.552333e+00 -2.614557e+00 -3.887247e+00 2.218522e+00 -8.594403e-01 -1.440242e+00 1.932400e-01 3.269672e-02 -7.478255e-01 5.199853e-01 7.879794e-02 -9.752630e-01 -2.084740e-01 -5.344982e-01 -3.630601e-01 2.779269e-02 -1.105829e-01 9.026416e-04 -2.637624e-01 9.845054e-01
<VARIANCE> 25
 4.526968e+01 3.151902e+01 5.318900e+01 5.044013e+01 7.896008e+01 6.034832e+01 8.558427e+01 7.951617e+01 4.813800e+01 5.521726e+01 3.994052e+01 4.139648e+01 3.270200e+00 2.977778e+00 3.414975e+00 2.725303e+00 4.664071e+00 4.503006e+00 4.044590e+00 4.165047e+00 4.064662e+00 3.164921e+00 3.303903e+00 2.723978e+00 1.723745e+00
<GCONST> 1.093670e+02
<STATE> 4
<MEAN> 25
 -1.998377e+00 -2.608886e+00 3.324012e+00 6.852548e+00 1.530695e-01 -2.589100e+00 3.234827e-01 -2.458920e+00 2.945077e+00 -4.710224e-01 -7.638238e-01 2.356824e-01 1.184195e+00 -4.408513e-01 2.486996e-02 -8.539082e-01 -1.837021e+00 -8.682333e-01 -1.758042e+00 -9.996478e-01 -7.728100e-01 -6.768188e-01 -3.871968e-01 -6.390483e-01 1.970903e+00
<VARIANCE> 25
 6.722737e+01 3.428988e+01 6.071605e+01 5.723530e+01 9.751907e+01 7.614538e+01 9.780591e+01 7.188451e+01 5.377641e+01 4.902811e+01 4.718217e+01 3.401479e+01 5.239130e+00 3.651897e+00 3.907116e+00 3.758082e+00 5.385254e+00 7.072330e+00 6.807299e+00 6.117142e+00 4.674391e+00 4.187771e+00 3.536524e+00 2.808285e+00 2.344106e+00
<GCONST> 1.140010e+02
<TRANSP> 5
 0.000000e+00 1.000000e+00 0.000000e+00 0.000000e+00 0.000000e+00
 0.000000e+00 2.896211e-01 7.103789e-01 0.000000e+00 0.000000e+00
 0.000000e+00 0.000000e+00 1.772594e-01 8.227406e-01 0.000000e+00
 0.000000e+00 0.000000e+00 0.000000e+00 5.323617e-01 4.676383e-01
 0.000000e+00 0.000000e+00 0.000000e+00 0.000000e+00 0.000000e+00
<ENDHMM>
~h "S"
<BEGINHMM>
<NUMSTATES> 5
<STATE> 2
<MEAN> 25
 -8.424028e+00 8.709743e+00 -2.237702e+00 3.570231e+00 7.903612e-01 -3.686395e+00 3.564721e-02 -1.791459e+00 -2.398236e-01 -1.161872e+00 -1.345529e-01 -6.725118e-02 -4.157789e+00 1.395851e+00 -1.081043e+00 1.610623e+00 1.667453e+00 1.672963e+00 2.362342e+00 1.583867e+00 1.380177e+00 1.075525e+00 1.373925e+00 9.475532e-01 -6.728460e-01
<VARIANCE> 25
 5.525371e+01 2.900770e+01 3.880998e+01 4.283099e+01 5.826295e+01 5.480340e+01 5.364992e+01 4.774446e+01 4.216733e+01 4.084093e+01 4.147496e+01 3.267138e+01 2.724528e+00 5.164646e+00 3.559804e+00 4.888658e+00 4.635841e+00 5.452686e+00 4.367409e+00 4.602454e+00 3.780819e+00 4.279047e+00 4.458420e+00 3.384353e+00 1.349614e+00
<GCONST> 1.088512e+02
<STATE> 3
<MEAN> 25
 -1.768669e+01 7.023374e+00 -5.625630e+00 6.422643e+00 4.527527e+00 3.176946e+00 6.351754e+00 4.329921e+00 4.590430e+00 3.178910e+00 4.098266e+00 3.541989e+00 -1.622296e-01 -5.350066e-01 -1.193990e-01 -1.688004e-02 7.635650e-02 3.667509e-01 2.833426e-01 3.690428e-01 2.956230e-01 1.880256e-01 1.510439e-01 1.784863e-01 -1.351590e-01
<VARIANCE> 25
 1.377960e+01 2.286985e+01 2.668777e+01 4.835509e+01 4.177025e+01 4.273866e+01 3.430024e+01 3.059286e+01 2.960708e+01 2.356987e+01 3.377544e+01 2.087873e+01 1.490210e+00 1.353294e+00 1.273244e+00 1.494533e+00 1.692435e+00 2.103518e+00 1.888146e+00 1.964059e+00 1.898493e+00 1.822826e+00 1.670947e+00 1.554206e+00 1.097379e+00
<GCONST> 9.262634e+01
<STATE> 4
<MEAN> 25
 -1.224471e+01 4.193077e+00 -3.699620e+00 4.123848e+00 2.417394e+00 2.559639e-01 3.987676e+00 2.547920e+00 3.192839e+00 1.285643e+00 2.198710e+00 2.123877e+00 4.480547e+00 -5.583917e-01 1.055043e+00 -1.506258e+00 -1.888246e+00 -2.258312e+00 -3.034179e+00 -2.373234e+00 -1.741370e+00 -1.470739e+00 -1.642559e+00 -1.351960e+00 7.314569e-01
<VARIANCE> 25
 3.759761e+01 2.674483e+01 2.966470e+01 3.931240e+01 4.563448e+01 5.322183e+01 4.874580e+01 4.578763e+01 3.871571e+01 3.249026e+01 4.311218e+01 2.507208e+01 4.023732e+00 2.938189e+00 3.428748e+00 5.299150e+00 4.472005e+00 5.954953e+00 5.570406e+00 4.597728e+00 3.930848e+00 3.485534e+00 4.080627e+00 3.634751e+00 2.249714e+00
<GCONST> 1.075701e+02
<TRANSP> 5
 0.000000e+00 1.000000e+00 0.000000e+00 0.000000e+00 0.000000e+00
 0.000000e+00 6.877483e-01 3.122517e-01 0.000000e+00 0.000000e+00
 0.000000e+00 0.000000e+00 8.376248e-01 1.623752e-01 0.000000e+00
 0.000000e+00 0.000000e+00 0.000000e+00 6.071538e-01 3.928461e-01
 0.000000e+00 0.000000e+00 0.000000e+00 0.000000e+00 0.000000e+00
<ENDHMM>
~h "T"
<BEGINHMM>
<NUMSTATES> 5
<STATE> 2
<MEAN> 25
 -4.844650e-01 6.249680e+00 -1.440284e-01 2.509770e+00 1.965390e+00 -5.559536e-01 2.437747e+00 8.055210e-01 3.158696e+00 2.942207e+00 1.674722e+00 1.957461e+00 -8.453755e-01 1.480490e-02 -4.454422e-01 5.257075e-01 1.322523e+00 1.342804e+00 1.827635e+00 1.323515e+00 1.275444e+00 1.095697e+00 9.905914e-01 9.312401e-01 -2.063309e+00
<VARIANCE> 25
 3.148084e+01 1.730081e+01 2.958467e+01 2.800058e+01 3.929047e+01 4.347084e+01 3.880381e+01 3.440244e+01 3.832885e+01 3.354185e+01 3.238288e+01 2.860114e+01 3.303814e+00 2.872721e+00 2.374983e+00 2.573755e+00 3.057711e+00 3.145011e+00 3.468052e+00 3.305333e+00 3.286160e+00 3.049079e+00 2.918954e+00 2.393133e+00 5.618592e+00
<GCONST> 1.023341e+02
<STATE> 3
<MEAN> 25
 -6.847725e+00 3.474239e+00 -2.365708e+00 3.453895e+00 5.109240e+00 3.748686e+00 7.070376e+00 3.954730e+00 5.480294e+00 4.216527e+00 4.447302e+00 3.837037e+00 -1.455397e+00 -8.391699e-01 -5.045195e-01 -2.298829e-01 -3.384294e-01 -2.545230e-01 7.970558e-02 -1.394794e-02 -1.403409e-01 -3.178418e-01 1.702523e-01 -5.548726e-03 2.073100e+00
<VARIANCE> 25
 3.875927e+01 2.547423e+01 2.838264e+01 3.256189e+01 3.431627e+01 3.345151e+01 3.099336e+01 2.816396e+01 2.866950e+01 2.210592e+01 2.773822e+01 1.948009e+01 3.960285e+00 2.339192e+00 2.827327e+00 2.553866e+00 3.218265e+00 3.361752e+00 2.878723e+00 2.720816e+00 2.468805e+00 2.321491e+00 2.246306e+00 2.030226e+00 5.919580e+00
<GCONST> 9.991660e+01
<STATE> 4
<MEAN> 25
 -8.461343e+00 1.787920e+00 -2.365745e+00 1.900701e+00 1.604648e+00 -7.913972e-01 3.782969e+00 1.342127e+00 2.674640e+00 1.044119e+00 2.338767e+00 2.392974e+00 2.303387e+00 -2.101620e-01 7.198699e-01 -8.711188e-01 -2.061768e+00 -2.431441e+00 -2.896473e+00 -1.915089e+00 -1.681265e+00 -1.668573e+00 -1.691804e+00 -1.227223e+00 2.237041e+00
<VARIANCE> 25
 3.143527e+01 2.998319e+01 3.359740e+01 3.592914e+01 4.165057e+01 4.816867e+01 4.504965e+01 4.289376e+01 3.735337e+01 3.320788e+01 4.076973e+01 2.564902e+01 6.824264e+00 3.402935e+00 4.581979e+00 5.034526e+00 5.770218e+00 6.197459e+00 5.586835e+00 4.781409e+00 4.553094e+00 3.965183e+00 4.393856e+00 3.988828e+00 5.279819e+00
<GCONST> 1.097042e+02
<TRANSP> 5
 0.000000e+00 1.000000e+00 0.000000e+00 0.000000e+00 0.000000e+00
 0.000000e+00 6.395921e-01 3.604079e-01 0.000000e+00 0.000000e+00
 0.000000e+00 0.000000e+00 6.930993e-01 3.069007e-01 0.000000e+00
 0.000000e+00 0.000000e+00 0.000000e+00 5.846861e-01 4.153139e-01
 0.000000e+00 0.000000e+00 0.000000e+00 0.000000e+00 0.000000e+00
<ENDHMM>
~h "U"
<BEGINHMM>
<NUMSTATES> 5
<STATE> 2
<MEAN> 25
 5.597396e+00 1.415688e+00 -1.261615e+00 -4.766712e+00 -2.305700e+00 -1.912714e+00 -9.694769e+00 -7.826876e+00 -4.355536e+00 -2.305303e+00 -7.037588e-01 -2.179684e+00 1.776258e+00 8.296009e-03 -4.657039e-01 -1.966979e+00 -9.456886e-01 1.160456e-01 -2.037404e+00 -1.194379e+00 -9.062442e-01 -6.656732e-03 -1.141112e-01 -4.229753e-01 8.168612e-01
<VARIANCE> 25
 2.327282e+01 2.700492e+01 3.886269e+01 6.171226e+01 4.679554e+01 6.013354e+01 6.490236e+01 5.393552e+01 5.560059e+01 5.107194e+01 4.232779e+01 3.602693e+01 4.038602e+00 3.393389e+00 3.923866e+00 6.457781e+00 6.598703e+00 6.360513e+00 6.902892e+00 7.974008e+00 6.706941e+00 6.276143e+00 6.689456e+00 4.270197e+00 2.134585e+00
<GCONST> 1.130025e+02
<STATE> 3
<MEAN> 25
 7.790088e+00 8.952539e-01 -3.152535e+00 -9.746968e+00 -3.019925e+00 1.296941e+00 -1.145988e+01 -8.609131e+00 -5.815808e+00 -1.625062e+00 -1.334156e-01 -2.445999e+00 1.009735e-01 4.731603e-03 -4.251927e-03 7.401128e-02 1.091956e-01 1.921890e-01 -8.939269e-02 -1.764734e-01 6.325758e-02 2.219245e-01 2.791261e-02 -1.031190e-01 -1.437755e-01
<VARIANCE> 25
 1.216879e+01 2.656815e+01 3.775880e+01 6.145300e+01 5.004849e+01 5.899401e+01 6.068204e+01 5.630114e+01 6.856356e+01 6.839842e+01 6.161773e+01 4.876719e+01 1.031895e+00 1.743307e+00 2.045060e+00 3.633341e+00 3.236837e+00 3.282825e+00 3.776864e+00 3.780833e+00 3.399240e+00 3.561902e+00 3.436144e+00 2.682948e+00 1.122510e+00
<GCONST> 1.045085e+02
<STATE> 4
<MEAN> 25
 5.806167e+00 1.680639e+00 -1.652375e+00 -3.461666e+00 -1.310611e-01 -1.372330e-01 -8.015811e+00 -7.032679e+00 -2.757795e+00 -3.785948e-01 -8.125597e-01 -1.893651e+00 -9.397728e-01 5.706288e-01 6.699547e-01 1.738635e+00 5.161434e-01 -3.443897e-01 1.648850e+00 7.658391e-01 5.831237e-01 7.081874e-02 -5.689619e-02 3.595488e-01 -1.233646e+00
<VARIANCE> 25
 1.797859e+01 2.756309e+01 3.590011e+01 5.992241e+01 6.155758e+01 6.243357e+01 8.304828e+01 6.352889e+01 6.709114e+01 6.062056e+01 5.624622e+01 5.106090e+01 2.197155e+00 2.722235e+00 2.679569e+00 3.974004e+00 4.626930e+00 4.667806e+00 4.790785e+00 4.777574e+00 4.690341e+00 4.712523e+00 4.478379e+00 3.647247e+00 2.365929e+00
<GCONST> 1.100322e+02
<TRANSP> 5
 0.000000e+00 1.000000e+00 0.000000e+00 0.000000e+00 0.000000e+00
 0.000000e+00 3.836234e-01 6.163766e-01 0.000000e+00 0.000000e+00
 0.000000e+00 0.000000e+00 5.772387e-01 4.227613e-01 0.000000e+00
 0.000000e+00 0.000000e+00 0.000000e+00 5.028177e-01 4.971823e-01
 0.000000e+00 0.000000e+00 0.000000e+00 0.000000e+00 0.000000e+00
<ENDHMM>
~h "V"
<BEGINHMM>
<NUMSTATES> 5
<STATE> 2
<MEAN> 25
 8.736566e+00 -6.566824e-01 -7.601912e+00 -1.241985e+01 -3.519907e+00 3.831370e+00 -8.024821e+00 -8.131958e+00 -5.899310e+00 1.023045e+00 3.208156e-01 -2.732640e+00 5.129814e-01 1.026326e+00 5.376562e-04 -3.720534e-01 -5.129644e-01 1.003126e+00 9.689482e-01 -3.568229e-01 -1.405739e+00 -9.839191e-01 6.097149e-01 1.217443e+00 -9.035423e-01
<VARIANCE> 25
 9.080098e+00 2.027114e+01 2.320828e+01 6.766637e+01 4.334170e+01 4.595230e+01 5.044781e+01 3.698696e+01 5.595582e+01 4.939233e+01 6.372739e+01 3.870645e+01 3.739295e-01 1.246517e+00 1.120048e+00 2.590772e+00 2.110209e+00 1.892892e+00 2.283194e+00 2.084949e+00 3.592799e+00 2.548490e+00 2.779689e+00 2.378008e+00 8.791581e-01
<GCONST> 9.660596e+01
<STATE> 3
<MEAN> 25
 1.011776e+01 2.136404e+00 -5.956864e+00 -1.296616e+01 -8.646466e+00 6.145702e+00 -4.511962e+00 -8.303015e+00 -7.758076e+00 -4.134018e+00 1.334120e+00 6.475798e-01 9.776586e-02 3.146780e-01 7.296745e-02 -2.494238e-02 -2.793743e-01 -1.211803e-02 3.258406e-01 2.432225e-01 -2.305983e-01 -5.200707e-01 -2.636963e-01 2.405347e-01 -3.148473e-01
<VARIANCE> 25
 7.745760e+00 1.933450e+01 2.210458e+01 4.755231e+01 6.231469e+01 3.583694e+01 4.990348e+01 3.215396e+01 4.329191e+01 3.770286e+01 4.402674e+01 3.064239e+01 2.244528e-01 1.873545e+00 7.960634e-01 2.502971e+00 1.157241e+00 1.360568e+00 1.626099e+00 1.817259e+00 2.408110e+00 2.637580e+00 1.884491e+00 1.290844e+00 1.017125e+00
<GCONST> 9.172552e+01
<STATE> 4
<MEAN> 25
 9.356371e+00 1.216044e+00 -7.281572e+00 -1.307934e+01 -4.724752e+00 3.767848e+00 -5.953330e+00 -6.721174e+00 -7.148197e+00 -1.993066e+00 3.618876e-01 -1.134913e+00 -3.526820e-01 -5.918776e-01 3.731111e-02 6.247425e-01 8.199479e-01 -7.987267e-01 -3.146182e-01 9.428640e-02 8.627250e-01 5.281388e-01 -3.042972e-01 -9.347928e-01 2.765816e-01
<VARIANCE> 25
 1.036110e+01 3.482591e+01 2.560221e+01 5.855854e+01 5.580174e+01 4.095614e+01 5.495656e+01 4.525298e+01 5.553109e+01 4.980484e+01 5.288321e+01 3.520508e+01 3.042793e-01 1.624509e+00 1.235560e+00 4.834532e+00 2.056585e+00 2.351602e+00 2.815659e+00 2.649119e+00 3.073521e+00 3.008861e+00 2.884045e+00 2.245163e+00 1.200356e+00
<GCONST> 9.909875e+01
<TRANSP> 5
 0.000000e+00 1.000000e+00 0.000000e+00 0.000000e+00 0.000000e+00
 0.000000e+00 4.238164e-01 5.761836e-01 0.000000e+00 0.000000e+00
 0.000000e+00 0.000000e+00 6.229208e-01 3.770793e-01 0.000000e+00
 0.000000e+00 0.000000e+00 0.000000e+00 6.055260e-01 3.944740e-01
 0.000000e+00 0.000000e+00 0.000000e+00 0.000000e+00 0.000000e+00
<ENDHMM>
~h "Y"
<BEGINHMM>
<NUMSTATES> 5
<STATE> 2
<MEAN> 25
 1.557968e+00 3.741207e-01 9.042184e+00 -2.852293e+00 -1.009313e+01 -5.105306e+00 -5.922956e+00 -3.172275e+00 -6.864793e+00 -3.282218e+00 -1.364686e+00 -1.848249e+00 1.651275e-01 -8.728407e-02 1.373274e+00 -5.296706e-01 -1.668501e+00 -5.046564e-01 -6.715266e-01 -4.236365e-01 -1.021905e+00 -6.997403e-02 1.516339e-01 -1.997400e-01 7.870841e-01
<VARIANCE> 25
 2.090306e+01 5.846021e+01 4.703799e+01 6.198463e+01 7.078423e+01 5.760522e+01 6.070054e+01 5.728067e+01 5.638389e+01 5.442344e+01 4.810435e+01 3.631690e+01 2.474224e+00 4.168925e+00 4.413023e+00 3.571325e+00 5.949633e+00 5.325963e+00 6.109016e+00 5.323819e+00 5.238422e+00 4.921134e+00 4.047405e+00 3.105543e+00 3.059911e+00
<GCONST> 1.119230e+02
<STATE> 3
<MEAN> 25
 1.545362e+00 -3.309001e-01 1.208738e+01 -5.141010e+00 -1.400294e+01 -4.787944e+00 -7.804974e+00 -4.434450e+00 -8.659365e+00 -2.897492e+00 -1.010505e+00 -2.829677e+00 7.315442e-02 -2.840506e-01 -2.000486e-01 -7.937709e-03 -1.348587e-01 -1.943736e-01 1.168728e-01 2.414003e-01 1.767500e-01 1.636141e-01 6.934293e-02 2.819700e-02 1.574387e-01
<VARIANCE> 25
 1.289500e+01 3.433804e+01 3.779597e+01 6.412280e+01 3.748778e+01 4.164361e+01 4.527035e+01 4.865117e+01 5.172600e+01 6.661012e+01 5.970046e+01 3.463081e+01 3.930831e-01 1.810888e+00 2.033385e+00 1.437458e+00 1.642222e+00 1.879334e+00 2.046817e+00 2.433435e+00 2.073634e+00 1.866019e+00 1.648584e+00 1.484855e+00 7.592520e-01
<GCONST> 9.610057e+01
<STATE> 4
<MEAN> 25
 3.846516e+00 -4.179147e+00 6.021952e+00 -3.069740e+00 -1.231848e+01 -7.989943e+00 -6.491604e+00 2.360851e-01 -4.671154e+00 -2.516401e+00 -1.203354e+00 -2.169060e+00 5.327633e-01 -5.307937e-01 -2.119118e+00 5.017933e-02 1.467011e+00 1.085193e-01 2.903444e-02 5.125169e-01 1.437824e+00 2.247339e-01 -6.264028e-01 -4.292182e-01 5.676579e-02
<VARIANCE> 25
 1.439543e+01 2.934136e+01 4.693095e+01 5.115686e+01 4.375761e+01 3.991551e+01 5.540995e+01 5.360038e+01 6.139157e+01 5.648681e+01 5.110153e+01 3.269070e+01 5.135275e-01 2.476323e+00 3.305369e+00 2.897885e+00 3.160052e+00 3.419135e+00 3.545734e+00 4.248257e+00 3.843193e+00 4.467359e+00 2.963305e+00 2.845584e+00 1.350151e+00
<GCONST> 1.036778e+02
<TRANSP> 5
 0.000000e+00 1.000000e+00 0.000000e+00 0.000000e+00 0.000000e+00
 0.000000e+00 4.626034e-01 5.373966e-01 0.000000e+00 0.000000e+00
 0.000000e+00 0.000000e+00 6.590201e-01 3.409800e-01 0.000000e+00
 0.000000e+00 0.000000e+00 0.000000e+00 4.834701e-01 5.165299e-01
 0.000000e+00 0.000000e+00 0.000000e+00 0.000000e+00 0.000000e+00
<ENDHMM>
~h "Z"
<BEGINHMM>
<NUMSTATES> 5
<STATE> 2
<MEAN> 25
 -1.222069e+00 9.127207e+00 -2.422400e+00 2.388681e+00 -1.633648e+00 -7.594516e+00 -7.174966e+00 -6.628040e+00 -2.241434e+00 -3.500740e+00 -3.928555e+00 -2.302242e+00 -2.422931e+00 3.358657e+00 -8.116242e-01 2.044462e+00 1.346508e+00 3.095763e-01 1.453247e+00 6.146314e-02 2.873619e-01 -1.219295e-01 1.278430e-01 -6.650653e-02 -8.916278e-01
<VARIANCE> 25
 2.219320e+01 3.533535e+01 4.697868e+01 4.216146e+01 5.141557e+01 4.830098e+01 5.166138e+01 4.403648e+01 3.885344e+01 5.088314e+01 3.688087e+01 3.393398e+01 1.577290e+00 2.705694e+00 2.863121e+00 4.150763e+00 4.314775e+00 4.444194e+00 3.944408e+00 4.499068e+00 3.532473e+00 3.910649e+00 3.714844e+00 3.528715e+00 9.201381e-01
<GCONST> 1.053432e+02
<STATE> 3
<MEAN> 25
 -8.444508e+00 1.450631e+01 -1.937002e+00 7.419117e+00 2.264798e+00 -3.869627e+00 -1.858732e+00 -3.942502e+00 -1.616556e+00 -2.788049e+00 -2.360601e+00 -1.435596e+00 -9.008628e-01 -7.760271e-03 1.160616e-01 4.256953e-01 6.045154e-01 6.957054e-01 6.158455e-01 4.308065e-01 1.793599e-01 1.905476e-01 3.028728e-01 2.175128e-01 -3.726875e-01
<VARIANCE> 25
 2.189851e+01 2.327651e+01 3.434845e+01 3.917693e+01 5.238105e+01 5.275167e+01 5.034538e+01 4.121202e+01 3.431500e+01 3.585113e+01 3.380322e+01 2.878290e+01 1.759400e+00 1.916150e+00 1.516554e+00 1.691253e+00 2.179816e+00 2.778859e+00 2.552581e+00 2.484826e+00 2.277966e+00 2.312248e+00 2.105979e+00 1.703519e+00 7.919078e-01
<GCONST> 9.745396e+01
<STATE> 4
<MEAN> 25
 -6.499617e+00 1.055954e+01 -1.938676e+00 5.373002e+00 8.401663e-01 -5.302424e+00 -3.307650e+00 -4.977654e+00 -1.470603e+00 -2.392374e+00 -2.132429e+00 -1.069168e+00 2.646805e+00 -2.575710e+00 1.676642e-01 -1.941264e+00 -1.830153e+00 -1.333662e+00 -1.739617e+00 -6.445425e-01 2.194799e-02 1.689731e-01 -2.930871e-01 -2.011198e-01 1.159358e+00
<VARIANCE> 25
 3.311818e+01 2.670449e+01 3.533535e+01 4.054892e+01 5.336386e+01 5.731345e+01 5.752057e+01 4.650558e+01 3.609117e+01 3.771178e+01 3.456472e+01 2.720790e+01 3.084307e+00 3.747144e+00 2.809509e+00 4.182286e+00 4.231116e+00 4.949157e+00 4.961482e+00 4.355752e+00 3.697437e+00 3.369478e+00 3.493774e+00 3.325363e+00 1.662489e+00
<GCONST> 1.064883e+02
<TRANSP> 5
 0.000000e+00 1.000000e+00 0.000000e+00 0.000000e+00 0.000000e+00
 0.000000e+00 6.151356e-01 3.848644e-01 0.000000e+00 0.000000e+00
 0.000000e+00 0.000000e+00 7.152232e-01 2.847769e-01 0.000000e+00
 0.000000e+00 0.000000e+00 0.000000e+00 6.110126e-01 3.889874e-01
 0.000000e+00 0.000000e+00 0.000000e+00 0.000000e+00 0.000000e+00
<ENDHMM>
~h "AA"
<BEGINHMM>
<NUMSTATES> 5
<STATE> 2
<MEAN> 25
 5.894102e+00 -5.166817e+00 -6.988905e+00 -8.130708e+00 -2.509506e+00 -8.630277e-01 -6.292374e+00 -1.862095e+00 4.054916e-01 -1.636257e+00 -3.746145e+00 -4.270336e+00 1.431896e+00 -2.191486e+00 -1.494375e+00 -2.499122e+00 -2.297359e-01 1.006689e+00 -1.187397e+00 4.296852e-01 2.865287e-01 -3.149418e-01 -7.761338e-01 -1.324389e+00 2.043787e+00
<VARIANCE> 25
 1.750639e+01 3.367369e+01 3.625070e+01 4.973156e+01 6.347827e+01 8.074925e+01 6.074997e+01 5.289507e+01 4.884962e+01 5.296312e+01 5.098351e+01 4.315483e+01 3.544535e+00 3.406486e+00 3.481699e+00 5.558384e+00 7.690247e+00 5.930651e+00 6.724912e+00 7.595738e+00 6.229886e+00 5.241153e+00 6.234190e+00 4.377695e+00 3.217052e+00
<GCONST> 1.131634e+02
<STATE> 3
<MEAN> 25
 7.012390e+00 -1.045733e+01 -1.027476e+01 -1.095851e+01 9.228816e-01 4.789853e+00 -6.462322e+00 -1.626775e+00 -3.824437e-02 -2.716100e+00 -4.358011e+00 -7.485014e+00 3.085705e-02 -3.113288e-01 -1.721235e-01 2.757121e-02 3.266251e-01 1.715243e-01 -9.462426e-02 1.118548e-01 3.083336e-03 3.709579e-02 -4.724593e-02 -2.512170e-01 1.152045e-01
<VARIANCE> 25
 1.087404e+01 2.981814e+01 2.809567e+01 4.807920e+01 6.566026e+01 7.051461e+01 5.524031e+01 4.548800e+01 4.975052e+01 4.964722e+01 5.396510e+01 3.995811e+01 4.444348e-01 1.422652e+00 1.251751e+00 1.829479e+00 2.579773e+00 3.176336e+00 2.353938e+00 2.734932e+00 2.389288e+00 2.256523e+00 2.313235e+00 1.867568e+00 5.784705e-01
<GCONST> 9.763098e+01
<STATE> 4
<MEAN> 25
 6.643336e+00 -7.289598e+00 -7.335768e+00 -7.833177e+00 -1.711809e+00 -1.412515e+00 -7.001177e+00 -3.599978e-01 -1.051709e-01 -1.970483e+00 -4.909068e+00 -5.026415e+00 -1.819089e-01 1.897041e+00 1.261002e+00 1.440295e+00 -4.686365e-01 -1.237359e+00 3.741210e-01 -3.644959e-01 -4.179870e-01 1.819165e-01 3.497537e-01 9.300085e-01 -1.562667e+00
<VARIANCE> 25
 1.228471e+01 3.932435e+01 3.707240e+01 4.376709e+01 5.893326e+01 6.929367e+01 5.821080e+01 5.337268e+01 5.254180e+01 5.564878e+01 5.946479e+01 5.184835e+01 1.198404e+00 2.598599e+00 2.245321e+00 3.114381e+00 4.732206e+00 4.301168e+00 4.252703e+00 4.740927e+00 4.094662e+00 3.721461e+00 3.683007e+00 3.045127e+00 2.060045e+00
<GCONST> 1.068511e+02
<TRANSP> 5
 0.000000e+00 1.000000e+00 0.000000e+00 0.000000e+00 0.000000e+00
 0.000000e+00 4.893444e-01 5.106555e-01 0.000000e+00 0.000000e+00
 0.000000e+00 0.000000e+00 7.385353e-01 2.614647e-01 0.000000e+00
 0.000000e+00 0.000000e+00 0.000000e+00 6.395440e-01 3.604560e-01
 0.000000e+00 0.000000e+00 0.000000e+00 0.000000e+00 0.000000e+00
<ENDHMM>
~h "CH"
<BEGINHMM>
<NUMSTATES> 5
<STATE> 2
<MEAN> 25
 -6.065882e+00 7.171607e+00 4.701585e+00 8.328118e-01 6.790630e-01 -1.395903e+00 3.295163e-01 -1.429260e-01 4.051406e-01 1.377845e-01 1.081126e+00 1.232820e+00 -2.877708e+00 2.113829e-01 -4.498676e-01 1.070809e-01 1.920028e+00 1.930388e+00 1.551408e+00 1.401177e+00 1.695310e+00 1.210231e+00 1.277317e+00 6.638719e-01 -8.444912e-01
<VARIANCE> 25
 5.099450e+01 3.399080e+01 3.310865e+01 3.260257e+01 4.664571e+01 4.761845e+01 4.352689e+01 4.286029e+01 4.570155e+01 3.691460e+01 3.363564e+01 2.632467e+01 5.378603e+00 5.742117e+00 3.248669e+00 3.423523e+00 4.538188e+00 3.374441e+00 3.803349e+00 4.011395e+00 4.030213e+00 3.395664e+00 3.197499e+00 2.748397e+00 7.136817e+00
<GCONST> 1.078908e+02
<STATE> 3
<MEAN> 25
 -1.835459e+01 3.749522e+00 3.522271e+00 -5.127171e-01 3.734867e+00 4.811505e+00 5.449728e+00 3.729626e+00 4.089353e+00 2.822967e+00 5.102030e+00 2.548582e+00 -1.140303e+00 -5.948655e-01 -1.037053e-01 -8.285849e-02 -5.785753e-01 -1.375467e-01 4.362614e-01 1.477911e-01 -4.397394e-02 -1.030858e-01 2.507402e-01 -3.997600e-03 1.308570e+00
<VARIANCE> 25
 4.072808e+01 3.330362e+01 2.773326e+01 3.538814e+01 4.276197e+01 3.251707e+01 3.424609e+01 3.112495e+01 2.705203e+01 2.602199e+01 2.648140e+01 1.885298e+01 7.025299e+00 2.270700e+00 2.177747e+00 2.487280e+00 3.288116e+00 3.479978e+00 2.578629e+00 2.472408e+00 2.290125e+00 2.190986e+00 1.996725e+00 1.783032e+00 5.397587e+00
<GCONST> 1.003449e+02
<STATE> 4
<MEAN> 25
 -1.299503e+01 1.503407e+00 3.147812e+00 1.192466e+00 -1.462246e+00 -1.666229e+00 3.212543e+00 1.356879e+00 1.419684e+00 -5.744957e-01 2.603977e+00 1.258794e+00 5.141905e+00 -3.010042e-01 -2.637706e-02 3.628083e-03 -1.862615e+00 -2.698523e+00 -3.021662e+00 -1.999423e+00 -1.876277e+00 -1.631606e+00 -1.640929e+00 -1.141790e+00 1.088332e-01
<VARIANCE> 25
 5.555540e+01 3.201845e+01 2.972054e+01 3.580876e+01 4.540967e+01 5.247605e+01 5.092731e+01 4.893166e+01 4.938940e+01 3.877655e+01 4.139530e+01 2.552785e+01 4.146297e+00 2.978828e+00 3.997574e+00 4.469420e+00 7.219205e+00 5.210731e+00 4.908136e+00 4.752660e+00 4.777662e+00 3.946580e+00 4.294273e+00 3.483744e+00 2.077698e+00
<GCONST> 1.090653e+02
<TRANSP> 5
 0.000000e+00 1.000000e+00 0.000000e+00 0.000000e+00 0.000000e+00
 0.000000e+00 6.924179e-01 3.075821e-01 0.000000e+00 0.000000e+00
 0.000000e+00 0.000000e+00 8.125630e-01 1.874370e-01 0.000000e+00
 0.000000e+00 0.000000e+00 0.000000e+00 6.095191e-01 3.904809e-01
 0.000000e+00 0.000000e+00 0.000000e+00 0.000000e+00 0.000000e+00
<ENDHMM>
~h "EE"
<BEGINHMM>
<NUMSTATES> 5
<STATE> 2
<MEAN> 25
 3.798880e+00 -4.230733e+00 3.213475e+00 -3.843219e+00 -1.097810e+01 -8.556186e+00 -6.016403e+00 -9.731150e-01 -3.203898e+00 -3.713375e+00 -2.002675e+00 -1.763846e+00 7.717229e-01 -2.336564e+00 -1.207699e-01 -1.729392e+00 -1.832956e+00 -6.012937e-02 -3.685996e-01 1.403285e+00 -8.184942e-02 -7.680121e-02 -1.441100e-01 -2.650082e-01 1.791184e+00
<VARIANCE> 25
 1.337891e+01 3.122870e+01 4.682495e+01 3.804744e+01 4.429489e+01 3.476834e+01 4.136661e+01 4.542164e+01 4.782119e+01 3.989869e+01 3.803257e+01 3.182656e+01 3.588768e+00 3.113463e+00 4.459109e+00 3.990081e+00 6.838744e+00 5.622214e+00 6.785832e+00 5.802689e+00 5.449067e+00 4.943461e+00 5.405415e+00 3.783400e+00 1.751799e+00
<GCONST> 1.084848e+02
<STATE> 3
<MEAN> 25
 3.959998e+00 -9.219916e+00 2.472130e-01 -5.977022e+00 -9.429509e+00 -4.687971e+00 -4.211534e+00 1.904435e+00 -3.020677e+00 -4.255640e+00 -3.732875e+00 -3.087087e+00 5.291949e-04 -1.578894e-01 -5.071517e-02 -5.633214e-02 1.088373e-01 2.916657e-01 1.139444e-01 4.239910e-02 -1.911751e-01 6.792662e-02 -9.046945e-02 -5.593010e-02 -6.764625e-02
<VARIANCE> 25
 1.176272e+01 3.631199e+01 7.059378e+01 3.660185e+01 7.622104e+01 4.872546e+01 4.968976e+01 4.636086e+01 5.929879e+01 4.994007e+01 4.913031e+01 3.822649e+01 4.543270e-01 1.421778e+00 1.603069e+00 1.554112e+00 2.419410e+00 2.171379e+00 2.145375e+00 2.103147e+00 2.043858e+00 2.033068e+00 1.867269e+00 1.659271e+00 4.950649e-01
<GCONST> 9.684815e+01
<STATE> 4
<MEAN> 25
 3.871441e+00 -4.201156e+00 3.467581e+00 -3.972882e+00 -1.035950e+01 -6.607692e+00 -4.322553e+00 -7.900819e-01 -4.030127e+00 -2.327562e+00 -2.154026e+00 -1.386354e+00 -2.949089e-04 1.936070e+00 1.644352e-01 1.246683e+00 1.170858e+00 2.095588e-01 3.836259e-01 -7.372090e-01 2.067833e-01 3.114085e-01 1.262062e-01 2.411246e-01 -1.979545e+00
<VARIANCE> 25
 1.435369e+01 4.113680e+01 6.161456e+01 4.630913e+01 5.714242e+01 4.649026e+01 5.496205e+01 5.897460e+01 6.126693e+01 5.379818e+01 5.367754e+01 4.651871e+01 1.520158e+00 2.626538e+00 2.550897e+00 2.958901e+00 4.381163e+00 3.369766e+00 4.209488e+00 4.098878e+00 4.276934e+00 3.714416e+00 3.591214e+00 2.997386e+00 2.023400e+00
<GCONST> 1.069684e+02
<TRANSP> 5
 0.000000e+00 1.000000e+00 0.000000e+00 0.000000e+00 0.000000e+00
 0.000000e+00 4.515861e-01 5.484139e-01 0.000000e+00 0.000000e+00
 0.000000e+00 0.000000e+00 7.072125e-01 2.927875e-01 0.000000e+00
 0.000000e+00 0.000000e+00 0.000000e+00 5.427819e-01 4.572181e-01
 0.000000e+00 0.000000e+00 0.000000e+00 0.000000e+00 0.000000e+00
<ENDHMM>
~h "GG"
<BEGINHMM>
<NUMSTATES> 5
<STATE> 2
<MEAN> 25
 7.162735e+00 7.371477e+00 1.513342e+00 2.178395e+00 -7.425538e-02 -2.453332e+00 -1.946253e+00 -4.867154e+00 -5.137541e+00 -9.431540e-01 -1.590339e+00 -3.526005e+00 -6.039472e-01 4.716311e-01 -6.990514e-01 5.560470e-01 1.845691e+00 2.401663e-01 9.917228e-01 7.332518e-01 5.474626e-01 2.437783e-02 -4.171440e-01 4.198473e-01 -9.721546e-01
<VARIANCE> 25
 1.800697e+01 2.609709e+01 2.942924e+01 3.306965e+01 4.453326e+01 4.696762e+01 5.367777e+01 4.531124e+01 4.987664e+01 4.139432e+01 4.817535e+01 3.658202e+01 2.471008e+00 5.797638e+00 3.815322e+00 4.630305e+00 5.280161e+00 5.252496e+00 6.117031e+00 4.902618e+00 5.071023e+00 4.568799e+00 4.688879e+00 3.523262e+00 5.425035e+00
<GCONST> 1.094251e+02
<STATE> 3
<MEAN> 25
 1.651500e+00 1.323723e+00 -4.280445e+00 3.097850e+00 6.749939e+00 -1.984706e+00 -9.757764e-01 -1.155596e+00 -2.982971e+00 5.003191e-01 -2.150112e+00 -4.698639e-01 -6.255301e-01 -2.186091e+00 -1.676947e+00 -1.272875e+00 2.626210e-03 -1.005590e+00 -1.918298e+00 -1.030643e-02 -3.822495e-01 4.300339e-01 3.648161e-02 3.516487e-01 3.160078e+00
<VARIANCE> 25
 2.925364e+01 5.264106e+01 5.494781e+01 5.266384e+01 5.026246e+01 6.414909e+01 4.773941e+01 4.428406e+01 5.130043e+01 3.867977e+01 3.661045e+01 3.144220e+01 3.033433e+00 3.669060e+00 4.971777e+00 5.258524e+00 7.727204e+00 6.959575e+00 5.407577e+00 5.388489e+00 4.747459e+00 4.484339e+00 4.755313e+00 3.949801e+00 3.094530e+00
<GCONST> 1.117840e+02
<STATE> 4
<MEAN> 25
 4.199270e+00 -7.075592e-02 -3.871113e+00 -1.419662e+00 1.698589e-01 -6.054509e+00 -7.980581e+00 -3.988866e+00 -5.411612e+00 5.380679e-01 -1.363408e+00 -1.709145e+00 1.002572e+00 -1.158136e+00 4.980857e-01 -2.247282e+00 -3.424701e+00 -7.551415e-01 -2.061764e+00 -5.670353e-01 1.640027e-01 -9.018539e-02 6.325600e-01 -6.669630e-01 2.536417e+00
<VARIANCE> 25
 1.656560e+01 2.925892e+01 4.607815e+01 4.946812e+01 6.778555e+01 7.148645e+01 4.519328e+01 4.264882e+01 4.959794e+01 5.248133e+01 4.894020e+01 4.156923e+01 2.375234e+00 3.351028e+00 4.621561e+00 5.601118e+00 6.419179e+00 5.546994e+00 5.698397e+00 6.208632e+00 6.463132e+00 5.434718e+00 7.361674e+00 4.644771e+00 1.857364e+00
<GCONST> 1.115711e+02
<TRANSP> 5
 0.000000e+00 1.000000e+00 0.000000e+00 0.000000e+00 0.000000e+00
 0.000000e+00 6.096206e-01 3.903795e-01 0.000000e+00 0.000000e+00
 0.000000e+00 0.000000e+00 4.592918e-01 5.407082e-01 0.000000e+00
 0.000000e+00 0.000000e+00 0.000000e+00 3.629373e-01 6.370627e-01
 0.000000e+00 0.000000e+00 0.000000e+00 0.000000e+00 0.000000e+00
<ENDHMM>
~h "IY"
<BEGINHMM>
<NUMSTATES> 5
<STATE> 2
<MEAN> 25
 4.870746e-01 2.620027e+00 8.727654e+00 -9.832696e-01 -9.373197e+00 -6.772701e+00 -5.345099e+00 -6.023193e+00 -6.817698e+00 -3.577402e+00 -7.028793e-01 -9.616031e-01 1.189537e+00 -8.508902e-01 1.571204e+00 -1.168019e+00 -2.403981e+00 -9.581632e-01 -1.657216e+00 -5.340559e-01 -1.495320e+00 -3.994589e-01 -1.549336e-01 -1.834287e-01 1.255185e+00
<VARIANCE> 25
 2.515088e+01 3.678761e+01 4.254704e+01 4.842898e+01 5.453520e+01 4.456776e+01 4.350787e+01 4.772344e+01 4.482586e+01 4.443581e+01 3.398687e+01 3.180679e+01 5.747971e+00 3.816310e+00 4.228653e+00 5.055634e+00 6.351539e+00 5.889278e+00 6.201397e+00 6.293674e+00 5.660563e+00 5.509695e+00 5.166497e+00 3.821081e+00 2.607758e+00
<GCONST> 1.112423e+02
<STATE> 3
<MEAN> 25
 1.563321e+00 -2.650811e-01 1.093073e+01 -4.203395e+00 -1.287699e+01 -6.238984e+00 -7.122776e+00 -5.459926e+00 -8.704162e+00 -2.846030e+00 -1.165386e+00 -1.633335e+00 2.701203e-01 -7.374823e-02 -2.150066e-01 1.717735e-02 -3.315275e-02 8.291788e-02 1.151452e-01 2.415553e-01 6.997404e-02 1.816322e-02 -9.225108e-02 -5.794965e-02 -1.430741e-01
<VARIANCE> 25
 1.662107e+01 3.223102e+01 3.835156e+01 5.620306e+01 3.969875e+01 4.072703e+01 4.317070e+01 5.112782e+01 4.674741e+01 5.870249e+01 4.838939e+01 3.921996e+01 1.775557e+00 2.377019e+00 2.089555e+00 2.726755e+00 2.946829e+00 2.593782e+00 2.923445e+00 3.053754e+00 2.804531e+00 2.885900e+00 2.765446e+00 2.217384e+00 1.204621e+00
<GCONST> 1.019535e+02
<STATE> 4
<MEAN> 25
 2.148530e+00 1.988151e+00 6.848512e+00 -1.924198e-01 -8.036720e+00 -5.730385e+00 -3.016613e+00 -3.114093e+00 -5.123325e+00 -3.046038e+00 -1.102450e+00 -6.582462e-01 -2.883727e-01 1.013685e+00 -1.121388e+00 9.834213e-01 1.902296e+00 7.438723e-01 1.096526e+00 3.130322e-01 1.091289e+00 3.377222e-01 2.044030e-02 1.018626e-01 -1.548002e+00
<VARIANCE> 25
 2.378480e+01 4.011628e+01 4.314373e+01 4.660628e+01 5.775793e+01 4.591770e+01 6.082858e+01 6.210394e+01 5.581661e+01 4.888633e+01 4.463316e+01 4.216858e+01 3.189420e+00 3.515147e+00 2.819892e+00 3.519713e+00 4.387423e+00 3.806104e+00 4.051663e+00 4.529658e+00 4.248967e+00 4.389615e+00 3.920360e+00 3.128809e+00 2.547914e+00
<GCONST> 1.087909e+02
<TRANSP> 5
 0.000000e+00 1.000000e+00 0.000000e+00 0.000000e+00 0.000000e+00
 0.000000e+00 3.718362e-01 6.281638e-01 0.000000e+00 0.000000e+00
 0.000000e+00 0.000000e+00 5.837926e-01 4.162074e-01 0.000000e+00
 0.000000e+00 0.000000e+00 0.000000e+00 4.898273e-01 5.101727e-01
 0.000000e+00 0.000000e+00 0.000000e+00 0.000000e+00 0.000000e+00
<ENDHMM>
~h "KK"
<BEGINHMM>
<NUMSTATES> 5
<STATE> 2
<MEAN> 25
 2.936952e+00 4.103254e+00 -1.959923e+00 1.454805e+00 2.123192e+00 -1.415032e+00 1.089278e+00 1.449672e+00 1.622137e+00 3.462764e+00 8.970661e-01 1.159216e+00 -1.233962e+00 3.941620e-01 -2.592500e-01 9.441028e-01 1.445447e+00 1.295889e+00 2.062948e+00 1.314078e+00 1.963486e+00 1.088446e+00 1.051122e+00 1.220843e+00 -2.383170e+00
<VARIANCE> 25
 1.700575e+01 1.900626e+01 2.707472e+01 3.095753e+01 3.560258e+01 4.636056e+01 5.051132e+01 4.382269e+01 4.965063e+01 3.502352e+01 3.966870e+01 3.546589e+01 1.532980e+00 3.542345e+00 2.709044e+00 3.581943e+00 3.286183e+00 4.290802e+00 4.379017e+00 4.054614e+00 4.740578e+00 3.485165e+00 4.609639e+00 3.303701e+00 4.623937e+00
<GCONST> 1.048244e+02
<STATE> 3
<MEAN> 25
 -1.789568e+00 -6.706759e-01 -6.198472e+00 2.399698e+00 7.479421e+00 1.733148e+00 4.748192e+00 5.102896e+00 4.234977e+00 5.626678e+00 2.628004e+00 3.972165e+00 -7.143871e-01 -1.699763e+00 -1.553756e+00 -3.676865e-01 6.851164e-01 -3.266779e-01 -6.056247e-01 1.665529e-01 -1.418577e-01 2.834200e-01 -2.144632e-01 -1.150846e-02 2.239311e+00
<VARIANCE> 25
 1.576606e+01 4.339447e+01 5.150013e+01 4.998890e+01 3.584620e+01 4.828130e+01 4.672376e+01 3.296422e+01 4.259916e+01 2.932487e+01 2.970247e+01 2.246953e+01 1.821242e+00 4.321982e+00 6.098742e+00 4.801324e+00 4.017092e+00 5.547928e+00 4.714414e+00 3.541404e+00 4.033489e+00 3.295413e+00 3.202438e+00 2.741353e+00 6.530194e+00
<GCONST> 1.067534e+02
<STATE> 4
<MEAN> 25
 -2.509129e+00 -2.918918e+00 -8.020916e+00 6.845756e-01 6.370175e+00 -1.154202e+00 3.419184e-01 2.227037e+00 1.962109e+00 4.512165e+00 5.379329e-01 1.715189e+00 1.299191e+00 7.723936e-01 1.182649e+00 -8.037711e-01 -1.932547e+00 -1.036904e+00 -1.607750e+00 -2.050794e+00 -1.443066e+00 -1.560492e+00 -9.675812e-01 -1.309278e+00 1.478945e+00
<VARIANCE> 25
 2.217186e+01 3.275150e+01 5.669216e+01 5.258516e+01 4.365215e+01 5.788955e+01 5.148156e+01 4.699458e+01 5.127503e+01 4.296528e+01 4.429064e+01 3.111638e+01 4.134996e+00 3.143308e+00 4.611138e+00 6.044289e+00 5.202485e+00 5.610741e+00 6.473758e+00 5.181506e+00 5.317246e+00 4.506940e+00 5.019497e+00 4.033227e+00 4.110833e+00
<GCONST> 1.114640e+02
<TRANSP> 5
 0.000000e+00 1.000000e+00 0.000000e+00 0.000000e+00 0.000000e+00
 0.000000e+00 6.662374e-01 3.337627e-01 0.000000e+00 0.000000e+00
 0.000000e+00 0.000000e+00 7.064043e-01 2.935956e-01 0.000000e+00
 0.000000e+00 0.000000e+00 0.000000e+00 5.813523e-01 4.186477e-01
 0.000000e+00 0.000000e+00 0.000000e+00 0.000000e+00 0.000000e+00
<ENDHMM>
~h "LL"
<BEGINHMM>
<NUMSTATES> 5
<STATE> 2
<MEAN> 25
 6.089800e+00 3.126317e+00 -1.241098e+00 -5.492396e+00 -3.421082e-01 -2.348895e+00 -8.258868e+00 -9.906387e+00 -4.450074e+00 -1.035732e+00 -7.336506e-01 -2.127755e+00 5.890107e-01 -1.078995e-02 5.769388e-02 -2.160081e-01 -4.811386e-02 -5.371829e-01 -1.165660e+00 -6.585653e-01 -1.306207e-01 2.106224e-01 -9.604024e-02 -2.993026e-01 3.334717e-01
<VARIANCE> 25
 1.625660e+01 2.952430e+01 4.803774e+01 7.839260e+01 4.683540e+01 6.459241e+01 5.242937e+01 5.468006e+01 5.226713e+01 4.524202e+01 4.114405e+01 3.421373e+01 3.089608e+00 4.017204e+00 4.124140e+00 7.680200e+00 4.988642e+00 4.822468e+00 6.633089e+00 6.224263e+00 5.152816e+00 4.123227e+00 4.229742e+00 3.575576e+00 3.939955e+00
<GCONST> 1.113669e+02
<STATE> 3
<MEAN> 25
 6.908674e+00 2.313920e+00 -1.698462e+00 -6.774538e+00 -3.415903e-01 -1.933240e+00 -9.626720e+00 -1.024016e+01 -4.131915e+00 -2.077065e-01 -3.190653e-01 -2.549594e+00 1.205500e-01 -5.947272e-01 -2.514696e-01 -1.325529e-01 -1.084729e-01 -1.763021e-01 -4.476064e-01 5.098314e-01 6.535898e-01 3.420009e-01 -2.303425e-01 -3.937287e-01 4.177591e-01
<VARIANCE> 25
 1.171347e+01 2.936957e+01 4.259911e+01 6.501903e+01 4.772606e+01 6.593240e+01 5.139132e+01 5.972911e+01 5.276009e+01 4.730794e+01 4.445572e+01 3.626761e+01 1.370014e+00 3.970100e+00 3.778653e+00 6.886297e+00 3.820587e+00 3.870659e+00 4.335691e+00 5.436708e+00 5.037120e+00 3.659048e+00 3.392428e+00 3.132146e+00 3.042150e+00
<GCONST> 1.082017e+02
<STATE> 4
<MEAN> 25
 6.533639e+00 1.784374e+00 -2.369013e+00 -6.304903e+00 -1.552740e-02 -2.591332e+00 -9.999025e+00 -9.052644e+00 -2.148996e+00 8.630987e-01 -1.122312e+00 -3.459876e+00 -2.877853e-01 -1.037397e+00 -3.956549e-01 3.084159e-02 -4.494630e-01 -2.217911e-01 3.310797e-01 1.576400e+00 1.215699e+00 5.038700e-02 -6.605514e-01 -4.201065e-01 6.605046e-01
<VARIANCE> 25
 1.110517e+01 3.681627e+01 3.854245e+01 5.243776e+01 4.846108e+01 5.631136e+01 5.042598e+01 6.256177e+01 5.460743e+01 4.620191e+01 4.404963e+01 3.613504e+01 9.476349e-01 3.433091e+00 3.330421e+00 5.931265e+00 3.406779e+00 4.051006e+00 4.262417e+00 5.331435e+00 4.980089e+00 3.580499e+00 3.192010e+00 3.075173e+00 2.702628e+00
<GCONST> 1.068161e+02
<TRANSP> 5
 0.000000e+00 1.000000e+00 0.000000e+00 0.000000e+00 0.000000e+00
 0.000000e+00 1.494028e-01 8.505972e-01 0.000000e+00 0.000000e+00
 0.000000e+00 0.000000e+00 1.664886e-01 8.335114e-01 0.000000e+00
 0.000000e+00 0.000000e+00 0.000000e+00 3.498776e-01 6.501224e-01
 0.000000e+00 0.000000e+00 0.000000e+00 0.000000e+00 0.000000e+00
<ENDHMM>
~h "NN"
<BEGINHMM>
<NUMSTATES> 5
<STATE> 2
<MEAN> 25
 7.337763e+00 -1.795663e+00 -1.060003e+00 -2.414356e+00 -4.940069e+00 -4.023271e+00 -6.081276e+00 -5.555475e+00 -6.454628e+00 -3.450156e+00 -4.016648e+00 -4.348505e+00 5.836991e-01 1.457149e+00 1.173192e+00 1.355991e+00 -7.253615e-01 -5.392061e-01 5.424957e-01 -2.544996e+00 -6.494357e-01 8.608552e-01 -3.035526e-01 5.410213e-02 -1.439827e+00
<VARIANCE> 25
 9.931946e+00 4.088371e+01 4.714586e+01 4.137013e+01 5.413678e+01 5.390104e+01 5.407918e+01 7.582837e+01 5.746025e+01 5.323730e+01 5.210453e+01 5.125902e+01 9.314861e-01 2.406377e+00 4.871970e+00 3.446517e+00 4.694957e+00 4.574333e+00 4.555910e+00 5.935264e+00 5.534254e+00 4.413656e+00 4.188948e+00 3.527962e+00 1.167985e+00
<GCONST> 1.077792e+02
<STATE> 3
<MEAN> 25
 8.653998e+00 2.528212e+00 2.518405e+00 4.786749e-01 -7.840190e+00 -4.150029e+00 -4.301418e+00 -1.234185e+01 -6.951833e+00 -9.800621e-01 -4.534843e+00 -4.335380e+00 5.529037e-02 6.981991e-01 2.943271e-01 4.692093e-01 -1.641754e-02 -6.425557e-02 3.235690e-01 -5.716819e-01 -4.069992e-02 1.400042e-01 -2.698349e-01 6.037905e-02 -6.307220e-01
<VARIANCE> 25
 7.387244e+00 2.126198e+01 2.762372e+01 3.425559e+01 3.701158e+01 4.657383e+01 5.669586e+01 5.162243e+01 5.565332e+01 4.978178e+01 5.938171e+01 5.182314e+01 4.344451e-01 1.447040e+00 1.738478e+00 1.674736e+00 2.142440e+00 2.004326e+00 2.227865e+00 3.264248e+00 2.556233e+00 2.517516e+00 2.397480e+00 2.083955e+00 7.955937e-01
<GCONST> 9.653632e+01
<STATE> 4
<MEAN> 25
 7.022509e+00 3.380575e+00 2.019488e+00 5.806360e-01 -5.362875e+00 -4.376487e+00 -3.513700e+00 -9.518295e+00 -6.424261e+00 -1.462240e+00 -4.177781e+00 -3.297062e+00 -9.927470e-01 -1.016097e-01 -2.577922e-01 -4.291164e-01 9.896226e-01 2.832575e-01 1.149364e-01 1.872188e+00 6.109498e-01 -3.884169e-01 5.014057e-01 2.697968e-01 7.398281e-02
<VARIANCE> 25
 1.347830e+01 2.776552e+01 2.807664e+01 3.813629e+01 4.920367e+01 4.551485e+01 5.446880e+01 6.375735e+01 5.657435e+01 4.949142e+01 5.701674e+01 5.177065e+01 1.208588e+00 2.856863e+00 3.055650e+00 3.618390e+00 3.825808e+00 3.953809e+00 4.597206e+00 5.317066e+00 4.555573e+00 4.233204e+00 4.012972e+00 3.505469e+00 2.413502e+00
<GCONST> 1.066814e+02
<TRANSP> 5
 0.000000e+00 1.000000e+00 0.000000e+00 0.000000e+00 0.000000e+00
 0.000000e+00 4.651977e-01 5.348023e-01 0.000000e+00 0.000000e+00
 0.000000e+00 0.000000e+00 5.763400e-01 4.236600e-01 0.000000e+00
 0.000000e+00 0.000000e+00 0.000000e+00 4.159954e-01 5.840046e-01
 0.000000e+00 0.000000e+00 0.000000e+00 0.000000e+00 0.000000e+00
<ENDHMM>
~h "OE"
<BEGINHMM>
<NUMSTATES> 5
<STATE> 2
<MEAN> 25
 4.301253e+00 -3.548196e+00 7.743996e-01 -5.138888e-01 -6.048377e+00 -8.701283e+00 -8.907506e+00 3.823752e-01 -1.841780e+00 -1.580456e+00 -1.211352e+00 -1.456322e+00 1.734555e+00 -1.609089e+00 -9.134822e-01 -1.420156e+00 -1.345234e+00 -8.690444e-01 -2.760063e+00 -9.062907e-02 5.764861e-01 -9.443632e-02 -5.212348e-01 -1.072615e+00 2.151581e+00
<VARIANCE> 25
 1.676558e+01 2.522261e+01 3.833391e+01 5.124835e+01 5.759447e+01 5.768196e+01 7.209534e+01 4.635093e+01 7.474047e+01 6.791985e+01 4.958054e+01 3.956809e+01 3.024275e+00 2.497065e+00 3.175175e+00 3.624976e+00 5.977880e+00 6.251513e+00 6.847991e+00 6.188722e+00 6.846728e+00 5.508117e+00 7.152439e+00 4.229322e+00 3.645198e+00
<GCONST> 1.120791e+02
<STATE> 3
<MEAN> 25
 6.810996e+00 -6.946879e+00 -2.493607e+00 -4.045090e+00 -7.228469e+00 -6.944740e+00 -1.256885e+01 6.972250e-02 2.363555e-01 6.252540e-01 -2.161439e+00 -5.219718e+00 2.334002e-01 -2.800359e-01 -4.062149e-01 -2.174717e-01 1.283183e-01 5.067026e-01 -3.488348e-01 3.278342e-02 4.541535e-01 1.802796e-01 -5.905946e-02 -4.100939e-01 2.371170e-01
<VARIANCE> 25
 9.436664e+00 1.646133e+01 3.145141e+01 3.408750e+01 3.398737e+01 4.684956e+01 4.764882e+01 4.003695e+01 4.344579e+01 5.355688e+01 7.068217e+01 3.768901e+01 3.493366e-01 7.655923e-01 1.701540e+00 1.398794e+00 1.723540e+00 1.907819e+00 1.669444e+00 1.983279e+00 2.433357e+00 2.675352e+00 2.122499e+00 1.779844e+00 4.746328e-01
<GCONST> 9.292949e+01
<STATE> 4
<MEAN> 25
 6.442380e+00 -6.011868e+00 -2.221847e-02 -2.424983e+00 -7.690076e+00 -7.614465e+00 -1.287962e+01 -5.381048e-01 -7.900520e-01 -2.241357e+00 -2.824529e+00 -4.000176e+00 -2.799938e-01 8.182005e-01 1.086257e+00 7.391630e-01 1.699195e-02 -1.335923e-01 6.566744e-01 -3.898948e-01 -7.041644e-01 -7.420667e-01 -2.172868e-01 6.612400e-01 -6.543171e-01
<VARIANCE> 25
 9.284927e+00 1.811078e+01 3.509402e+01 3.594944e+01 3.569051e+01 4.704857e+01 5.014618e+01 4.324445e+01 4.318221e+01 4.758416e+01 6.241692e+01 3.937655e+01 7.288060e-01 1.605767e+00 1.747136e+00 1.521606e+00 2.798524e+00 2.480493e+00 2.751919e+00 2.670508e+00 3.099818e+00 2.835860e+00 2.967311e+00 2.179188e+00 8.570457e-01
<GCONST> 9.770792e+01
<TRANSP> 5
 0.000000e+00 1.000000e+00 0.000000e+00 0.000000e+00 0.000000e+00
 0.000000e+00 5.429940e-01 4.570060e-01 0.000000e+00 0.000000e+00
 0.000000e+00 0.000000e+00 7.332935e-01 2.667064e-01 0.000000e+00
 0.000000e+00 0.000000e+00 0.000000e+00 6.449507e-01 3.550493e-01
 0.000000e+00 0.000000e+00 0.000000e+00 0.000000e+00 0.000000e+00
<ENDHMM>
~h "RH"
<BEGINHMM>
<NUMSTATES> 5
<STATE> 2
<MEAN> 25
 -5.010131e+00 -6.640432e-01 5.165109e+00 2.029764e+00 -2.199159e+00 -5.947441e-01 6.862644e-01 1.341296e+00 3.805205e+00 -8.298288e-01 -2.129124e-01 6.257164e-01 -3.086799e+00 3.480269e-01 8.068566e-01 4.812502e-01 1.422310e+00 1.317682e+00 1.575343e+00 8.791585e-01 1.206867e+00 6.200576e-01 1.051095e+00 8.527797e-01 -7.199522e-01
<VARIANCE> 25
 8.430499e+01 3.930304e+01 4.528695e+01 4.502358e+01 5.613346e+01 5.668322e+01 6.078364e+01 4.968090e+01 5.397624e+01 4.673611e+01 4.818495e+01 3.356711e+01 5.784944e+00 3.634311e+00 4.190878e+00 3.120055e+00 4.260826e+00 4.652952e+00 4.349032e+00 4.266306e+00 4.052463e+00 3.901277e+00 3.701795e+00 2.942372e+00 1.681359e+00
<GCONST> 1.101650e+02
<STATE> 3
<MEAN> 25
 -1.190491e+01 -2.363674e+00 6.309921e+00 2.551912e+00 1.726476e+00 4.489986e+00 4.833006e+00 4.784212e+00 7.551323e+00 1.411436e+00 3.071458e+00 3.249645e+00 8.947061e-01 -4.311131e-02 -4.858662e-01 2.901067e-01 4.726362e-01 1.489646e-01 2.668838e-01 1.868029e-01 9.212159e-02 1.698112e-01 -1.227785e-03 2.113949e-01 -1.084392e+00
<VARIANCE> 25
 6.747691e+01 3.571215e+01 3.160849e+01 4.279231e+01 5.399787e+01 6.353336e+01 6.042662e+01 5.454543e+01 4.998626e+01 3.960762e+01 4.818043e+01 2.997297e+01 2.456466e+00 1.539667e+00 1.721715e+00 1.589499e+00 2.078970e+00 2.188024e+00 2.395823e+00 2.451279e+00 2.427923e+00 2.229455e+00 1.955349e+00 1.759229e+00 1.230680e+00
<GCONST> 1.008050e+02
<STATE> 4
<MEAN> 25
 -1.578273e+00 -5.963146e-01 2.473373e-01 4.172510e+00 3.864088e+00 2.872786e+00 5.034658e+00 4.090548e+00 5.156476e+00 2.561758e+00 1.415721e+00 3.546795e+00 4.268361e-01 1.194849e+00 -6.882012e-01 1.635836e-01 1.060104e+00 5.825098e-01 6.117085e-01 -1.502831e-01 -5.026175e-01 3.534667e-01 4.555754e-02 5.837874e-02 -1.287506e+00
<VARIANCE> 25
 2.876147e+01 3.503404e+01 2.870895e+01 3.067295e+01 6.142262e+01 5.294883e+01 6.249150e+01 5.084764e+01 4.929110e+01 3.898041e+01 3.754882e+01 3.028016e+01 1.945526e+00 2.675044e+00 2.255880e+00 2.111712e+00 2.872191e+00 2.767869e+00 3.036078e+00 3.124072e+00 3.076327e+00 2.827189e+00 2.502737e+00 2.122990e+00 1.881220e+00
<GCONST> 1.023893e+02
<TRANSP> 5
 0.000000e+00 1.000000e+00 0.000000e+00 0.000000e+00 0.000000e+00
 0.000000e+00 5.990773e-01 4.009227e-01 0.000000e+00 0.000000e+00
 0.000000e+00 0.000000e+00 7.357838e-01 2.642162e-01 0.000000e+00
 0.000000e+00 0.000000e+00 0.000000e+00 5.664091e-01 4.335909e-01
 0.000000e+00 0.000000e+00 0.000000e+00 0.000000e+00 0.000000e+00
<ENDHMM>
~h "RR"
<BEGINHMM>
<NUMSTATES> 5
<STATE> 2
<MEAN> 25
 6.717206e+00 -9.331352e+00 -2.106595e+00 -2.465154e+00 -8.628495e+00 -2.930362e+00 -7.382033e+00 -1.495170e-01 -7.573442e-01 -2.606906e+00 -3.879780e+00 -3.725081e+00 3.522130e-01 4.406141e-02 7.139131e-01 1.171555e+00 -7.708173e-01 -2.962760e-01 -3.527014e-01 -2.823618e-01 2.488884e-01 -1.348396e-01 3.522605e-02 5.200366e-01 -6.645231e-01
<VARIANCE> 25
 1.560725e+01 4.606250e+01 6.447200e+01 4.351454e+01 5.450835e+01 5.862654e+01 5.833801e+01 7.734477e+01 6.299784e+01 5.125188e+01 4.398190e+01 4.333053e+01 9.215350e-01 1.928597e+00 2.370286e+00 3.433694e+00 4.926476e+00 4.263404e+00 3.744137e+00 3.894914e+00 3.111435e+00 3.226805e+00 3.157357e+00 2.730552e+00 9.453076e-01
<GCONST> 1.053814e+02
<STATE> 3
<MEAN> 25
 7.237186e+00 -6.646270e+00 1.059258e+00 8.133476e-01 -1.066176e+01 -5.218218e+00 -8.421332e+00 -2.868007e+00 8.043829e-02 -2.091643e+00 -2.592177e+00 -1.761548e+00 -1.600181e-01 1.061954e+00 8.829160e-01 1.149327e+00 5.755727e-01 -6.251224e-01 2.509762e-01 -9.135521e-01 3.356224e-02 -2.972203e-01 -8.969533e-02 5.239396e-01 -1.111401e+00
<VARIANCE> 25
 1.830804e+01 3.390825e+01 5.521882e+01 4.636660e+01 5.102308e+01 4.362853e+01 4.924823e+01 6.863555e+01 5.324679e+01 4.693791e+01 3.736768e+01 3.459543e+01 1.359390e+00 3.295143e+00 3.130691e+00 3.882662e+00 5.026986e+00 5.278590e+00 4.513877e+00 5.283031e+00 4.042388e+00 3.938454e+00 3.905727e+00 3.198058e+00 1.522429e+00
<GCONST> 1.072081e+02
<STATE> 4
<MEAN> 25
 5.822537e+00 -3.260367e+00 2.640447e+00 1.929804e+00 -7.385522e+00 -6.378049e+00 -6.993040e+00 -4.374594e+00 -3.275374e-01 -2.723482e+00 -2.864611e+00 -1.561780e+00 -9.006775e-01 1.631553e+00 6.712324e-01 1.430408e-01 1.437257e+00 -3.421524e-02 6.138155e-01 -2.687019e-01 -2.501659e-01 -1.787218e-01 -1.332430e-03 -1.882773e-02 -9.804933e-01
<VARIANCE> 25
 2.256445e+01 3.562579e+01 5.017584e+01 4.589959e+01 5.713344e+01 4.307219e+01 4.399496e+01 5.318385e+01 4.538250e+01 4.623854e+01 3.666233e+01 3.289800e+01 2.985226e+00 5.292220e+00 3.335212e+00 3.740241e+00 5.678382e+00 4.207468e+00 4.923529e+00 5.462839e+00 4.403792e+00 3.744284e+00 3.581440e+00 2.859184e+00 2.530449e+00
<GCONST> 1.084951e+02
<TRANSP> 5
 0.000000e+00 1.000000e+00 0.000000e+00 0.000000e+00 0.000000e+00
 0.000000e+00 4.124821e-01 5.875178e-01 0.000000e+00 0.000000e+00
 0.000000e+00 0.000000e+00 1.961327e-01 8.038673e-01 0.000000e+00
 0.000000e+00 0.000000e+00 0.000000e+00 2.814562e-01 7.185437e-01
 0.000000e+00 0.000000e+00 0.000000e+00 0.000000e+00 0.000000e+00
<ENDHMM>
~h "SH"
<BEGINHMM>
<NUMSTATES> 5
<STATE> 2
<MEAN> 25
 -1.048836e+01 4.555917e+00 7.931820e+00 1.143416e+00 -2.991131e+00 -2.784147e+00 1.536942e-01 -1.405376e+00 -1.802487e+00 -2.932707e+00 7.790750e-01 -5.415386e-01 -5.031781e+00 4.520092e-01 3.656697e-02 3.512197e-01 1.899611e+00 2.117861e+00 2.428569e+00 1.451343e+00 1.733461e+00 1.151680e+00 1.486246e+00 5.906647e-01 2.242335e-01
<VARIANCE> 25
 6.595783e+01 2.969962e+01 3.107750e+01 3.925115e+01 4.328359e+01 4.678397e+01 4.558437e+01 4.811288e+01 4.370729e+01 3.731986e+01 3.582205e+01 2.727042e+01 2.420037e+00 4.587321e+00 3.697889e+00 3.459492e+00 4.251487e+00 3.822319e+00 3.804051e+00 4.418135e+00 3.706634e+00 3.955501e+00 4.096023e+00 3.081190e+00 1.060324e+00
<GCONST> 1.060664e+02
<STATE> 3
<MEAN> 25
 -2.203778e+01 2.140599e+00 5.465737e+00 2.046033e-01 1.600707e+00 3.789925e+00 6.717335e+00 3.724130e+00 3.742641e+00 1.793421e+00 5.339154e+00 1.796451e+00 -2.899074e-01 -3.241589e-01 -3.964249e-01 1.608342e-02 1.813522e-01 2.385127e-01 4.148352e-01 4.396436e-01 3.434376e-01 2.784301e-01 2.474988e-01 2.539145e-01 -2.253865e-01
<VARIANCE> 25
 9.775238e+00 3.221069e+01 2.405173e+01 3.117483e+01 3.589470e+01 3.421699e+01 3.024910e+01 3.256921e+01 2.750345e+01 2.971037e+01 3.048022e+01 2.026636e+01 1.982293e+00 1.302335e+00 1.121376e+00 1.323486e+00 1.849977e+00 2.017942e+00 1.729451e+00 1.758476e+00 1.776887e+00 1.737836e+00 1.568582e+00 1.367423e+00 7.210779e-01
<GCONST> 9.079322e+01
<STATE> 4
<MEAN> 25
 -1.466001e+01 1.744859e+00 3.894307e+00 2.365354e+00 1.117356e+00 1.283526e+00 5.072234e+00 3.581175e+00 2.729208e+00 5.951867e-01 3.588173e+00 2.239483e+00 4.205547e+00 3.722118e-01 -1.909678e-01 8.077751e-02 -9.533717e-01 -1.636078e+00 -1.969169e+00 -1.451082e+00 -1.345074e+00 -9.643015e-01 -1.137487e+00 -5.940334e-01 -1.030703e+00
<VARIANCE> 25
 4.554607e+01 3.566628e+01 2.773949e+01 3.540178e+01 4.682579e+01 5.122216e+01 4.120991e+01 4.598296e+01 4.110277e+01 3.535991e+01 3.723681e+01 2.343472e+01 4.477250e+00 2.823885e+00 2.703347e+00 3.224044e+00 6.840432e+00 6.402116e+00 5.718294e+00 4.914422e+00 4.370372e+00 3.738674e+00 3.359752e+00 2.937462e+00 3.780820e+00
<GCONST> 1.078427e+02
<TRANSP> 5
 0.000000e+00 1.000000e+00 0.000000e+00 0.000000e+00 0.000000e+00
 0.000000e+00 6.910840e-01 3.089161e-01 0.000000e+00 0.000000e+00
 0.000000e+00 0.000000e+00 8.260958e-01 1.739043e-01 0.000000e+00
 0.000000e+00 0.000000e+00 0.000000e+00 6.773455e-01 3.226545e-01
 0.000000e+00 0.000000e+00 0.000000e+00 0.000000e+00 0.000000e+00
<ENDHMM>
~h "UE"
<BEGINHMM>
<NUMSTATES> 5
<STATE> 2
<MEAN> 25
 1.320288e+00 3.598486e-01 6.897068e+00 3.498809e+00 -6.908094e+00 -7.940600e+00 -6.616681e+00 -3.479430e+00 -6.441795e+00 -5.439895e+00 -1.128848e+00 -6.860658e-01 1.595215e+00 -6.744737e-01 9.907060e-01 -2.853099e-01 -2.025349e+00 -1.790431e+00 -2.411037e+00 -5.889084e-01 -1.453185e+00 -1.188573e+00 -5.005928e-01 -1.521868e-01 1.344531e+00
<VARIANCE> 25
 2.725636e+01 2.734948e+01 3.079971e+01 4.819204e+01 5.596030e+01 4.861912e+01 5.233045e+01 4.340530e+01 5.305635e+01 4.868354e+01 3.863802e+01 3.276677e+01 5.989316e+00 3.621295e+00 3.348969e+00 4.083739e+00 5.993270e+00 6.423951e+00 6.829518e+00 6.918718e+00 6.657063e+00 5.313159e+00 5.707923e+00 4.525430e+00 2.671530e+00
<GCONST> 1.114995e+02
<STATE> 3
<MEAN> 25
 3.887606e+00 -2.831757e+00 8.134227e+00 2.290583e+00 -1.058665e+01 -9.303463e+00 -1.015931e+01 -2.726891e+00 -8.029709e+00 -6.757383e+00 -1.710675e+00 -9.259647e-01 4.422441e-01 -2.937689e-01 -2.681654e-03 -3.759672e-01 -4.168081e-01 9.441417e-02 -4.441962e-01 1.490098e-01 2.139629e-02 -3.610302e-02 -1.324248e-01 -4.948168e-02 1.949974e-01
<VARIANCE> 25
 1.556551e+01 2.325305e+01 2.907638e+01 5.454330e+01 3.783982e+01 3.544271e+01 4.523796e+01 4.240252e+01 6.199386e+01 5.754227e+01 4.306280e+01 3.857360e+01 2.316000e+00 2.295888e+00 2.336864e+00 2.672182e+00 4.026592e+00 3.262835e+00 3.882981e+00 3.923513e+00 3.790680e+00 3.383741e+00 3.597896e+00 2.755244e+00 1.152579e+00
<GCONST> 1.033517e+02
<STATE> 4
<MEAN> 25
 3.494046e+00 -7.735181e-01 5.634251e+00 1.767840e+00 -7.553371e+00 -7.417117e+00 -7.767425e+00 -2.232430e+00 -4.802878e+00 -4.743960e+00 -2.054851e+00 -4.296400e-01 -4.076548e-01 1.195076e+00 -6.619315e-01 2.428698e-01 1.256702e+00 8.701069e-01 1.353304e+00 -1.521847e-01 7.928891e-01 6.653627e-01 -6.118467e-02 -7.083320e-02 -1.225559e+00
<VARIANCE> 25
 1.998339e+01 3.047964e+01 4.078630e+01 5.186746e+01 5.485402e+01 4.699686e+01 5.841663e+01 4.955219e+01 7.130413e+01 5.909742e+01 5.249637e+01 5.319483e+01 2.564387e+00 2.890665e+00 2.207060e+00 2.809060e+00 4.046666e+00 3.563937e+00 4.198868e+00 4.260106e+00 4.274399e+00 4.090201e+00 3.851104e+00 3.278398e+00 2.393225e+00
<GCONST> 1.077723e+02
<TRANSP> 5
 0.000000e+00 1.000000e+00 0.000000e+00 0.000000e+00 0.000000e+00
 0.000000e+00 3.246464e-01 6.753536e-01 0.000000e+00 0.000000e+00
 0.000000e+00 0.000000e+00 4.537147e-01 5.462853e-01 0.000000e+00
 0.000000e+00 0.000000e+00 0.000000e+00 5.054107e-01 4.945893e-01
 0.000000e+00 0.000000e+00 0.000000e+00 0.000000e+00 0.000000e+00
<ENDHMM>
~h "VV"
<BEGINHMM>
<NUMSTATES> 5
<STATE> 2
<MEAN> 25
 5.475510e+00 -4.803193e-01 1.807630e-01 5.537134e-01 -2.868449e+00 -3.615159e+00 -5.344426e+00 -3.673832e+00 -3.016082e+00 -1.715549e+00 -1.066078e+00 -1.678967e+00 1.222629e+00 -4.177448e-01 1.042702e-01 -7.056270e-01 -1.269716e+00 -1.060296e+00 -1.327033e+00 -7.849894e-01 -6.560352e-01 -4.134553e-01 -1.883640e-01 -5.423092e-01 1.189349e+00
<VARIANCE> 25
 2.496870e+01 3.701568e+01 3.982589e+01 5.816132e+01 6.125186e+01 6.402567e+01 6.440060e+01 4.204746e+01 3.766844e+01 3.623899e+01 3.562769e+01 3.211819e+01 2.820454e+00 4.494562e+00 3.172315e+00 6.181920e+00 9.140322e+00 7.551460e+00 6.977412e+00 5.033902e+00 4.863962e+00 4.042764e+00 4.178821e+00 3.347925e+00 6.977449e+00
<GCONST> 1.118323e+02
<STATE> 3
<MEAN> 25
 7.537857e+00 -2.555642e+00 -4.183920e-01 -1.714011e+00 -5.375643e+00 -4.603912e+00 -7.800004e+00 -4.473206e+00 -3.595525e+00 -2.174865e+00 -7.335206e-01 -2.779964e+00 6.841387e-02 -4.555851e-01 -7.472748e-02 -5.491179e-01 -4.125655e-01 1.358284e-01 2.085839e-01 2.329130e-01 2.730681e-02 -6.292139e-02 7.912645e-02 -1.037882e-01 5.468634e-01
<VARIANCE> 25
 1.442083e+01 3.161446e+01 4.752050e+01 5.528965e+01 4.438675e+01 6.003221e+01 4.325052e+01 4.044849e+01 3.973603e+01 4.058253e+01 4.190914e+01 3.491934e+01 7.438091e-01 2.927915e+00 2.010347e+00 3.500265e+00 4.050446e+00 3.119474e+00 2.974725e+00 3.474522e+00 2.943284e+00 2.927411e+00 2.864588e+00 2.398454e+00 2.932955e+00
<GCONST> 1.027304e+02
<STATE> 4
<MEAN> 25
 7.385133e+00 -4.598200e+00 -1.873595e+00 -2.746988e+00 -5.038592e+00 -3.149886e+00 -6.314183e+00 -2.903915e+00 -3.348563e+00 -3.194838e+00 -1.627846e+00 -3.081850e+00 -2.401976e-01 -4.889751e-01 7.965985e-02 -4.843304e-01 -5.008391e-01 1.068856e-01 3.723284e-01 3.685500e-01 5.432294e-02 6.160127e-02 7.167053e-02 -2.357951e-02 6.154380e-01
<VARIANCE> 25
 1.443604e+01 5.421240e+01 5.230362e+01 6.261168e+01 5.037997e+01 6.782845e+01 4.546185e+01 4.752793e+01 4.216355e+01 4.065206e+01 4.593421e+01 3.687875e+01 4.609404e-01 1.549020e+00 1.510442e+00 2.224409e+00 2.605908e+00 2.229788e+00 2.175399e+00 2.440749e+00 2.174435e+00 2.200950e+00 2.132898e+00 1.876631e+00 1.243961e+00
<GCONST> 9.887494e+01
<TRANSP> 5
 0.000000e+00 1.000000e+00 0.000000e+00 0.000000e+00 0.000000e+00
 0.000000e+00 3.514224e-01 6.485776e-01 0.000000e+00 0.000000e+00
 0.000000e+00 0.000000e+00 1.513688e-01 8.486311e-01 0.000000e+00
 0.000000e+00 0.000000e+00 0.000000e+00 4.670942e-01 5.329058e-01
 0.000000e+00 0.000000e+00 0.000000e+00 0.000000e+00 0.000000e+00
<ENDHMM>
~h "ZH"
<BEGINHMM>
<NUMSTATES> 5
<STATE> 2
<MEAN> 25
 -8.979849e+00 1.093348e+01 -3.325064e+00 4.645598e+00 2.114307e+00 -3.977031e+00 -1.402202e+00 -2.339861e+00 9.061646e-02 -1.526589e+00 -9.449699e-01 1.662904e-01 -3.078339e+00 9.459312e-01 -4.092631e-01 1.099016e+00 1.317014e+00 1.561209e+00 2.034504e+00 1.465702e+00 9.378788e-01 7.584657e-01 1.129306e+00 6.564553e-01 -6.895493e-01
<VARIANCE> 25
 3.858525e+01 2.837117e+01 3.780849e+01 4.208986e+01 5.069376e+01 5.317521e+01 5.881085e+01 5.170417e+01 4.024245e+01 4.379042e+01 5.098949e+01 3.219969e+01 3.529164e+00 4.098110e+00 2.714002e+00 3.205303e+00 2.942475e+00 3.855811e+00 3.605616e+00 3.659030e+00 3.303850e+00 3.753582e+00 3.614537e+00 3.183528e+00 7.607449e-01
<GCONST> 1.056453e+02
<STATE> 3
<MEAN> 25
 -1.605186e+01 8.064831e+00 -4.948425e+00 6.067828e+00 6.363849e+00 3.368784e+00 6.043664e+00 4.415634e+00 5.032524e+00 2.781671e+00 3.859526e+00 3.579890e+00 5.915722e-02 -3.454413e-01 1.729411e-01 -8.093135e-02 2.333961e-01 1.404470e-01 3.412712e-01 2.990214e-01 1.825020e-01 1.552247e-01 1.512183e-01 1.121818e-01 -3.230876e-01
<VARIANCE> 25
 2.174541e+01 2.418736e+01 3.013068e+01 5.406815e+01 4.804146e+01 5.358879e+01 5.002065e+01 4.096273e+01 3.579347e+01 2.823930e+01 3.989583e+01 2.308478e+01 6.434905e-01 8.422356e-01 9.169784e-01 1.085368e+00 1.284479e+00 1.604905e+00 1.521485e+00 1.642020e+00 1.638765e+00 1.633843e+00 1.576508e+00 1.318528e+00 3.741463e-01
<GCONST> 9.058562e+01
<STATE> 4
<MEAN> 25
 -8.228228e+00 4.308875e+00 -1.856721e+00 4.399141e+00 6.853990e+00 1.915921e+00 5.238028e+00 4.114886e+00 4.317259e+00 2.918034e+00 2.925006e+00 3.236685e+00 1.873800e+00 -6.058860e-01 5.036506e-01 -1.111275e-01 5.713623e-02 3.002157e-01 1.888387e-03 -1.663528e-01 -1.254293e-01 6.867754e-02 -1.822843e-01 2.698804e-02 -1.349875e+00
<VARIANCE> 25
 3.810447e+01 4.168542e+01 2.934166e+01 3.960886e+01 5.128841e+01 5.452010e+01 6.017394e+01 5.049744e+01 4.482795e+01 3.791061e+01 4.105673e+01 2.727567e+01 2.412166e+00 2.304193e+00 2.353639e+00 2.683256e+00 3.497674e+00 4.092087e+00 3.551804e+00 3.253205e+00 3.012902e+00 2.699032e+00 2.402462e+00 2.129177e+00 2.386168e+00
<GCONST> 1.040539e+02
<TRANSP> 5
 0.000000e+00 1.000000e+00 0.000000e+00 0.000000e+00 0.000000e+00
 0.000000e+00 7.166899e-01 2.833101e-01 0.000000e+00 0.000000e+00
 0.000000e+00 0.000000e+00 7.805478e-01 2.194522e-01 0.000000e+00
 0.000000e+00 0.000000e+00 0.000000e+00 7.276756e-01 2.723244e-01
 0.000000e+00 0.000000e+00 0.000000e+00 0.000000e+00 0.000000e+00
<ENDHMM>
~h "sp"
<BEGINHMM>
<NUMSTATES> 3
<STATE> 2
~s "silst"
<TRANSP> 3
 0.000000e+00 1.932197e-01 8.067803e-01
 0.000000e+00 9.025480e-01 9.745199e-02
 0.000000e+00 0.000000e+00 0.000000e+00
<ENDHMM>
~h "sil"
<BEGINHMM>
<NUMSTATES> 5
<STATE> 2
<MEAN> 25
 -3.472166e+00 2.571223e+00 -6.287466e-01 6.349005e+00 1.066995e+01 8.345954e+00 1.075819e+01 5.877875e+00 4.683691e+00 3.900830e+00 2.588592e+00 4.523467e+00 -2.573602e-02 -2.112149e-03 5.603848e-03 2.334382e-02 4.035916e-02 4.721269e-02 3.735701e-02 1.203793e-02 -8.334180e-03 -1.896041e-03 -6.025587e-03 -3.834935e-03 -2.107529e-02
<VARIANCE> 25
 4.759511e+00 7.889780e+00 1.032209e+01 1.473515e+01 1.478188e+01 1.734055e+01 1.860908e+01 1.655585e+01 1.892584e+01 1.590470e+01 1.758466e+01 1.503084e+01 9.607719e-02 2.071117e-01 3.284550e-01 4.849238e-01 6.822318e-01 8.414376e-01 9.364510e-01 1.059657e+00 1.095004e+00 1.089255e+00 1.045415e+00 9.701778e-01 5.312834e-02
<GCONST> 6.809666e+01
<STATE> 3
~s "silst"
<STATE> 4
<MEAN> 25
 -4.142339e+00 -7.695228e-01 -6.316505e-01 4.699712e+00 7.788414e+00 4.396528e+00 7.788448e+00 6.235548e+00 4.781755e+00 3.511444e+00 4.119743e+00 4.607066e+00 2.065000e-02 1.139974e-01 9.317279e-03 1.062591e-03 -4.194029e-03 3.021851e-02 -9.893043e-03 -6.337108e-02 -3.569505e-02 -7.926061e-03 -5.212275e-02 -3.304827e-02 -3.908429e-02
<VARIANCE> 25
 1.372149e+01 3.027472e+01 2.421370e+01 2.277020e+01 2.933883e+01 3.704780e+01 3.149718e+01 2.881498e+01 2.811998e+01 2.327522e+01 3.044196e+01 2.094351e+01 9.033594e-01 1.474666e+00 1.212887e+00 1.493203e+00 2.008834e+00 2.357783e+00 2.274502e+00 2.123490e+00 2.083810e+00 1.918304e+00 1.840691e+00 1.629177e+00 1.317889e+00
<GCONST> 9.180272e+01
<TRANSP> 5
 0.000000e+00 1.000000e+00 0.000000e+00 0.000000e+00 0.000000e+00
 0.000000e+00 9.185781e-01 3.028053e-02 5.114140e-02 0.000000e+00
 0.000000e+00 0.000000e+00 9.110454e-01 8.895464e-02 0.000000e+00
 0.000000e+00 7.740211e-02 0.000000e+00 8.425683e-01 8.002965e-02
 0.000000e+00 0.000000e+00 0.000000e+00 0.000000e+00 0.000000e+00
<ENDHMM>
