~o
<STREAMINFO> 1 25
<VECSIZE> 25<NULLD><MFCC_D_N_Z_0><DIAGC>
~h "DUMMY"
<BEGINHMM>
<NUMSTATES> 5
<STATE> 2
<NUMMIXES> 9
<MIXTURE> 4 7.665960e-02
<MEAN> 25
 -5.363313e+00 -2.533272e+00 8.341433e+00 -3.971705e+00 -7.054626e-01 -1.856182e+00 4.004165e+00 -3.952725e+00 2.616044e+00 2.733068e-01 3.731750e-02 -1.925165e+00 2.614068e-02 -4.003389e-02 -4.179928e-01 8.682657e-02 -1.951920e-01 2.626969e-01 -1.354438e-01 8.119072e-03 8.377016e-02 -4.697162e-01 -1.176314e-01 -7.676125e-02 1.170844e-01
<VARIANCE> 25
 1.080297e+01 1.917092e+01 2.400472e+01 3.348022e+01 2.121763e+01 3.568213e+01 3.347346e+01 2.510926e+01 2.133894e+01 3.967194e+01 2.490263e+01 2.473857e+01 6.099454e-01 9.078847e-01 7.256231e-01 9.510888e-01 1.031367e+00 1.562577e+00 1.933902e+00 1.131275e+00 1.119950e+00 1.672296e+00 1.637798e+00 1.094489e+00 4.297838e-01
<GCONST> 8.516218e+01
<MIXTURE> 6 9.661123e-03
<MEAN> 25
 6.650529e+00 -1.866710e-01 -2.589492e+00 1.636132e+00 2.932066e+00 3.183275e+00 -5.812054e+00 8.745374e-02 -2.148176e+00 -2.220560e+00 -7.668709e-01 -4.277550e-02 -1.046914e-02 1.440277e-02 2.914309e-02 -9.324947e-03 -1.317448e-02 3.515819e-02 2.031662e-02 -2.124482e-02 -2.140472e-02 -1.871426e-02 -1.964408e-02 -1.376255e-02 -2.733891e-02
<VARIANCE> 25
 4.214914e+00 1.414659e+01 9.372572e+00 4.665496e+01 5.167208e+00 4.064723e+01 1.308537e+01 1.840639e+01 7.387486e+00 1.102766e+01 1.026461e+01 5.891891e+00 1.577158e-02 4.868301e-02 8.886742e-02 1.394888e-01 1.408931e-01 1.829651e-01 2.632497e-01 2.137781e-01 1.940438e-01 1.837201e-01 2.802933e-01 1.580060e-01 1.136472e-02
<GCONST> 4.642319e+01
<MIXTURE> 7 4.814214e-01
<MEAN> 25
 -2.361090e-01 3.351889e+00 -6.705521e-01 1.621079e+00 -2.414610e+00 1.430387e+00 -4.261904e-01 1.817740e+00 -1.022864e+00 1.202281e+00 2.187279e-01 -1.223869e+00 -1.376682e-01 -9.743459e-01 8.616750e-01 -1.195615e+00 1.206923e+00 -7.616008e-01 4.595913e-01 -7.708186e-01 4.179398e-01 -6.000502e-01 2.818790e-01 1.245068e-02 1.341597e+00
<VARIANCE> 25
 2.102744e+01 3.147896e+01 3.151810e+01 5.314305e+01 5.572020e+01 4.759534e+01 4.682936e+01 4.087097e+01 3.295906e+01 3.120677e+01 3.325765e+01 2.762704e+01 2.426412e+00 3.608059e+00 3.124470e+00 4.360580e+00 5.818012e+00 4.942978e+00 6.225300e+00 5.945479e+00 3.355622e+00 4.004064e+00 3.988990e+00 4.318425e+00 3.563533e+00
<GCONST> 1.075314e+02
<MIXTURE> 9 4.322579e-01
<MEAN> 25
 2.630456e+00 1.758633e-01 1.743432e+00 -5.438442e+00 2.812049e+00 -5.832613e+00 1.859653e+00 -3.046363e-01 3.934576e+00 -3.451452e+00 -1.834358e+00 2.607038e+00 -3.444418e-02 6.188392e-02 5.994790e-02 1.943637e-01 -8.498575e-02 1.018470e-01 1.088176e-01 7.552758e-02 -5.477507e-02 5.176835e-02 3.615824e-02 -3.210343e-02 -1.262709e-01
<VARIANCE> 25
 5.950156e+00 1.043027e+01 2.010164e+01 2.286809e+01 3.048821e+01 2.821049e+01 2.824233e+01 4.065148e+01 3.560276e+01 1.737973e+01 1.983151e+01 2.108929e+01 1.599059e-01 3.569445e-01 4.526088e-01 5.612751e-01 6.519576e-01 9.909992e-01 1.627018e+00 1.600869e+00 1.123119e+00 1.560296e+00 1.345471e+00 1.219224e+00 1.124436e-01
<GCONST> 7.762977e+01
<STATE> 3
<NUMMIXES> 9
<MIXTURE> 1 2.843710e-02
<MEAN> 25
 3.735087e+00 1.679025e+00 3.559918e+00 -2.055697e+00 -1.631291e+00 7.179729e+00 -1.043655e+00 -7.487182e+00 -4.442186e+00 -9.515529e+00 -9.689063e+00 -2.973545e+00 9.512455e-03 4.460136e-02 -3.196893e-02 8.812297e-03 7.501042e-03 1.689728e-02 -7.650774e-03 -4.869391e-02 -5.791544e-02 -1.139566e-02 1.284335e-02 1.307026e-02 1.597516e-03
<VARIANCE> 25
 2.807045e+00 1.293330e+01 6.847388e+00 2.602560e+01 2.170995e+01 1.740967e+01 2.479771e+01 1.761151e+01 1.889509e+01 2.379915e+01 1.682764e+01 1.096443e+01 3.942670e-02 7.678106e-02 1.116966e-01 1.623506e-01 2.452707e-01 2.462795e-01 2.474139e-01 2.616280e-01 3.020066e-01 2.406088e-01 2.221086e-01 2.024155e-01 2.191196e-02
<GCONST> 5.316321e+01
<MIXTURE> 5 3.347065e-02
<MEAN> 25
 -1.322806e+01 -4.717732e+00 -6.870537e+00 2.455877e+00 7.731637e+00 4.585195e+00 2.607419e+00 5.202068e-01 9.372017e-01 5.634794e+00 5.791296e+00 4.225844e+00 -1.213489e-01 2.536501e-02 -4.220354e-02 3.442388e-02 1.425548e-01 2.411417e-02 6.281564e-02 6.873719e-02 -8.172563e-03 3.028631e-02 -9.790248e-03 9.044424e-03 -1.061748e-01
<VARIANCE> 25
 4.101133e+00 2.270955e+01 8.086743e+00 1.386671e+01 2.860165e+01 1.440429e+01 2.710425e+01 2.488994e+01 1.995535e+01 1.798060e+01 1.427861e+01 1.585387e+01 7.941295e-02 5.498788e-01 2.722425e-01 3.886376e-01 5.858889e-01 6.844857e-01 7.916230e-01 8.224558e-01 8.652075e-01 8.191363e-01 7.808389e-01 7.911252e-01 9.722588e-02
<GCONST> 6.916394e+01
<MIXTURE> 6 4.406637e-01
<MEAN> 25
 -4.768055e-01 -5.239336e-02 2.269884e+00 -1.929490e-01 2.183654e+00 -4.031367e-01 1.265610e+00 -1.061926e+00 1.023089e+00 -1.662318e+00 1.406442e+00 -1.498388e+00 1.347702e-01 -1.075816e+00 8.248700e-02 -6.773230e-01 3.952019e-01 -8.570027e-01 -2.096983e-01 -7.118070e-01 4.483600e-01 -1.126320e-01 -1.448185e-01 4.037234e-01 9.761311e-01
<VARIANCE> 25
 6.479811e+00 1.606020e+01 1.465896e+01 2.216942e+01 2.172337e+01 1.811371e+01 2.656630e+01 1.761441e+01 1.918705e+01 2.393798e+01 2.230848e+01 2.129583e+01 1.478465e+00 1.234143e+00 2.142638e+00 2.657953e+00 3.082380e+00 2.039886e+00 3.565258e+00 2.506347e+00 3.028047e+00 3.503273e+00 3.696948e+00 3.416413e+00 8.093715e-01
<GCONST> 9.184818e+01
<MIXTURE> 7 4.974285e-01
<MEAN> 25
 1.461405e+00 6.259958e-01 2.464317e-01 -5.765642e-01 -6.806725e-01 -1.194211e+00 -7.805988e-02 1.698466e+00 -1.562890e-01 -5.404370e-01 -1.628368e+00 1.900410e+00 -1.036936e-01 2.281880e-01 1.696260e-02 5.903503e-01 -2.699658e-01 6.022767e-01 -1.787702e-02 1.599862e-01 -1.730070e-01 2.372408e-01 1.162731e-01 -1.784946e-01 -3.117367e-01
<VARIANCE> 25
 5.861586e+00 1.827682e+01 6.879668e+00 1.342736e+01 2.151423e+01 1.703734e+01 1.826227e+01 2.478456e+01 2.171754e+01 1.682300e+01 1.564814e+01 2.018492e+01 2.927259e-01 6.008152e-01 7.146090e-01 1.216975e+00 1.205845e+00 1.828102e+00 2.082778e+00 2.968099e+00 2.433401e+00 2.532041e+00 2.382656e+00 2.709657e+00 3.768931e-01
<GCONST> 8.226418e+01
<STATE> 4
<NUMMIXES> 9
<MIXTURE> 3 1.324792e-02
<MEAN> 25
 -1.232608e+00 1.395067e+00 7.830434e+00 7.870334e-01 -2.993789e+00 -9.106632e-01 7.215161e-01 -5.287050e+00 4.405413e+00 -3.972171e+00 -3.322132e+00 -5.237714e+00 3.564982e-02 -5.069287e-02 -1.475451e-01 -2.774760e-02 8.247830e-04 2.544091e-01 9.750932e-02 -1.557047e-02 -4.557269e-02 2.200774e-01 -1.481570e-02 -3.151362e-02 -1.437404e-01
<VARIANCE> 25
 2.572880e+00 3.122124e+01 5.946733e+00 1.968482e+01 1.671727e+01 2.320341e+01 1.665756e+01 1.011818e+01 1.087696e+01 3.774200e+01 7.756955e+00 1.023759e+01 4.381458e-02 1.202131e-01 2.285687e-01 4.084730e-01 3.648998e-01 2.989451e-01 6.188027e-01 5.429947e-01 5.416432e-01 3.466884e-01 5.333188e-01 1.055004e+00 2.349058e-02
<GCONST> 5.965323e+01
<MIXTURE> 7 5.970489e-01
<MEAN> 25
 -5.046298e-01 -1.475677e+00 1.901989e-02 -7.269271e-02 1.065895e+00 -1.715710e-01 7.657871e-02 -5.604002e-01 -4.802671e-01 3.735595e-01 3.958584e-01 -1.433499e-01 -3.677923e-02 -5.726510e-02 -2.992740e-02 -3.568578e-02 9.785379e-03 -1.916172e-02 -3.130729e-03 -2.101804e-02 3.198799e-02 -5.820198e-02 9.573997e-03 -3.671003e-02 1.853328e-02
<VARIANCE> 25
 4.154383e+00 1.094164e+01 1.017277e+01 1.081044e+01 1.510317e+01 1.321439e+01 1.285570e+01 1.734515e+01 1.564641e+01 1.507587e+01 1.420883e+01 1.357501e+01 1.251689e-01 3.422715e-01 4.187721e-01 6.345322e-01 8.237320e-01 8.422069e-01 1.089916e+00 1.153525e+00 1.254782e+00 1.335927e+00 1.232832e+00 1.067374e+00 8.099478e-02
<GCONST> 6.955811e+01
<MIXTURE> 8 1.077730e-02
<MEAN> 25
 -5.266208e+00 6.104153e+00 -9.016034e+00 8.287840e+00 -8.338648e-01 7.664824e+00 -1.158068e+00 8.825018e+00 -2.354774e+00 6.578692e+00 4.880829e+00 6.964692e-01 -4.960253e-02 2.617607e-01 -1.586316e-02 3.638143e-02 -1.609537e-01 -1.308795e-01 -8.448453e-02 -6.452647e-02 4.810450e-02 6.898508e-02 2.316257e-01 1.112092e-01 -2.144815e-01
<VARIANCE> 25
 2.287782e+01 1.371099e+01 1.965500e+01 2.154032e+01 3.950224e+01 3.088291e+01 1.773948e+01 6.924231e+00 1.635451e+01 1.149530e+01 9.121972e+00 8.764595e+00 7.871952e-02 3.160504e-01 5.474244e-01 4.863805e-01 5.525551e-01 7.928854e-01 7.525454e-01 1.213448e+00 9.799005e-01 6.020628e-01 4.087160e-01 6.015131e-01 1.070890e-01
<GCONST> 6.918083e+01
<MIXTURE> 9 3.789259e-01
<MEAN> 25
 1.273647e-01 9.631883e-01 -1.705885e+00 1.530278e+00 -2.045370e+00 2.082734e+00 -1.176170e+00 3.630482e-01 -7.055820e-01 8.218573e-01 1.249242e-02 -9.120443e-02 2.915415e-01 2.631658e-01 -3.390705e-01 5.216825e-02 -2.079909e-01 1.756493e-01 -2.645425e-01 1.232099e-01 3.498985e-02 8.094914e-02 -6.990602e-02 1.283848e-01 -3.986516e-02
<VARIANCE> 25
 1.435174e+01 2.177158e+01 2.224423e+01 3.320251e+01 3.638637e+01 3.285168e+01 3.136857e+01 2.721824e+01 2.966661e+01 2.303703e+01 2.260773e+01 2.194391e+01 1.143975e+00 1.179699e+00 1.759948e+00 2.233800e+00 2.518454e+00 2.745034e+00 2.643581e+00 3.076350e+00 2.789038e+00 2.576135e+00 2.367926e+00 2.244286e+00 6.104010e-01
<GCONST> 9.371274e+01
<TRANSP> 5
 0.000000e+00 1.000000e+00 0.000000e+00 0.000000e+00 0.000000e+00
 0.000000e+00 6.011032e-01 3.988968e-01 0.000000e+00 0.000000e+00
 0.000000e+00 0.000000e+00 5.293658e-01 4.706342e-01 0.000000e+00
 0.000000e+00 0.000000e+00 0.000000e+00 6.873627e-01 3.126374e-01
 0.000000e+00 0.000000e+00 0.000000e+00 0.000000e+00 0.000000e+00
<ENDHMM>
