~o
<STREAMINFO> 1 25
<VECSIZE> 25<NULLD><MFCC_D_N_Z_0><DIAGC>
~h "NOISE"
<BEGINHMM>
<NUMSTATES> 3
<STATE> 2
<NUMMIXES> 49
<MIXTURE> 1 3.281830e-03
<MEAN> 25
 4.461528e+00 3.372036e+00 8.123456e+00 1.063876e+01 7.981275e+00 2.816188e-01 8.005538e+00 1.013331e+01 1.550804e+01 -6.898426e+00 -2.468796e+01 4.047156e+00 1.739167e-01 1.457479e-01 3.198893e-02 5.829676e-02 -5.757460e-02 2.781768e-01 -1.207752e-01 2.761518e-01 7.222340e-02 2.879594e-01 -8.000195e-03 6.012600e-02 -2.632412e-01
<VARIANCE> 25
 1.217049e+01 8.627618e+00 2.556073e+00 8.467294e+00 1.113266e+01 1.275131e+01 2.509413e+01 2.336492e+01 2.792885e+01 2.465276e+01 1.274014e+01 8.555407e+00 7.808145e-02 1.222601e-01 3.404785e-01 3.003052e-01 7.147745e-01 6.736910e-01 9.466331e-01 7.311494e-01 8.185489e-01 6.546960e-01 1.062117e+00 4.976498e-01 3.829711e-02
<GCONST> 6.367633e+01
<MIXTURE> 2 2.167981e-02
<MEAN> 25
 -3.131336e-02 1.214677e+00 1.645474e+00 3.033215e+00 4.310961e+00 2.078023e+00 -5.824371e+00 -4.622210e+00 3.136200e+00 7.336459e+00 7.214998e+00 5.398514e+00 2.402182e-02 -8.194798e-03 7.421312e-02 2.113050e-01 4.461906e-02 1.215172e-02 3.405336e-01 2.962079e-01 9.859786e-02 -2.968933e-01 -1.418346e-01 -7.949187e-03 -9.969459e-02
<VARIANCE> 25
 3.092695e+00 5.690666e+00 1.089738e+01 1.095706e+01 1.175770e+01 1.702156e+01 2.511455e+01 2.112461e+01 3.936294e+01 3.042776e+01 2.529930e+01 2.189336e+01 2.837831e-01 4.227249e-01 4.859495e-01 9.298801e-01 8.964577e-01 1.769266e+00 2.030924e+00 1.810181e+00 2.188575e+00 2.221616e+00 2.496821e+00 1.590385e+00 1.720636e-01
<GCONST> 7.862415e+01
<MIXTURE> 3 1.482830e-02
<MEAN> 25
 -4.248023e-01 1.368201e+00 2.891739e+00 2.489634e+00 4.160592e+00 5.086385e+00 4.525993e+00 7.279110e-01 1.770156e+00 1.468742e+00 -1.242269e+00 5.452304e-01 -6.884097e-02 2.042236e-01 7.337037e-01 4.867272e-01 8.926182e-01 4.570635e-01 4.376442e-01 2.408397e-01 1.702908e-01 6.106854e-01 3.124173e-01 2.796260e-01 1.181592e+00
<VARIANCE> 25
 1.418490e+01 1.306488e+01 1.714549e+01 1.857555e+01 1.704489e+01 2.094193e+01 3.200627e+01 2.857578e+01 3.363700e+01 3.201407e+01 3.865637e+01 2.810645e+01 1.299077e+00 1.826024e+00 2.258216e+00 2.789195e+00 2.694528e+00 3.378413e+00 2.760173e+00 3.880570e+00 5.598883e+00 3.190175e+00 4.314750e+00 3.491122e+00 1.126504e+00
<GCONST> 9.659927e+01
<MIXTURE> 4 1.102864e-02
<MEAN> 25
 1.479898e+00 -3.191988e+00 -2.224969e+00 9.672134e-01 2.161538e+00 8.049889e+00 1.450448e+01 6.593743e+00 -4.471869e+00 2.543296e+00 6.507887e+00 -3.113052e+00 -4.000739e-02 -1.621586e-02 -1.227082e-01 -8.394032e-02 -1.255029e-01 -1.320825e-01 9.200986e-02 1.076594e-01 -4.703019e-02 9.421147e-02 1.441799e-01 1.049492e-01 -3.845635e-03
<VARIANCE> 25
 4.328215e+00 3.068290e+00 1.454829e+01 8.995268e+00 1.212850e+01 1.919291e+01 1.676453e+01 1.976908e+01 5.704195e+01 8.346316e+00 2.176546e+01 2.136171e+01 6.067882e-02 1.278167e-01 2.166799e-01 2.467952e-01 4.500589e-01 6.589407e-01 6.816384e-01 7.308730e-01 1.020032e+00 5.217637e-01 7.160957e-01 5.568023e-01 6.079886e-02
<GCONST> 6.291788e+01
<MIXTURE> 5 2.975390e-02
<MEAN> 25
 2.745938e+00 1.131384e+00 4.100266e+00 6.688797e+00 6.212938e+00 4.108989e+00 -4.724672e-01 -1.087854e+00 -1.638336e-02 9.994903e-02 -7.290949e-01 2.606915e-01 2.881604e-02 -5.063790e-02 -1.347029e-01 -7.045227e-02 -2.640431e-02 -9.461257e-04 3.227052e-03 -3.248793e-02 -4.289175e-02 -1.301866e-01 -6.317849e-02 7.332335e-02 -1.031285e-01
<VARIANCE> 25
 9.156796e+00 4.376595e+00 8.053332e+00 7.653245e+00 1.070282e+01 1.292673e+01 1.647321e+01 1.809395e+01 2.974581e+01 1.849388e+01 1.433741e+01 2.761906e+01 1.519066e-01 3.292901e-01 4.192117e-01 6.541600e-01 1.034233e+00 1.363480e+00 1.180062e+00 1.144109e+00 1.671204e+00 1.399788e+00 1.165339e+00 1.417922e+00 8.442151e-02
<GCONST> 7.191248e+01
<MIXTURE> 6 1.821254e-02
<MEAN> 25
 -7.470942e-01 3.095271e+00 5.891551e+00 5.474746e+00 4.349780e+00 4.839583e+00 3.994092e+00 3.514735e+00 2.243984e+00 -1.680769e+00 -2.586980e+00 -9.576121e-01 2.524410e-01 -1.704931e-01 -2.070407e-01 1.765480e-01 4.135693e-01 2.549317e-01 -5.909939e-02 -9.476380e-02 -1.461257e-01 1.314893e-01 3.721721e-01 2.481423e-01 1.154217e-01
<VARIANCE> 25
 5.103139e+00 7.459473e+00 8.647943e+00 7.587462e+00 1.113358e+01 1.352206e+01 1.977066e+01 2.820062e+01 2.207125e+01 3.349492e+01 1.647646e+01 4.230101e+01 3.978633e-01 5.112293e-01 8.379489e-01 1.018387e+00 8.658220e-01 1.383526e+00 1.701398e+00 2.203531e+00 2.029507e+00 2.098920e+00 1.694374e+00 1.960540e+00 1.814092e-01
<GCONST> 7.895399e+01
<MIXTURE> 7 1.873410e-02
<MEAN> 25
 2.148903e+00 1.778134e+00 1.353560e+00 1.469224e+00 2.066725e+00 2.774822e+00 4.346746e+00 7.493655e+00 7.519516e+00 4.806239e+00 3.901464e+00 1.039739e+00 2.561808e-02 -3.835656e-02 -1.049487e-01 -5.084243e-02 -1.129864e-01 -9.810923e-02 9.063487e-02 2.660602e-01 2.794021e-01 1.551480e-01 1.575236e-01 1.492141e-01 -1.492010e-01
<VARIANCE> 25
 6.402864e+00 7.616310e+00 7.207855e+00 1.166712e+01 1.005677e+01 1.172639e+01 1.433358e+01 2.119504e+01 1.465183e+01 1.369994e+01 2.106540e+01 4.335680e+01 1.806176e-01 2.838770e-01 3.799461e-01 6.065310e-01 6.754985e-01 8.757994e-01 1.047731e+00 1.642880e+00 1.671378e+00 1.514386e+00 1.587897e+00 1.075167e+00 7.304026e-02
<GCONST> 7.129807e+01
<MIXTURE> 8 1.156479e-02
<MEAN> 25
 -3.483360e+00 1.608284e+00 -2.425905e+00 -6.156608e+00 -2.372724e+00 4.002653e+00 3.230578e+00 -4.694438e+00 -2.466515e+00 1.235646e+00 9.241333e+00 1.565844e+01 5.400705e-05 -4.255241e-02 6.714350e-02 5.170467e-02 3.604202e-02 -8.165265e-02 -7.340228e-02 -1.098187e-01 3.532823e-02 2.739606e-01 1.487251e-01 1.541274e-01 3.053767e-02
<VARIANCE> 25
 2.154476e+00 2.472769e+00 4.994475e+00 7.530347e+00 1.761360e+01 1.165701e+01 1.061540e+01 1.875415e+01 2.454440e+01 2.901824e+01 2.691931e+01 2.012352e+01 9.361532e-02 2.837281e-01 5.214782e-01 6.032832e-01 1.137491e+00 9.076499e-01 8.939975e-01 1.351601e+00 1.244951e+00 1.681586e+00 2.923071e+00 1.611954e+00 1.101067e-01
<GCONST> 7.024755e+01
<MIXTURE> 9 2.906161e-02
<MEAN> 25
 -3.155869e-01 1.075912e+00 1.735869e+00 2.285322e+00 2.243523e+00 1.806559e+00 -3.907623e-01 -1.460155e+00 1.020964e-01 1.416054e-01 -8.036022e-01 1.506710e-01 -8.967977e-01 -7.365756e-02 9.162713e-02 -2.303597e-01 1.646860e-01 2.516245e-01 1.453263e-01 -4.231991e-01 5.845528e-01 2.163030e-01 -4.497936e-01 1.942354e-01 7.728372e-01
<VARIANCE> 25
 5.839343e+00 6.563471e+00 7.664403e+00 6.886003e+00 1.049609e+01 1.756089e+01 2.062968e+01 2.365360e+01 2.697375e+01 2.229025e+01 1.722292e+01 2.769539e+01 2.283356e-01 6.220472e-01 8.741673e-01 8.901945e-01 1.302019e+00 2.001211e+00 2.043645e+00 2.216161e+00 2.548816e+00 2.761183e+00 2.055975e+00 1.867990e+00 2.216697e-01
<GCONST> 7.958861e+01
<MIXTURE> 10 1.972549e-02
<MEAN> 25
 1.844204e+00 4.673339e-01 4.683863e-01 1.807342e+00 3.592215e-01 -2.329555e+00 -5.687088e+00 -3.772340e+00 1.551969e+00 5.227771e+00 3.849381e+00 1.953735e+00 -1.684872e-03 2.047196e-01 5.836157e-02 1.479520e-01 -2.038552e-02 -9.065466e-02 -8.720867e-02 3.775154e-01 7.390442e-01 3.765586e-01 1.642218e-01 1.768133e-01 -2.282884e-01
<VARIANCE> 25
 4.301460e+00 5.102603e+00 4.848564e+00 7.940107e+00 1.053348e+01 9.283020e+00 1.072434e+01 1.293322e+01 1.648020e+01 1.803933e+01 1.014594e+01 1.267299e+01 1.973609e-01 3.822965e-01 4.356976e-01 5.054774e-01 6.899312e-01 1.055695e+00 1.040307e+00 1.107367e+00 1.560208e+00 1.463724e+00 1.686149e+00 1.227981e+00 7.909863e-02
<GCONST> 6.749631e+01
<MIXTURE> 11 1.743888e-02
<MEAN> 25
 -8.132757e-01 1.780014e+00 4.006224e+00 2.604212e+00 1.560571e+00 -1.047179e-01 -5.464396e-01 1.943994e+00 -2.771029e+00 -7.193510e+00 -8.582997e+00 -1.016044e+01 -7.350494e-03 7.960938e-02 1.670415e-02 9.532797e-02 -5.488785e-02 1.468675e-01 7.474145e-02 3.997560e-03 1.078815e-01 4.208495e-02 -1.273229e-01 -2.314169e-01 -1.662887e-01
<VARIANCE> 25
 2.153453e+00 5.799827e+00 7.351677e+00 1.042872e+01 8.534005e+00 1.204436e+01 2.502229e+01 2.539704e+01 2.072925e+01 2.385036e+01 1.140535e+01 2.767994e+01 1.207530e-01 2.769132e-01 3.936087e-01 5.141013e-01 7.242364e-01 1.352507e+00 1.348685e+00 1.257785e+00 1.350433e+00 1.200761e+00 1.544482e+00 1.246825e+00 4.546108e-02
<GCONST> 6.941631e+01
<MIXTURE> 12 1.568165e-02
<MEAN> 25
 6.947005e-01 2.787435e+00 2.727936e+00 1.817060e+00 2.068751e+00 6.325790e+00 5.664439e+00 3.301796e+00 -2.959625e-01 -1.517449e+00 4.583651e+00 7.819245e+00 -4.793688e-02 7.684916e-02 6.381524e-02 -1.118984e-01 -1.317283e-01 7.821701e-02 2.816071e-01 -8.249691e-03 -4.232897e-01 -4.473094e-01 -4.122162e-02 2.681639e-01 -1.707131e-01
<VARIANCE> 25
 3.703592e+00 4.750324e+00 7.154018e+00 6.763922e+00 1.094351e+01 1.179067e+01 1.828542e+01 1.243067e+01 1.666297e+01 2.888940e+01 2.938495e+01 3.863801e+01 1.260645e-01 2.509011e-01 4.855959e-01 5.993905e-01 7.055169e-01 1.075584e+00 1.056824e+00 1.351710e+00 9.615438e-01 1.683365e+00 1.738294e+00 1.647867e+00 6.992096e-02
<GCONST> 7.045779e+01
<MIXTURE> 13 1.719629e-02
<MEAN> 25
 1.409797e+00 -1.038683e+00 -2.760457e+00 -5.341200e+00 -3.976345e+00 -9.197977e-01 4.889598e+00 1.932182e+00 -2.068216e+00 -1.067346e+00 9.286681e-01 1.285600e+00 1.312915e-01 -2.907934e-02 1.260824e-02 1.616030e-01 3.042698e-01 4.219992e-01 2.054220e-01 4.779947e-02 9.488395e-02 2.806613e-01 1.894061e-01 1.892393e-01 -1.898617e-01
<VARIANCE> 25
 7.893216e+00 5.420362e+00 4.666217e+00 6.233387e+00 9.444711e+00 1.175296e+01 1.807030e+01 2.020991e+01 2.655027e+01 2.059639e+01 1.812997e+01 1.732691e+01 1.501279e-01 2.952889e-01 4.360633e-01 7.996882e-01 1.180228e+00 1.352451e+00 1.828392e+00 1.544430e+00 1.458377e+00 2.025229e+00 1.385759e+00 1.417551e+00 8.969201e-02
<GCONST> 7.242030e+01
<MIXTURE> 14 2.237559e-02
<MEAN> 25
 6.336606e-01 -3.770972e-01 -1.046299e+00 9.248337e-03 1.011972e+00 5.246830e+00 1.236112e+01 1.008603e+01 -1.712840e-03 -9.457071e-01 3.251763e+00 2.056562e+00 6.254516e-02 -1.940872e-02 -1.500118e-01 6.444129e-02 -5.606734e-02 -5.674445e-02 -1.716137e-01 9.537837e-02 1.855140e-01 -6.088424e-02 -2.183312e-01 -2.566850e-01 -1.770730e-01
<VARIANCE> 25
 2.006571e+00 6.092187e+00 6.250064e+00 7.962595e+00 1.465328e+01 1.539358e+01 1.249636e+01 2.093275e+01 2.896261e+01 1.876774e+01 1.492932e+01 2.116678e+01 1.713728e-01 2.468376e-01 6.103743e-01 9.255605e-01 1.227287e+00 1.419505e+00 1.492951e+00 1.798171e+00 3.129481e+00 2.027999e+00 1.707498e+00 1.803639e+00 9.804259e-02
<GCONST> 7.385603e+01
<MIXTURE> 15 2.718102e-02
<MEAN> 25
 -6.433188e-01 -1.558211e+00 -1.879200e+00 -1.510696e+00 -2.677547e+00 -3.549804e+00 -2.099609e+00 -2.096805e-01 2.092414e-01 -7.763689e-01 -1.016213e+00 -1.167975e+00 1.147035e-01 1.626197e-01 1.150108e-02 -3.169066e-02 -2.391695e-01 -2.306433e-01 -5.519709e-02 9.735283e-01 1.627056e+00 7.253324e-01 -3.616379e-01 -5.235438e-01 -1.440699e-01
<VARIANCE> 25
 4.057315e+00 6.527674e+00 5.771619e+00 8.510905e+00 1.018446e+01 1.134377e+01 1.118722e+01 1.945436e+01 1.636419e+01 1.468890e+01 1.814833e+01 2.535225e+01 2.886214e-01 5.349473e-01 8.875332e-01 8.147461e-01 8.519715e-01 1.212770e+00 1.426818e+00 1.362471e+00 1.031168e+00 1.513688e+00 1.596600e+00 1.383200e+00 1.549378e-01
<GCONST> 7.274163e+01
<MIXTURE> 16 2.555912e-02
<MEAN> 25
 -9.164010e-01 -2.824062e-01 1.983077e-01 1.258920e+00 1.538633e+00 1.302249e+00 -5.601235e-01 -2.322038e+00 7.879577e-01 3.505090e+00 4.202949e+00 4.098098e+00 1.150498e-01 -2.849390e-01 -4.715045e-01 -9.457176e-01 -9.953905e-01 -5.401617e-01 1.232870e-02 1.157702e-01 -3.680927e-01 -1.430096e-01 2.069169e-01 6.668105e-02 3.153187e-01
<VARIANCE> 25
 5.194545e+00 5.608988e+00 5.667770e+00 8.327725e+00 1.158798e+01 1.177775e+01 1.612585e+01 2.289908e+01 2.358521e+01 1.908243e+01 1.687786e+01 2.009741e+01 4.289238e-01 4.787017e-01 8.374428e-01 7.255610e-01 1.046540e+00 1.576308e+00 1.968132e+00 2.969730e+00 2.639689e+00 2.268729e+00 2.442775e+00 2.167434e+00 2.666870e-01
<GCONST> 7.825663e+01
<MIXTURE> 17 1.746674e-02
<MEAN> 25
 -5.585192e-01 2.088902e-01 -4.075432e-01 -6.625777e-01 2.802007e-01 1.685662e+00 1.217677e-01 -5.047700e-01 8.789110e-01 1.722162e+00 2.875167e+00 3.127959e+00 3.529969e-01 3.527735e-01 6.767932e-01 9.031529e-01 9.370807e-01 1.142899e+00 1.189578e+00 9.585620e-01 5.652718e-02 -1.431195e-01 4.642463e-01 2.261604e-01 -1.651850e-02
<VARIANCE> 25
 5.299745e+00 6.573986e+00 9.263365e+00 1.083399e+01 9.417224e+00 1.429546e+01 2.184867e+01 2.793673e+01 2.224157e+01 2.390352e+01 2.408643e+01 2.810928e+01 5.000900e-01 4.697920e-01 8.093902e-01 7.988711e-01 8.375831e-01 1.080743e+00 1.376610e+00 2.304609e+00 1.960075e+00 1.986899e+00 2.055472e+00 1.889477e+00 2.201788e-01
<GCONST> 7.859032e+01
<MIXTURE> 18 1.236517e-02
<MEAN> 25
 -8.905442e-01 8.107826e-01 7.386686e-01 4.089698e-01 -2.794073e+00 -6.513058e+00 -6.686658e+00 -6.341564e+00 8.130199e-01 -2.392747e+00 -5.427113e+00 2.306270e+00 1.237392e-01 7.049060e-02 3.170320e-01 2.588420e-01 4.920663e-02 2.187533e-01 -8.321402e-02 1.497150e-01 -1.535778e-01 -3.029401e-01 -4.423028e-01 -2.036639e-01 2.696257e-01
<VARIANCE> 25
 2.469338e+01 3.289277e+01 3.596469e+01 2.834541e+01 1.408365e+01 5.998096e+01 3.000997e+01 1.873317e+01 4.836006e+01 2.645085e+01 4.390400e+01 1.573253e+01 2.199327e+00 1.073402e+00 1.554653e+00 1.771005e+00 1.022646e+00 2.680540e+00 2.134895e+00 2.019112e+00 2.335978e+00 2.780391e+00 2.896193e+00 1.583369e+00 1.413346e+00
<GCONST> 9.441750e+01
<MIXTURE> 19 1.431473e-02
<MEAN> 25
 4.238831e-01 -9.154314e-02 5.242497e-01 1.524154e+00 2.428637e+00 2.388582e+00 4.406176e-01 -5.969379e-01 -1.049512e+00 2.034646e+00 1.807299e+00 1.330349e+00 -8.615509e-02 4.290053e-01 8.476217e-01 1.031873e+00 5.999831e-01 -1.938350e-01 -8.494076e-01 -4.936379e-01 6.916408e-01 1.158219e+00 6.942803e-01 -1.986461e-01 -2.771888e-01
<VARIANCE> 25
 4.415609e+00 5.439621e+00 7.639513e+00 1.120499e+01 1.283688e+01 1.049828e+01 1.478779e+01 2.093973e+01 2.831021e+01 2.469919e+01 2.383710e+01 2.873101e+01 1.945965e-01 4.887539e-01 3.671498e-01 6.129549e-01 8.040658e-01 1.036913e+00 1.481045e+00 1.519395e+00 1.831811e+00 1.117686e+00 9.975083e-01 1.662929e+00 6.619449e-02
<GCONST> 7.258624e+01
<MIXTURE> 20 2.977346e-02
<MEAN> 25
 8.746934e-01 2.418296e+00 2.871598e+00 3.503356e+00 -1.594319e+00 -7.245090e+00 -6.043466e+00 -7.170455e-01 3.796966e+00 8.113755e-01 -1.894150e+00 -6.219711e-01 -1.464818e-02 9.691811e-02 -5.019088e-02 -1.475944e-01 -1.085975e-01 -3.941524e-02 4.841886e-02 1.368465e-01 6.949853e-02 -1.079735e-01 1.458307e-02 7.635819e-02 -8.746726e-02
<VARIANCE> 25
 1.175612e+01 1.229577e+01 7.891961e+00 7.986719e+00 1.380392e+01 1.552958e+01 1.880183e+01 2.519717e+01 1.924006e+01 1.892970e+01 1.724723e+01 1.960304e+01 1.131704e-01 2.999130e-01 4.600079e-01 6.943507e-01 6.896635e-01 9.865323e-01 1.009730e+00 1.281328e+00 1.243701e+00 1.199766e+00 1.074647e+00 8.916138e-01 7.633746e-02
<GCONST> 7.144658e+01
<MIXTURE> 21 1.556844e-02
<MEAN> 25
 -7.547156e-01 6.877457e-01 1.038036e+00 -7.694103e-01 -2.885776e+00 -1.318072e+00 9.001919e-01 2.579880e+00 3.431020e+00 3.387248e+00 4.073401e+00 3.413511e+00 -1.142509e-02 -3.694833e-02 -3.016673e-02 -4.516691e-02 5.238474e-02 1.459724e-01 4.579639e-02 -3.169117e-02 1.371125e-01 6.243497e-02 -7.324348e-02 5.229568e-02 -7.715613e-02
<VARIANCE> 25
 2.998579e+00 8.835968e+00 7.533331e+00 5.556552e+00 6.361141e+00 5.439242e+00 1.321109e+01 1.485099e+01 3.198960e+01 1.683382e+01 2.356332e+01 3.093921e+01 1.122166e-01 1.739345e-01 3.628512e-01 5.501012e-01 6.856691e-01 8.798211e-01 7.300991e-01 7.867070e-01 1.236998e+00 9.585304e-01 1.104704e+00 9.037122e-01 6.552214e-02
<GCONST> 6.549730e+01
<MIXTURE> 22 1.754574e-02
<MEAN> 25
 6.157199e-01 9.653310e-01 -3.211514e+00 -3.435035e+00 1.707943e+00 1.819614e+00 -4.084795e+00 -1.447058e+00 6.513667e-01 -1.206813e+00 3.282133e+00 5.078659e+00 -2.251443e-02 4.452984e-02 -1.636391e-02 -2.536038e-02 2.761499e-02 -7.494996e-02 -1.109011e-02 8.701205e-02 9.769657e-02 1.371939e-01 8.137479e-02 1.371201e-01 -8.471017e-02
<VARIANCE> 25
 1.775954e+00 5.794183e+00 3.155435e+00 7.593830e+00 6.151181e+00 7.799943e+00 1.345244e+01 1.070835e+01 1.062831e+01 3.339552e+01 1.771383e+01 2.074273e+01 1.103313e-01 2.179478e-01 3.183036e-01 4.919056e-01 5.624841e-01 6.561986e-01 8.730724e-01 9.110731e-01 7.587644e-01 1.343947e+00 8.940526e-01 1.141484e+00 4.596530e-02
<GCONST> 6.222648e+01
<MIXTURE> 23 2.122609e-02
<MEAN> 25
 -8.606485e-01 7.275511e-01 5.587260e-01 -4.070605e-01 -3.223381e+00 -2.830971e+00 8.704914e-01 3.834617e+00 -1.743440e+00 -5.969918e+00 -2.779984e+00 -3.830336e+00 -2.244590e-01 -1.760067e-01 1.406144e-01 1.001267e-01 6.286391e-02 -8.287374e-02 -2.749073e-02 -2.112302e-01 -4.546966e-01 -1.969007e-01 1.826333e-01 4.149034e-01 1.145262e-01
<VARIANCE> 25
 3.589118e+00 4.344021e+00 7.605026e+00 7.517895e+00 9.620634e+00 1.094407e+01 1.132850e+01 1.094940e+01 1.400747e+01 1.602691e+01 1.143897e+01 3.994725e+01 1.998999e-01 4.088897e-01 8.071402e-01 7.837055e-01 7.367505e-01 9.684373e-01 1.493687e+00 1.068219e+00 1.320352e+00 1.453928e+00 1.304037e+00 8.862166e-01 1.525660e-01
<GCONST> 6.983961e+01
<MIXTURE> 24 2.768112e-02
<MEAN> 25
 -1.876646e+00 -1.003002e+00 -1.521258e+00 -2.392451e+00 -2.198257e+00 -8.134059e-01 1.131043e+00 -1.230176e+00 -3.213835e+00 -3.151602e+00 -3.824264e+00 -3.000975e+00 -4.137682e-01 -1.354808e-01 1.150448e-01 -3.514451e-02 9.008430e-02 3.579493e-01 5.602709e-01 -1.044817e-01 3.911376e-01 6.488732e-01 1.799501e-01 1.117817e-01 8.235726e-01
<VARIANCE> 25
 5.447192e+00 7.816202e+00 1.124149e+01 1.027425e+01 9.548635e+00 1.474239e+01 2.093378e+01 2.062372e+01 2.402265e+01 2.636035e+01 2.201793e+01 2.557356e+01 5.494468e-01 9.422765e-01 1.322223e+00 1.598096e+00 1.908983e+00 2.724556e+00 3.156249e+00 2.505906e+00 2.798711e+00 2.549196e+00 2.775422e+00 2.957922e+00 4.478231e-01
<GCONST> 8.532028e+01
<MIXTURE> 25 2.820266e-02
<MEAN> 25
 6.600797e-01 -1.560381e+00 1.023018e+00 -1.216285e+00 -4.950614e+00 -6.662485e+00 -6.196954e+00 -3.475973e+00 7.499855e-02 -1.051250e+00 -2.400684e+00 -1.582598e+00 2.348629e-01 1.099922e-01 1.676910e-01 2.843379e-01 1.424099e-01 3.804570e-01 2.434042e-01 1.378371e-01 -2.594335e-01 -7.669358e-02 2.838283e-01 1.426711e-01 -3.259714e-01
<VARIANCE> 25
 6.905325e+00 5.974411e+00 5.763948e+00 9.441975e+00 1.652127e+01 1.346084e+01 2.455918e+01 2.337425e+01 2.342856e+01 2.236312e+01 2.120158e+01 2.329392e+01 2.117199e-01 2.849523e-01 5.761510e-01 7.306191e-01 9.340633e-01 1.106217e+00 1.319703e+00 1.171806e+00 1.417056e+00 1.690361e+00 1.699369e+00 1.104772e+00 5.832307e-02
<GCONST> 7.334145e+01
<MIXTURE> 26 3.003232e-03
<MEAN> 25
 5.970816e-03 -1.500207e+00 -2.936725e+00 -1.407192e+00 4.377941e-01 -4.398171e+00 3.386494e-01 -8.380351e+00 -1.542407e+01 2.984571e+00 1.124368e+01 4.022437e+00 -1.384750e-01 -8.509005e-02 -1.615882e-02 -4.642868e-02 -7.825430e-02 4.884738e-02 3.514124e-02 1.160248e-01 -3.008741e-02 6.329110e-02 1.412837e-01 2.484492e-01 6.020856e-02
<VARIANCE> 25
 2.891234e+00 2.445462e+00 1.266220e+00 1.676877e+00 4.282941e+00 3.187060e+00 1.109355e+01 7.622776e+00 3.456735e+00 6.389279e+00 2.207513e+01 1.247812e+01 3.273709e-02 8.344570e-02 1.454663e-01 1.920721e-01 4.729967e-01 1.448599e-01 6.508673e-01 8.464055e-01 4.579393e-01 5.787966e-01 5.789306e-01 5.033814e-01 3.262867e-02
<GCONST> 4.567970e+01
<MIXTURE> 27 2.836061e-02
<MEAN> 25
 9.622456e-01 -1.605096e-01 4.776118e-01 1.844994e+00 2.485865e+00 8.456437e-01 -9.230121e-01 -4.038497e+00 -3.721211e+00 3.977799e+00 4.031973e+00 -2.629997e-01 -9.823064e-03 4.626128e-02 2.345288e-02 -4.338170e-02 -1.419617e-01 1.025065e-02 3.091261e-02 5.434984e-02 1.523186e-02 -8.593872e-02 2.190667e-02 6.605644e-02 -8.411242e-02
<VARIANCE> 25
 4.453715e+00 3.804089e+00 5.264957e+00 6.818874e+00 7.534830e+00 1.219935e+01 1.016061e+01 1.293171e+01 1.333428e+01 1.332218e+01 1.393590e+01 3.339571e+01 7.694810e-02 1.692299e-01 2.826521e-01 4.284135e-01 4.775216e-01 7.954816e-01 8.508895e-01 8.965160e-01 8.616964e-01 1.177575e+00 1.207767e+00 7.967620e-01 4.460901e-02
<GCONST> 6.225468e+01
<MIXTURE> 28 3.102884e-02
<MEAN> 25
 -1.591447e+00 -9.694759e-01 -9.941093e-01 1.120047e-01 3.614587e+00 4.927072e+00 1.627933e+00 -2.750532e+00 -5.475959e+00 -2.193833e+00 1.066031e+00 3.764916e+00 -2.400322e-02 -1.826666e-01 -1.893767e-01 5.673682e-03 9.651404e-02 5.870982e-02 2.939091e-02 1.360161e-01 5.612769e-02 -6.180849e-02 -1.586318e-01 -1.191443e-01 9.972425e-02
<VARIANCE> 25
 3.582910e+00 9.241112e+00 7.244606e+00 9.772852e+00 1.125474e+01 1.263117e+01 2.084664e+01 2.018146e+01 1.401251e+01 2.044795e+01 2.288122e+01 3.688461e+01 1.901339e-01 3.707715e-01 5.174241e-01 7.073468e-01 1.096411e+00 1.465915e+00 1.516709e+00 2.234876e+00 2.207206e+00 2.682666e+00 2.401190e+00 1.806743e+00 1.304424e-01
<GCONST> 7.634860e+01
<MIXTURE> 29 2.315961e-02
<MEAN> 25
 1.473047e-01 2.251787e+00 -1.096565e+00 -1.176700e+00 1.561102e+00 6.148662e+00 6.644825e+00 5.507976e+00 2.185885e+00 -1.196020e+00 -3.139488e+00 -1.545415e+00 -4.909121e-02 -2.293566e-01 -3.237828e-01 -2.482177e-01 9.984227e-02 1.925511e-01 -1.379500e-01 -1.323255e-01 6.509398e-02 2.180369e-01 -2.672468e-01 -4.360161e-01 8.943440e-03
<VARIANCE> 25
 3.159581e+00 5.770747e+00 7.153139e+00 1.022473e+01 9.525930e+00 1.158050e+01 1.406278e+01 1.410094e+01 1.092546e+01 1.180288e+01 1.334366e+01 1.541447e+01 1.675855e-01 3.273742e-01 5.925578e-01 9.477885e-01 9.105744e-01 1.442691e+00 1.583075e+00 1.895618e+00 1.478866e+00 1.326222e+00 1.332566e+00 1.149176e+00 1.360122e-01
<GCONST> 7.031806e+01
<MIXTURE> 30 1.110950e-02
<MEAN> 25
 -5.565247e-01 -2.017601e+00 -6.222122e+00 -6.938999e+00 -6.363229e+00 -1.381290e+00 5.207801e+00 3.514240e+00 -2.233364e+00 -4.049853e+00 -1.809429e+00 -5.242309e+00 2.521151e-02 1.315367e-02 -1.432227e-02 -1.483237e-02 -6.917381e-02 7.159877e-02 2.648137e-02 2.047177e-02 1.721487e-01 4.674337e-02 -1.198062e-01 -8.041028e-02 -4.662548e-02
<VARIANCE> 25
 9.992173e-01 3.527088e+00 9.761296e+00 6.645490e+00 6.770020e+00 7.368676e+00 1.462575e+01 2.582277e+01 4.219416e+01 1.486594e+01 1.551830e+01 1.394997e+01 6.357639e-02 1.493947e-01 2.850530e-01 3.976224e-01 4.423118e-01 5.537074e-01 8.541266e-01 9.417533e-01 9.026930e-01 9.959280e-01 8.478014e-01 6.538109e-01 4.768777e-02
<GCONST> 6.084348e+01
<MIXTURE> 31 2.097386e-02
<MEAN> 25
 3.650042e+00 1.808996e+00 3.272699e+00 2.567139e+00 1.015014e+00 1.404334e+00 -1.496299e+00 -5.097426e+00 -6.639137e+00 -3.404593e+00 -9.761496e-01 -3.057107e-01 2.134011e-02 -1.795239e-02 -2.522798e-01 -1.052205e-01 1.580804e-01 1.325841e-01 2.065713e-01 3.245670e-02 -1.046161e-01 1.413140e-01 9.004688e-02 -8.301990e-02 -1.395142e-01
<VARIANCE> 25
 1.199155e+01 8.103166e+00 1.349180e+01 1.350740e+01 1.083831e+01 1.454095e+01 1.098217e+01 1.555822e+01 1.834695e+01 1.565737e+01 1.278808e+01 1.703440e+01 1.683670e-01 1.745513e-01 3.786631e-01 7.347203e-01 7.073247e-01 1.176048e+00 1.238374e+00 1.238200e+00 1.316955e+00 1.215659e+00 1.430785e+00 9.681513e-01 8.633288e-02
<GCONST> 7.075753e+01
<MIXTURE> 32 2.925733e-02
<MEAN> 25
 -1.949312e-01 -9.071352e-01 3.787100e-01 2.510683e+00 2.296091e+00 1.495686e+00 1.020483e+00 5.469514e-01 -1.169054e-01 1.825849e+00 -1.498965e+00 -3.560612e+00 9.355693e-02 -5.676859e-03 -1.852442e-01 7.397453e-02 3.023121e-01 1.127242e-01 9.055981e-02 8.453657e-02 -1.417967e-01 2.534782e-01 7.075975e-01 1.131183e-01 -1.812965e-01
<VARIANCE> 25
 2.742796e+00 6.111667e+00 4.956413e+00 6.626603e+00 1.321637e+01 1.537051e+01 1.378434e+01 1.451203e+01 1.412944e+01 1.423653e+01 1.183412e+01 1.189298e+01 1.438347e-01 2.905544e-01 3.698220e-01 5.424393e-01 8.027188e-01 9.198401e-01 9.994029e-01 1.522825e+00 1.326806e+00 1.309817e+00 1.291717e+00 1.395445e+00 7.550424e-02
<GCONST> 6.701479e+01
<MIXTURE> 33 2.240391e-02
<MEAN> 25
 -1.374874e+00 -1.708972e+00 -1.090300e+00 -2.904190e+00 -3.029179e+00 -4.076233e+00 -1.990701e+00 -2.539608e+00 -1.154157e+00 -1.214545e+00 -2.258722e+00 -1.379914e+00 5.500070e-01 -2.600566e-01 -2.725552e-01 -7.203922e-01 -9.548703e-01 -1.019935e+00 -7.221085e-01 -3.431539e-01 -6.369866e-01 2.775829e-01 9.561175e-01 2.849332e-01 8.608741e-02
<VARIANCE> 25
 4.283539e+00 5.211048e+00 7.566086e+00 9.160121e+00 1.514395e+01 1.841862e+01 2.415789e+01 2.204279e+01 3.367413e+01 2.277859e+01 2.156346e+01 2.706633e+01 4.644211e-01 4.964040e-01 7.752631e-01 1.101057e+00 9.783376e-01 1.607002e+00 2.362917e+00 2.359936e+00 2.667612e+00 2.407986e+00 2.441690e+00 2.366474e+00 3.581322e-01
<GCONST> 8.134404e+01
<MIXTURE> 34 2.608151e-02
<MEAN> 25
 -1.743737e+00 -1.194023e+00 -2.018065e+00 -2.058427e+00 -1.735528e+00 -3.463369e+00 -3.399286e+00 -1.157523e+00 3.935170e+00 3.082618e+00 5.108380e-01 3.136553e-01 -5.503337e-01 -2.632141e-01 1.176653e-01 -9.786174e-02 1.402340e-01 -2.484959e-01 -4.172067e-01 -9.385151e-01 -2.593463e-01 -1.390985e-01 -4.496192e-01 3.514513e-01 8.193899e-01
<VARIANCE> 25
 6.368917e+00 8.927423e+00 7.506431e+00 9.227666e+00 1.170517e+01 1.524729e+01 2.547203e+01 3.170410e+01 2.701299e+01 2.015973e+01 1.808771e+01 2.059737e+01 4.108455e-01 6.637548e-01 9.097446e-01 1.343264e+00 1.251598e+00 1.493595e+00 2.539727e+00 2.360615e+00 3.013787e+00 2.342622e+00 2.244119e+00 2.113824e+00 2.231239e-01
<GCONST> 8.165327e+01
<MIXTURE> 35 1.540170e-02
<MEAN> 25
 3.725738e-01 -9.321754e-01 -3.017587e+00 -5.338827e+00 -6.074380e+00 -4.605608e+00 -2.583514e+00 1.153486e+00 5.118749e+00 3.407453e+00 -1.632931e+00 -5.446806e+00 1.062398e-01 6.430575e-02 3.184674e-02 4.011660e-02 1.577658e-02 -1.261935e-01 -2.819923e-01 -1.185287e-01 -8.307888e-03 9.028576e-03 3.591050e-03 -3.419431e-01 -2.177120e-01
<VARIANCE> 25
 3.333456e+00 4.436121e+00 1.016294e+01 7.061473e+00 1.413395e+01 1.131308e+01 1.128956e+01 9.099508e+00 7.864841e+00 1.373992e+01 1.501260e+01 2.244497e+01 2.843119e-01 3.626986e-01 6.220883e-01 5.651077e-01 7.380525e-01 8.602946e-01 9.862680e-01 1.068096e+00 1.017605e+00 1.111003e+00 8.670090e-01 1.078439e+00 8.662735e-02
<GCONST> 6.701337e+01
<MIXTURE> 36 2.611423e-02
<MEAN> 25
 -3.139684e-01 -2.328275e+00 -2.384026e+00 -2.719102e+00 -4.077562e+00 -6.266327e+00 -5.685880e+00 -3.231258e+00 -2.139189e+00 -2.580778e+00 -1.041505e+00 -7.503978e-01 -8.162227e-02 1.262816e-01 6.827666e-02 1.578082e-01 1.988914e-01 2.167426e-01 -7.795677e-02 -6.121581e-02 -9.120724e-02 -3.998283e-01 -2.911719e-01 -7.138991e-02 -1.049339e-01
<VARIANCE> 25
 3.770114e+00 3.319522e+00 6.253469e+00 6.972990e+00 9.171576e+00 9.924892e+00 9.707756e+00 1.509136e+01 1.314753e+01 1.325285e+01 2.093245e+01 1.546355e+01 1.293539e-01 2.411442e-01 4.864815e-01 6.753801e-01 9.763451e-01 9.429047e-01 1.067889e+00 1.416970e+00 1.325427e+00 1.200073e+00 1.108892e+00 1.204639e+00 9.731404e-02
<GCONST> 6.686219e+01
<MIXTURE> 37 1.570209e-02
<MEAN> 25
 4.062321e-01 1.157808e+00 -1.586217e+00 -4.159604e+00 -3.507340e+00 6.817631e-01 4.034855e+00 8.602018e+00 8.930947e+00 3.685502e+00 4.608570e-01 -3.130768e+00 -5.798925e-02 1.090020e-01 5.675181e-03 -1.103289e-01 -2.843291e-02 -3.025271e-02 7.046273e-02 1.575359e-01 2.106126e-01 1.143830e-01 -9.222557e-02 -2.754398e-01 -1.177746e-01
<VARIANCE> 25
 4.478130e+00 3.148648e+00 5.863287e+00 7.828671e+00 1.107915e+01 1.242445e+01 1.166706e+01 1.434450e+01 1.415738e+01 1.072137e+01 1.568785e+01 1.913614e+01 1.599865e-01 4.099787e-01 4.531760e-01 8.899521e-01 8.473822e-01 7.802187e-01 1.368379e+00 1.497963e+00 1.437453e+00 1.136901e+00 1.314735e+00 1.033909e+00 8.986904e-02
<GCONST> 6.825174e+01
<MIXTURE> 38 2.526262e-02
<MEAN> 25
 -6.136523e-01 -1.053750e+00 1.317907e-01 -1.350513e+00 -2.519511e+00 -1.090593e+00 -1.215864e-01 -3.179740e+00 -6.276717e+00 -6.551633e+00 -4.875402e+00 -2.544790e+00 2.173659e-02 -9.143597e-03 -9.447219e-02 1.684163e-01 3.275472e-01 3.265121e-01 1.308656e-01 2.954909e-01 2.174315e-01 -8.596383e-02 -2.937822e-01 -1.108586e-01 -1.714655e-01
<VARIANCE> 25
 2.817731e+00 7.596206e+00 8.484713e+00 4.992628e+00 1.159099e+01 8.680091e+00 1.373605e+01 1.666455e+01 1.544642e+01 1.557103e+01 2.382189e+01 2.815670e+01 1.902912e-01 2.707438e-01 5.259441e-01 7.660035e-01 9.933670e-01 9.319510e-01 1.404453e+00 1.821549e+00 1.461072e+00 1.429391e+00 1.467939e+00 1.429523e+00 6.941126e-02
<GCONST> 7.058968e+01
<MIXTURE> 39 3.061740e-02
<MEAN> 25
 1.190075e+00 1.271772e+00 1.468055e+00 1.278653e+00 -5.088598e-02 9.383750e-01 2.390002e+00 3.266470e+00 -1.657757e+00 -3.572665e+00 -1.509938e-01 2.190431e+00 1.163895e-01 1.750586e-01 -3.011917e-02 -1.615593e-01 -1.391529e-01 8.342554e-02 5.257946e-02 5.330702e-03 5.389412e-02 4.723366e-02 -1.888470e-01 -2.606669e-01 -2.346365e-01
<VARIANCE> 25
 2.746203e+00 6.528208e+00 7.673652e+00 6.110284e+00 7.433188e+00 1.304236e+01 1.168686e+01 1.538740e+01 1.489971e+01 9.904425e+00 1.352353e+01 1.425959e+01 1.196099e-01 2.097329e-01 3.048357e-01 4.143057e-01 6.959795e-01 7.793735e-01 9.801467e-01 1.302809e+00 1.185680e+00 1.164253e+00 1.334800e+00 9.832307e-01 5.218183e-02
<GCONST> 6.422285e+01
<MIXTURE> 40 2.052527e-02
<MEAN> 25
 -1.941445e-01 -2.870115e+00 -2.064039e+00 -7.865942e-02 -1.093007e+00 -5.154566e+00 -7.675471e+00 -3.173646e+00 3.848207e+00 6.258561e+00 3.358330e+00 1.738881e-01 1.098886e-01 -3.652428e-02 -1.890909e-01 -6.465082e-02 -1.947504e-01 6.508090e-02 7.718061e-02 -7.677853e-02 -2.037500e-01 -1.539637e-01 9.689092e-02 -1.735954e-01 -1.803088e-01
<VARIANCE> 25
 3.480841e+00 5.128243e+00 6.454906e+00 7.760781e+00 1.113198e+01 1.301515e+01 1.944410e+01 2.619232e+01 2.684128e+01 1.718359e+01 2.022459e+01 2.288519e+01 1.853907e-01 2.798259e-01 5.058109e-01 8.252310e-01 8.965779e-01 1.163306e+00 2.102498e+00 1.500899e+00 1.380348e+00 1.968054e+00 1.651838e+00 1.253010e+00 1.219423e-01
<GCONST> 7.320445e+01
<MIXTURE> 41 2.749175e-02
<MEAN> 25
 1.200707e-01 1.325485e-01 -3.178169e-01 7.691624e-01 5.081805e-01 -2.925977e+00 -4.994336e+00 -2.049846e+00 1.316977e-01 -8.513179e-01 -1.621358e+00 -1.722022e+00 -2.034320e-02 -1.148542e-01 -2.911143e-01 -1.323761e-01 8.700253e-02 3.016097e-01 4.334246e-01 8.729926e-02 -3.332347e-01 -3.109370e-01 -2.707166e-01 -1.683700e-01 -7.245690e-02
<VARIANCE> 25
 2.849981e+00 5.124060e+00 5.137711e+00 6.071332e+00 1.009647e+01 9.417860e+00 7.876050e+00 1.223104e+01 1.161818e+01 1.080238e+01 1.062029e+01 2.243426e+01 8.246772e-02 2.899093e-01 4.954152e-01 6.981027e-01 8.585635e-01 1.227446e+00 1.135021e+00 1.191230e+00 1.168242e+00 1.145035e+00 1.239556e+00 1.439633e+00 7.756418e-02
<GCONST> 6.536888e+01
<MIXTURE> 42 2.382664e-02
<MEAN> 25
 1.658830e-01 6.656833e-02 1.083238e+00 1.230533e+00 1.239496e+00 -1.042707e-02 -2.511417e+00 -4.124095e+00 -2.188849e+00 -7.016655e-03 -2.321761e-01 -1.578646e-01 3.504514e-01 1.588709e-01 2.595029e-01 2.525916e-01 -2.857045e-01 -9.741648e-01 -1.345352e+00 -6.978704e-01 -1.665703e-01 4.275857e-01 4.625944e-01 -7.865982e-02 -2.376557e-01
<VARIANCE> 25
 6.797491e+00 9.178207e+00 4.309798e+00 9.445699e+00 9.164284e+00 1.564024e+01 1.951600e+01 2.193905e+01 2.302948e+01 2.967692e+01 1.804917e+01 2.551726e+01 3.437538e-01 3.678469e-01 6.558540e-01 4.858383e-01 6.659529e-01 9.145021e-01 8.828600e-01 1.249781e+00 1.539422e+00 1.467711e+00 1.713728e+00 2.127499e+00 1.568529e-01
<GCONST> 7.411815e+01
<MIXTURE> 43 2.072093e-02
<MEAN> 25
 -1.554100e+00 -1.339171e+00 -2.044839e+00 -2.233030e+00 3.206572e-02 2.485770e+00 5.524224e+00 5.332272e+00 1.649833e+00 -2.568772e+00 -5.910034e+00 -6.270152e+00 5.409680e-02 4.920211e-02 1.220120e-01 9.676461e-03 -2.213983e-01 -4.607870e-01 -2.957428e-01 -2.769308e-01 -2.577199e-01 -1.399367e-01 1.632332e-01 3.186409e-01 -1.019511e-02
<VARIANCE> 25
 3.572544e+00 5.549690e+00 7.310392e+00 9.730239e+00 1.433270e+01 1.477663e+01 1.708752e+01 1.602426e+01 2.274940e+01 1.463206e+01 1.768867e+01 1.906183e+01 2.706861e-01 3.788002e-01 6.369719e-01 7.476496e-01 1.070170e+00 1.470969e+00 1.340187e+00 1.419994e+00 1.385976e+00 1.191776e+00 1.781024e+00 1.724712e+00 1.859923e-01
<GCONST> 7.381474e+01
<MIXTURE> 44 1.638696e-02
<MEAN> 25
 -1.844753e+00 3.588451e-02 2.940484e+00 3.851569e+00 4.964684e+00 2.459162e+00 1.948556e+00 3.376427e+00 5.597235e+00 -8.363823e-01 -6.880733e+00 -3.266980e+00 1.260093e-01 -7.173353e-02 4.697873e-02 -9.456322e-02 -5.736838e-01 -6.730186e-01 9.784123e-02 2.538175e-01 -1.657559e-01 -2.738184e-01 -1.239881e-01 -2.772938e-01 -2.992409e-02
<VARIANCE> 25
 3.569389e+00 7.450502e+00 9.591240e+00 1.200072e+01 2.355011e+01 2.929199e+01 2.006408e+01 2.790590e+01 3.340151e+01 2.692797e+01 3.167680e+01 2.481407e+01 2.952048e-01 4.250748e-01 6.823577e-01 1.383750e+00 1.367037e+00 1.861874e+00 2.579224e+00 3.036357e+00 2.967605e+00 2.435529e+00 3.439231e+00 2.184165e+00 2.114141e-01
<GCONST> 8.360624e+01
<MIXTURE> 45 2.255735e-02
<MEAN> 25
 5.224366e-04 -8.357334e-01 -8.463579e-01 -2.151737e+00 -2.307721e+00 -1.240609e+00 7.392117e-01 3.117231e-02 -1.951053e+00 -7.859868e-01 4.584669e-01 -6.155369e-02 1.093933e-01 2.991177e-01 4.268055e-01 5.620136e-01 3.880595e-01 1.114470e-01 -3.090229e-03 -1.208174e-01 -1.185279e+00 -1.827313e+00 -1.155213e+00 -2.155522e-01 -2.883122e-01
<VARIANCE> 25
 2.908121e+00 3.888348e+00 9.988852e+00 9.158532e+00 1.006954e+01 1.161126e+01 1.631495e+01 2.551470e+01 2.363857e+01 2.315105e+01 2.538842e+01 2.858243e+01 2.897139e-01 3.405381e-01 5.060071e-01 8.884493e-01 1.539610e+00 1.333500e+00 1.395014e+00 1.817777e+00 1.732642e+00 1.100691e+00 2.174992e+00 1.904067e+00 1.254451e-01
<GCONST> 7.509838e+01
<MIXTURE> 46 2.254909e-02
<MEAN> 25
 6.586503e-01 -1.720789e-01 -1.815058e+00 1.162522e+00 3.393711e+00 2.837065e+00 2.074446e+00 4.392112e+00 4.598229e+00 5.078499e+00 4.492434e+00 1.190780e+00 -1.458529e-02 9.859707e-02 -1.269648e-02 -2.149409e-01 -2.598630e-01 -2.661146e-01 -1.319758e-01 -1.505039e-01 -1.767619e-01 -3.958305e-01 -1.244829e-01 -8.392926e-02 -9.943734e-02
<VARIANCE> 25
 3.428530e+00 3.922392e+00 6.292217e+00 1.083591e+01 1.403501e+01 1.728140e+01 1.097769e+01 1.213359e+01 1.124907e+01 1.588456e+01 1.564165e+01 2.204995e+01 1.479215e-01 3.996410e-01 6.396594e-01 7.838765e-01 7.345687e-01 1.116590e+00 1.726386e+00 1.267870e+00 1.459218e+00 1.486082e+00 9.858505e-01 8.618091e-01 7.582576e-02
<GCONST> 6.927819e+01
<MIXTURE> 47 1.743033e-02
<MEAN> 25
 -4.329211e-02 -1.864208e-01 -3.827668e+00 -4.091160e+00 4.524125e-01 5.347406e-01 -3.437048e+00 -4.630270e+00 -3.176353e+00 2.363974e-01 9.791250e-01 3.832039e-02 -3.384398e-02 9.189424e-02 3.016208e-02 -9.708080e-02 -4.531150e-02 -1.139038e-01 -1.149038e-01 -3.665266e-01 -2.052503e-01 7.602118e-02 2.104472e-01 -9.203715e-03 -1.420543e-01
<VARIANCE> 25
 5.712185e+00 1.384339e+01 4.657225e+00 5.178191e+00 8.205440e+00 7.380614e+00 1.194743e+01 1.510179e+01 1.204391e+01 1.681544e+01 2.001520e+01 2.714123e+01 1.084052e-01 3.496282e-01 3.841561e-01 5.143307e-01 6.891106e-01 1.070980e+00 1.289480e+00 1.161995e+00 9.862208e-01 1.241452e+00 1.196870e+00 1.123772e+00 5.406123e-02
<GCONST> 6.719500e+01
<MIXTURE> 48 1.640160e-02
<MEAN> 25
 -5.267357e-01 -1.996998e+00 -4.028450e+00 -6.139412e+00 -5.162755e+00 -2.503309e+00 2.447989e+00 1.277269e+00 -3.750891e+00 -2.981505e+00 8.659698e-01 -3.850130e-01 1.322444e-01 -2.480725e-01 -3.581288e-01 -2.264363e-01 -3.337997e-01 -1.083324e-01 -1.677644e-02 5.511641e-02 -4.339712e-01 -3.307296e-01 9.164866e-03 1.772381e-01 -1.784351e-01
<VARIANCE> 25
 4.898409e+00 5.966703e+00 6.028596e+00 7.055667e+00 8.843891e+00 1.287651e+01 1.665620e+01 1.785107e+01 2.145722e+01 1.585940e+01 1.949279e+01 2.188143e+01 2.588817e-01 3.917754e-01 6.589853e-01 9.953365e-01 1.107643e+00 8.808696e-01 2.277004e+00 2.643728e+00 2.059274e+00 1.687339e+00 1.380363e+00 1.257499e+00 1.431447e-01
<GCONST> 7.430120e+01
<MIXTURE> 49 1.618515e-02
<MEAN> 25
 -8.138914e-01 -4.822111e-01 -2.965822e-02 -1.887752e+00 -3.848426e+00 -2.382956e+00 2.687019e-01 1.130394e+00 1.546658e+00 2.109471e+00 2.184334e+00 1.583805e+00 -3.697097e-02 -1.608232e-01 -1.882055e-01 -2.485768e-01 -9.990654e-02 8.231729e-03 -1.488355e-01 -2.234368e-01 -7.924580e-02 -7.941766e-02 -2.273696e-01 -1.460824e-01 -1.022098e-01
<VARIANCE> 25
 2.622840e+00 9.109088e+00 7.704268e+00 5.564393e+00 6.662674e+00 5.341885e+00 1.666291e+01 1.748285e+01 2.869435e+01 1.857162e+01 2.136912e+01 3.363581e+01 1.147130e-01 1.718929e-01 3.046103e-01 5.326225e-01 6.077819e-01 8.049048e-01 7.272044e-01 7.997112e-01 1.182938e+00 9.286821e-01 1.122167e+00 9.343908e-01 5.876521e-02
<GCONST> 6.528631e+01
<TRANSP> 3
 0.000000e+00 1.000000e+00 0.000000e+00
 0.000000e+00 5.000000e-01 5.000000e-01
 0.000000e+00 0.000000e+00 0.000000e+00
<ENDHMM>
